<?xml version="1.0"?>
<opencv_storage>
<my_svm type_id="opencv-ml-svm">
  <svm_type>C_SVC</svm_type>
  <kernel><type>LINEAR</type></kernel>
  <C>1.0000000000000000e-002</C>
  <term_criteria><epsilon>1.1920928955078125e-007</epsilon>
    <iterations>1000</iterations></term_criteria>
  <var_all>3060</var_all>
  <var_count>3060</var_count>
  <class_count>2</class_count>
  <class_labels type_id="opencv-matrix">
    <rows>1</rows>
    <cols>2</cols>
    <dt>i</dt>
    <data>
      -1 1</data></class_labels>
  <sv_total>1</sv_total>
  <support_vectors>
    <_>
      -6.11404255e-002 -3.46962139e-002 3.09201647e-002 1.10625774e-002
      3.84549126e-002 -4.92861308e-002 -9.98428091e-003 -3.66987176e-002
      -6.33104369e-002 -3.96799855e-002 -2.70990040e-002 2.55953372e-002
      -4.92388336e-003 1.84009261e-002 -3.40619795e-002 6.59755338e-003
      -3.39545980e-002 -6.66154698e-002 -1.83299016e-002
      -1.38125103e-002 -3.88403726e-003 -1.21015674e-002 2.38633305e-002
      -4.01781276e-002 -1.80952866e-002 -3.41169238e-002
      -3.95956486e-002 -5.99314794e-002 -2.46756990e-002
      -1.59165449e-002 -4.32124622e-002 -2.29040906e-002
      -3.68255265e-002 -1.56514645e-002 -1.54410191e-002
      -5.86260296e-002 -4.84382082e-003 -1.00958697e-003 1.33711416e-002
      -1.13835093e-002 2.54298914e-002 -1.11032641e-002 3.57744209e-002
      6.80670561e-003 -3.69243696e-002 -6.38550892e-002 -1.19330175e-002
      1.12877516e-002 8.13408103e-003 4.49645668e-002 9.67578817e-005
      1.84964929e-002 -1.44577082e-002 -7.53813535e-002 4.17746929e-003
      -8.86525842e-004 -1.59830265e-002 -2.78652236e-002
      -2.96673831e-002 -3.61073092e-002 1.02258602e-003 -1.17904954e-002
      -2.76443474e-002 -3.43399644e-002 -6.33425137e-004 2.00432885e-004
      -2.24243458e-002 -3.78519073e-002 -4.76119407e-002
      -2.47248709e-002 -5.42290173e-002 -6.03213869e-002
      -3.56722288e-002 3.38527188e-002 3.03460173e-002 6.78412709e-003
      1.61100570e-002 -3.97665501e-002 6.03961409e-004 -1.26940897e-002
      -4.37716506e-002 -4.00459953e-002 3.71195655e-003 1.88855994e-002
      2.14044773e-003 -7.87673518e-003 -5.02335206e-002 -2.71692406e-003
      -3.98201905e-002 -3.37341018e-002 -2.61169188e-002 1.89552107e-003
      -1.47156436e-002 -4.61769588e-002 -1.94643736e-002
      -3.52604054e-002 -1.36907892e-002 -3.37976366e-002
      -5.76128960e-002 -5.89299649e-002 -1.28193982e-002
      -4.82591335e-003 -5.42927682e-002 -2.40094904e-002
      -2.72192787e-002 1.34784523e-002 -1.76057555e-002 -4.81073186e-002
      -2.36395691e-002 -3.56769636e-002 -5.64273214e-003 2.83836666e-003
      2.18045060e-002 -3.44522856e-002 6.74668746e-003 -2.65249684e-002
      2.94144079e-003 -2.90293321e-002 -5.01878709e-002 -4.22327369e-002
      -1.64575167e-002 1.59530360e-002 -1.92758795e-002 4.44017211e-003
      -5.52697293e-002 -1.49342720e-003 -2.01633498e-002
      -2.07381714e-002 6.01299282e-004 -2.64413767e-002 -1.40838353e-002
      -1.87759846e-002 3.10937595e-002 -1.03190839e-002 -1.40653215e-002
      -2.09870692e-002 -4.69484627e-002 -4.73773293e-002
      -2.63469629e-002 2.00085752e-002 1.19094560e-002 2.14861371e-002
      -2.69247089e-002 -2.80007790e-003 -1.74622461e-002
      -8.01292956e-002 -9.53924283e-002 -3.74740325e-002
      -7.86165614e-003 -1.03493137e-002 3.62149323e-003 -4.71448712e-002
      4.99438634e-003 -3.42478007e-002 -8.24593157e-002 -5.15056737e-002
      -1.05045876e-002 -5.73033048e-003 -3.48440111e-002
      -1.23810871e-002 -4.97952756e-003 9.22168512e-003 1.66230462e-002
      -3.45809981e-002 -6.54988140e-002 -4.74732108e-002 8.13330803e-003
      2.28268337e-002 4.15932536e-002 -2.09985096e-002 1.88725144e-002
      6.53672824e-003 -3.06860842e-002 -4.93934890e-003 -1.82938110e-002
      3.10162697e-002 1.30684637e-002 4.22453992e-002 1.51441004e-002
      1.32992603e-002 -3.91340479e-002 -6.32833615e-002 -3.16439867e-002
      1.34236710e-002 -8.71208031e-003 -2.90204566e-002 -1.92314964e-002
      -1.32949362e-002 -2.24010623e-003 -3.78319807e-002
      -5.06956615e-002 -4.88254838e-002 -5.81545718e-002
      -3.69650349e-002 -6.51874021e-002 -5.87742850e-002
      -2.36133300e-002 -1.94517411e-002 -2.58268770e-002
      -2.37674210e-002 4.07781918e-003 1.39303170e-002 5.09054773e-002
      1.79292392e-002 2.88336873e-002 1.38226179e-002 2.78071705e-002
      -4.69092466e-002 -4.88503184e-003 -3.23659577e-003
      -7.01307273e-003 1.53981065e-002 -1.81151517e-002 -2.61566392e-003
      -2.86555174e-003 -1.00526130e-002 -4.26103882e-002
      -7.75348917e-002 -6.29282147e-002 -4.82555926e-002
      -2.84371544e-002 -8.54558684e-003 -2.38820780e-002 1.47012146e-002
      4.61984472e-003 -5.63503206e-002 -7.20803663e-002 -7.31654316e-002
      -6.22838326e-002 -1.90609116e-002 -1.67217832e-002
      -1.29299238e-002 -2.70342547e-002 2.44557229e-003 -4.15436849e-002
      -4.34340239e-002 -1.66699737e-002 2.09210943e-002 4.75648381e-002
      3.83611433e-002 4.60213758e-002 2.30360944e-002 1.83212534e-002
      -2.52315700e-002 -5.53802140e-002 -8.48856010e-003 1.72314942e-002
      5.26217893e-002 3.52979004e-002 3.73158380e-002 -4.70898952e-003
      3.23445760e-002 -3.96827534e-002 -6.27281964e-002 -3.41355652e-002
      -6.71274289e-002 -4.47458513e-002 -3.14279348e-002
      -1.49822896e-002 -5.09447791e-002 -5.42384526e-003
      -1.78704634e-002 -4.62785959e-002 -1.15594920e-002
      -3.95668782e-002 -6.13555452e-003 -4.26524542e-002
      -1.12938238e-002 -4.20130081e-002 1.67612974e-002 -1.67857297e-002
      -4.54349965e-002 -4.27584490e-003 2.64759026e-002 2.48810230e-003
      -7.89980579e-004 -1.32942479e-002 -1.24419006e-002 2.59444378e-002
      -1.43840136e-002 -2.00801268e-002 -1.53407149e-004 9.29947849e-003
      2.73478534e-002 -5.50842658e-003 -1.48055311e-002 -1.03562195e-002
      2.55624484e-002 7.57971220e-003 -2.79114712e-002 -1.29317529e-002
      -3.50001194e-002 -6.68570213e-003 -5.37507311e-002
      -1.99130811e-002 -1.46031044e-002 3.39655019e-002 3.68964002e-002
      -2.56657209e-002 -2.74369102e-002 -4.35767882e-002 1.20671513e-002
      -1.67146772e-002 1.50612893e-003 1.45271886e-002 5.79026006e-002
      -9.11181141e-003 -3.06294300e-002 -2.78451312e-002
      -2.61338539e-002 1.46509735e-002 -2.61464417e-002 2.22471519e-003
      -1.44296288e-002 1.04807215e-002 1.43110743e-002 -4.78966273e-002
      -4.33076099e-002 -4.34323363e-002 -1.40622286e-002 6.97559444e-003
      8.20908230e-003 -1.42643917e-002 1.15586398e-002 1.80558320e-002
      -4.78366651e-002 -3.66917104e-002 -2.66865902e-002 4.71047312e-002
      -4.95887315e-003 6.39404496e-003 -7.90415797e-003 3.32502909e-002
      -3.55455419e-003 -3.52900140e-002 -2.79787509e-003 2.47362778e-002
      9.04247314e-002 3.52821760e-002 4.18114327e-002 9.72878654e-003
      1.63412038e-002 -2.64059124e-003 -8.75600055e-002 -9.72621515e-002
      -9.12137702e-002 8.58262554e-003 1.09697906e-002 -7.67403515e-003
      -3.56074311e-002 2.00176742e-002 -1.81538332e-002 -5.46021797e-002
      -6.09965697e-002 -6.34718686e-002 4.59451191e-002 9.54984035e-003
      9.89846606e-003 -1.47454571e-002 -5.07028028e-003 -1.92436911e-002
      -6.50476217e-002 -3.15158367e-002 -6.93696830e-003 7.74320811e-002
      3.05504277e-002 4.61196676e-002 3.46003170e-003 1.50628071e-002
      1.22763654e-002 -3.67625430e-002 -3.22811282e-003 3.24833691e-002
      8.37728009e-002 6.30928650e-002 4.50951494e-002 1.37806162e-002
      2.93147285e-002 -1.24772312e-002 -5.80871962e-002 -5.64738065e-002
      -4.01201434e-002 1.95318181e-002 -1.52595798e-002 -1.90202659e-003
      -2.40758508e-002 -2.34177592e-003 -2.72823200e-002
      -5.98603413e-002 -5.12295924e-002 -3.75581086e-002 7.94619601e-003
      -4.18156758e-003 -1.05797853e-002 -3.26510146e-002
      -1.60239525e-002 1.16791448e-003 -2.97550205e-002 -3.55370268e-002
      -1.20285889e-002 8.29996318e-002 4.40023541e-002 1.06980102e-002
      -1.57533959e-002 2.85739731e-002 -6.55227527e-003 -1.57706551e-002
      -1.52876433e-002 1.14156147e-002 1.16567828e-001 7.94857666e-002
      3.74257863e-002 2.16357149e-002 1.79698784e-002 -7.96133578e-002
      -8.76824632e-002 -5.84994480e-002 -5.86931780e-002 3.01384158e-003
      1.98196042e-002 3.55516234e-003 -3.09498031e-002 -4.48498726e-002
      -5.71565405e-002 -7.63909444e-002 -5.45654856e-002
      -5.03885821e-002 4.20194082e-002 4.14144248e-002 3.76421772e-002
      -2.18211487e-002 -5.11920564e-002 -9.16007382e-004
      -2.43460760e-002 -5.51497303e-002 -2.79299263e-002 9.20725092e-002
      4.43613268e-002 1.06305238e-002 5.20169036e-003 1.74638648e-002
      6.76633865e-002 2.67388299e-003 -4.08400260e-002 -2.67841872e-002
      8.65589082e-002 8.99777338e-002 4.60115410e-002 8.93457327e-004
      4.68158610e-002 -7.59388506e-002 -1.04607098e-001 -6.04299158e-002
      -6.55601323e-002 1.27020478e-002 1.23232873e-002 -5.89477178e-003
      -4.33702096e-002 -5.98881207e-002 -6.42738417e-002
      -5.46351038e-002 -5.36897369e-002 -4.22082581e-002 1.17880451e-002
      2.00176369e-002 -1.49213597e-002 -7.70099685e-002 -7.32650608e-002
      1.38477543e-002 -3.63594592e-002 -7.68161342e-002 -4.28589620e-002
      6.08554557e-002 7.06204548e-002 1.73816865e-004 -6.32419288e-002
      -6.64003100e-003 5.52623197e-002 2.63371486e-002 -1.20899854e-002
      1.64842773e-002 9.64357704e-002 7.38736987e-002 -4.88108676e-003
      -3.25032137e-002 4.02973499e-003 -5.24065308e-002 -7.31394142e-002
      -7.10319057e-002 -6.26202002e-002 -2.80622188e-002
      -1.26710813e-002 -5.41395247e-002 -1.28987685e-001
      -7.45362416e-002 -1.35898683e-002 -1.37437750e-002
      -1.88709553e-002 -2.06797458e-002 1.61162522e-002 -1.54842073e-002
      -5.12150452e-002 -9.46477205e-002 -3.06968614e-002
      -2.11299839e-003 -1.76249240e-002 -1.05580157e-002 2.84138825e-002
      4.48838770e-002 2.54093073e-002 -3.39359753e-002 -5.99592850e-002
      -1.97628606e-002 6.51804432e-002 3.12406011e-002 2.07333211e-002
      5.13042249e-002 8.34236816e-002 3.98713388e-002 7.65203126e-003
      5.68096433e-003 7.26160333e-002 -3.23074535e-002 -5.40636517e-002
      -4.41127121e-002 -3.83810662e-002 -1.28949303e-002
      -3.49228680e-002 -7.85549209e-002 -9.67934206e-002
      -4.87531088e-002 2.18151920e-002 -2.84957942e-002 -2.50535496e-002
      2.03405543e-005 2.04629283e-002 -1.19492263e-002 -2.96999216e-002
      -3.22840437e-002 6.60765311e-003 7.20086694e-002 1.90838184e-002
      -2.53431536e-002 -1.07254200e-002 4.47360948e-002 -1.16148982e-002
      -5.25866561e-002 -3.31721492e-002 6.04260713e-002 1.09496742e-001
      7.08544031e-002 2.85621529e-004 4.58291210e-002 7.31746629e-002
      4.15213406e-002 7.56567111e-003 2.39219368e-002 1.05558619e-001
      3.61206681e-002 -4.55231927e-002 -6.51893169e-002 -2.39490438e-002
      -2.58229692e-002 -9.28542241e-002 -9.53817815e-002
      -6.84226975e-002 5.62704960e-003 8.47019404e-002 3.39677446e-002
      -9.12981853e-003 4.30474579e-002 1.18592316e-002 -3.63497585e-002
      -5.54908179e-002 -8.15257244e-003 6.16849512e-002 3.83993722e-002
      -2.57616471e-002 -6.80169165e-002 1.65361110e-002 4.36701514e-002
      1.89225506e-002 -5.38701788e-002 -1.99375805e-002 4.36440594e-002
      8.11994225e-002 2.10604314e-002 -9.00720153e-003 7.55955651e-002
      6.83801919e-002 4.87473644e-002 -4.74427417e-002 2.89294161e-002
      9.86714587e-002 3.51836463e-003 -5.45258969e-002 -6.88212216e-002
      1.99281028e-003 2.02909540e-002 -6.87497258e-002 -9.49764997e-002
      -3.85965332e-002 2.29840889e-003 9.05519724e-002 1.63965337e-002
      1.48479245e-003 1.00942984e-001 1.65252592e-002 -2.11471617e-002
      -9.73399282e-002 -8.35839100e-003 7.72509053e-002 -1.30421733e-002
      3.20855826e-002 1.18130296e-002 -8.20722338e-003 2.75460705e-002
      -1.01777830e-003 1.18551562e-002 1.29587939e-002 -1.13684805e-002
      -2.97679771e-002 -1.61671136e-002 -1.80929322e-002
      -1.99431945e-002 -1.75877474e-002 -3.19728255e-003 2.04038806e-002
      3.56798396e-002 -4.79138317e-003 -1.98828895e-002 1.05871595e-002
      1.88781449e-003 -3.36349383e-002 1.43331997e-002 -3.16426829e-002
      4.18537250e-003 -8.40594759e-004 -1.46292737e-002 -5.72842769e-002
      -4.46980186e-002 -4.42083888e-002 -5.28135188e-002
      -1.50339333e-002 -4.28376310e-002 -4.90221567e-003 1.16774486e-002
      -5.28904945e-002 1.28922928e-002 2.98354384e-002 1.12084504e-002
      -1.96803715e-002 4.95007029e-004 -3.31298448e-004 1.11916307e-002
      1.45291351e-002 1.46358786e-002 -5.21424413e-003 3.51868570e-002
      -6.10060384e-003 -1.01160789e-002 2.03220379e-002 -1.51865603e-002
      4.45807213e-003 -2.43777186e-002 -1.12083573e-002 -2.40906663e-002
      -8.97104759e-003 -2.41109170e-002 -2.94814631e-002 3.08225267e-002
      -1.93551311e-003 1.12227602e-002 2.14730818e-002 -1.73875317e-002
      -3.73374745e-002 -2.11965721e-002 -1.65941883e-002
      -8.40642489e-003 8.95162765e-003 -2.04352699e-002 -1.47244902e-002
      -3.34528126e-002 -4.39257659e-002 -7.02917436e-003 1.76280551e-002
      -3.01253367e-002 -3.67548577e-002 1.35658113e-002 -2.19696164e-002
      -2.17067101e-003 -1.93913560e-002 -1.15255639e-002
      -7.84357823e-003 1.20714738e-003 -1.02185830e-002 -3.13019119e-002
      8.99648573e-003 5.25090983e-003 2.46622842e-002 6.62337989e-003
      1.14948652e-003 -2.94096954e-002 -2.87948698e-002 -4.34725471e-002
      -3.47166359e-002 -3.73625342e-004 -6.13040738e-002
      -2.47997176e-002 -2.97098272e-002 -4.87067029e-002
      -9.51395370e-003 -2.52809701e-003 -2.52023153e-002
      -3.34497131e-002 -2.69920025e-002 -6.64226413e-002 2.42712535e-002
      -2.06874823e-003 1.20154442e-002 -4.14726995e-002 -4.81245294e-002
      -4.13882695e-002 -4.22235206e-002 -1.91021524e-002
      -1.58797819e-002 4.94018476e-003 -1.44136342e-004 -1.84369385e-002
      -1.54431891e-002 -5.31483181e-002 -6.88211396e-002
      -2.94479709e-002 4.56447601e-002 1.32674212e-002 1.23253446e-002
      -4.81691537e-003 5.07499231e-003 -3.27327028e-002 -3.65309864e-002
      -5.16317859e-002 -3.54066491e-002 -3.57754193e-002
      -2.77587064e-002 1.17563969e-002 1.23850247e-002 8.26940499e-003
      -7.29982229e-003 -2.77217925e-002 -2.18191035e-002 3.40508996e-003
      3.44912931e-002 3.21302228e-002 2.25452930e-002 1.68093443e-002
      -1.31650371e-002 -1.74634140e-002 -5.78555353e-002
      -8.11082646e-002 -5.85747361e-002 -6.24305010e-003
      -1.55759845e-002 -4.21395271e-005 -2.49765441e-002
      -1.95756648e-003 -2.62341294e-002 -7.00479373e-002
      -3.19607817e-002 -2.35544611e-002 2.89957076e-002 1.42023787e-002
      2.05786787e-002 1.53103517e-003 -7.38746533e-003 6.55216118e-003
      -2.41017770e-002 -4.44651283e-002 -5.51007874e-002 2.59610312e-003
      -1.78941600e-002 -2.79006232e-002 -1.59788709e-002 1.52790556e-002
      3.03449966e-002 -1.73793603e-002 -6.55601639e-003 2.16736142e-002
      4.35897857e-002 2.43632607e-002 7.37970695e-003 2.00150851e-002
      4.74766530e-002 -7.83612281e-002 -9.74739641e-002 -4.82178442e-002
      -3.66715230e-002 -2.10908987e-003 -1.39188645e-002
      -2.35666949e-002 -3.82145457e-002 -3.31414454e-002
      -6.90943152e-002 -7.28244931e-002 -5.22431955e-002
      -3.35062817e-002 5.63361915e-003 -9.78135318e-003 -1.40989814e-002
      -3.10843531e-002 -2.97414567e-002 9.50063672e-003 -2.30749454e-002
      -5.48860338e-003 1.06087364e-002 3.64178345e-002 3.67338508e-002
      1.34500759e-002 1.92555282e-002 3.26474234e-002 2.42912043e-002
      2.65310444e-002 1.19233131e-002 1.55725852e-002 6.16041087e-002
      4.85351346e-002 3.84773314e-002 4.20047939e-002 4.93477955e-002
      -7.33816773e-002 -1.08684480e-001 -6.90024346e-002
      -7.69822672e-003 1.58351511e-002 -1.64719243e-002 -3.14610116e-002
      -6.22746870e-002 -4.06623334e-002 -5.33014275e-002
      -9.95596573e-002 -8.04815665e-002 -2.18584258e-002
      -1.34340115e-002 -3.21035795e-002 -6.95831105e-002
      -7.73770809e-002 -1.05641913e-002 5.35188466e-002 2.04361905e-003
      2.31276657e-002 3.88708636e-002 5.49043007e-002 5.10858372e-002
      4.24871109e-002 5.45134656e-002 7.63994604e-002 5.44139966e-002
      2.13196296e-002 4.96179834e-002 5.02878353e-002 3.18224467e-002
      2.72802934e-002 1.79791916e-002 3.63835171e-002 6.16061240e-002
      -2.04965621e-002 -7.35198781e-002 -3.46912071e-002
      -1.16377873e-002 -3.24002765e-002 -2.99702156e-002
      -4.27388400e-002 -2.83233151e-002 2.35011452e-003 -1.55155566e-002
      -9.11083296e-002 -8.73017907e-002 -5.35974056e-002
      -2.69006956e-002 -6.58682734e-002 -4.07763198e-002
      -2.61089560e-002 -9.42150503e-003 5.18133640e-002 2.78375130e-002
      4.82447036e-002 4.35252935e-002 3.25886384e-002 4.08565737e-002
      2.60423757e-002 3.53364423e-002 5.08092903e-002 1.09648742e-002
      -3.56616415e-002 -3.85832787e-002 -3.65028344e-003 2.06129011e-002
      -1.85287967e-002 2.52913889e-002 3.30447853e-002 2.70571802e-002
      -8.69236328e-003 -4.58745360e-002 -3.34116146e-002
      -1.06159337e-002 2.12751850e-002 5.46780275e-003 2.35987753e-002
      3.66129866e-003 -8.93905573e-003 1.93493888e-002 -4.74799573e-002
      -8.84398967e-002 -4.26687337e-002 8.31433013e-003 2.17175409e-002
      2.29797009e-002 -2.00953428e-002 1.52643817e-002 2.23242268e-002
      -8.09780136e-003 -9.90555808e-003 -1.91817991e-002 3.88850905e-002
      5.07790484e-002 6.21227510e-002 4.62309793e-002 2.14430913e-002
      5.35444915e-003 -4.56454828e-002 -8.46981928e-002 -6.68545216e-002
      -1.52002098e-002 2.22024713e-002 5.95519207e-002 1.78080164e-002
      1.48180034e-002 5.04848137e-002 -2.29439177e-002 -6.04661070e-002
      -5.48263751e-002 4.04159948e-002 6.58468455e-002 4.59458679e-002
      5.54392720e-003 4.11989801e-002 3.95838022e-002 -6.44986052e-003
      -5.65854944e-002 -5.00366762e-002 4.78274934e-002 6.45588115e-002
      5.71948811e-002 1.48760097e-004 3.86639722e-002 2.86810827e-002
      -3.77038382e-002 -9.42928642e-002 -9.22711864e-002
      -2.37741717e-003 6.06573299e-002 5.10403477e-002 1.41876545e-002
      2.79867239e-002 -4.10207082e-003 -6.99306354e-002 -9.01722908e-002
      -7.83625692e-002 -1.12844538e-002 4.21721824e-002 2.23646536e-002
      -3.03136110e-002 -1.64247025e-002 6.35823160e-002 2.25404743e-002
      -1.59881692e-002 8.63072928e-003 4.24494632e-002 2.56514605e-002
      1.40270870e-002 -6.91601029e-003 3.29074562e-002 2.37184409e-002
      -2.04992131e-003 1.14809163e-002 4.67867590e-003 4.31864858e-002
      1.49497371e-002 1.75533723e-002 2.92519061e-003 1.48516465e-002
      -1.99260060e-002 -6.18717484e-002 -6.53970167e-002
      -4.20821644e-002 -8.62736534e-003 -1.57210249e-002
      -1.42579889e-002 -5.64418174e-002 -5.38728051e-002
      -4.11957018e-002 -5.34818769e-002 -4.57167700e-002
      -7.39893764e-002 -6.51383772e-002 -8.78107026e-002
      -7.28190616e-002 -7.41970688e-002 -5.67478538e-002
      -1.85426269e-002 3.62525787e-003 1.39296977e-002 2.71525364e-002
      4.63140123e-002 4.11788076e-002 5.71422055e-002 2.00855583e-002
      1.98004786e-002 -4.97885421e-002 -1.94671040e-003 2.27218233e-002
      2.94889398e-002 4.24394421e-002 7.53355324e-002 8.67929310e-002
      3.47590148e-002 -2.48509139e-004 -5.78267723e-002 -3.60282026e-002
      -2.42124163e-002 -2.59022191e-002 -6.10059947e-002
      -6.16930239e-002 -3.18725593e-002 -4.49895859e-002
      -3.62935327e-002 -1.08380497e-001 -7.82753751e-002
      -2.58840080e-002 -5.50930277e-002 -3.69001664e-002
      -4.72384840e-002 -2.95418072e-002 -4.41667549e-002
      -7.60240257e-002 -5.36586642e-002 -2.38371752e-002 2.82933307e-003
      1.93554964e-002 2.25347523e-002 5.02905399e-002 6.34744018e-002
      2.60674451e-002 -8.82884208e-003 -1.78652890e-002 1.17496885e-002
      2.38242056e-002 4.43559401e-002 6.71203509e-002 9.41066369e-002
      9.72270295e-002 4.29900773e-002 -7.14800693e-003 -1.08125351e-001
      -8.05419311e-002 -3.81810963e-002 -9.69236642e-002
      -6.87060729e-002 -8.71441737e-002 -3.43825258e-002
      -6.61231875e-002 -8.80155191e-002 -7.71634653e-002
      -4.08779606e-002 2.13339715e-003 -4.00173105e-002 -2.14296225e-002
      -5.42185688e-003 3.51754241e-002 -1.99612249e-002 -6.62189573e-002
      -5.89719303e-002 -1.34053566e-002 2.89173634e-003 -4.95143700e-003
      -2.89292429e-002 2.28537172e-002 5.16998582e-002 -2.51292214e-002
      -6.37652352e-002 2.17527673e-002 5.26973233e-002 4.80890647e-002
      4.58628275e-002 3.41800340e-002 2.59591136e-002 4.38740812e-002
      4.97121317e-003 2.69473717e-002 -1.18896618e-001 -8.10339525e-002
      -5.56568652e-002 -6.29687011e-002 -2.47891247e-002
      -3.36865000e-002 9.79125965e-003 -8.48904699e-002 -1.25606582e-001
      -3.36725488e-002 9.75443982e-003 2.38118023e-002 2.74041519e-002
      1.30746178e-002 -2.63207741e-002 2.11718902e-002 -4.28542085e-002
      -7.89276734e-002 -1.79353710e-002 -6.47999998e-003
      -2.93934438e-003 -3.24522797e-003 6.31307438e-003 -4.90242876e-002
      -5.48190325e-002 -6.22975715e-002 -4.38649245e-002 6.16892762e-002
      1.55115193e-002 1.80500280e-002 3.54230702e-002 6.88343197e-002
      2.48766202e-003 -2.22414508e-002 -1.58765190e-003 3.37451547e-002
      -5.43719381e-002 -1.41069461e-002 1.56309661e-002 -1.39546525e-002
      -1.10806441e-002 -7.27490857e-002 -8.37652311e-002
      -9.81425121e-002 -1.15758747e-001 2.69597359e-002 3.31763476e-002
      4.79690731e-002 5.07557020e-002 6.45247698e-002 -1.38872797e-002
      -4.87319231e-002 -5.24595901e-002 -5.52175045e-002 3.83232236e-002
      -3.20364498e-002 -2.61923820e-002 -4.22490732e-004 3.55145847e-003
      -7.86920711e-002 -7.89827332e-002 -8.87298435e-002
      -1.53835835e-002 8.84688124e-002 1.86413433e-002 1.53337754e-002
      7.25069866e-002 5.21002561e-002 -3.44745107e-002 -2.26220898e-002
      -2.81301513e-003 5.04115410e-002 5.83719416e-003 -3.04643493e-002
      -1.91478655e-002 -2.78775231e-003 6.40848791e-003 -5.93789965e-002
      -6.51170611e-002 -9.07000005e-002 -6.63654730e-002 5.68350255e-002
      2.40025464e-002 4.71622311e-002 7.60442913e-002 2.34628934e-002
      -5.19422814e-002 -2.03028750e-002 -2.16601938e-002
      -7.55157182e-003 2.76838671e-002 -5.48244119e-002 -4.67626303e-002
      -1.53191097e-003 3.75991799e-002 -6.89392984e-002 -6.05346337e-002
      -1.98767819e-002 9.84550733e-003 1.16750546e-001 3.93795222e-002
      3.39984819e-002 9.98888612e-002 4.95315455e-002 -3.91863398e-002
      -6.87122643e-002 6.25382876e-003 1.00031435e-001 1.47148743e-002
      -3.22129503e-002 -1.83720440e-002 -3.15252319e-003
      -8.52228794e-003 -9.81517956e-002 -5.38232848e-002
      -6.10215627e-002 -2.45784726e-002 9.61167142e-002 6.05570003e-002
      5.53757995e-002 6.48017898e-002 -3.30901332e-002 -6.17887937e-002
      -7.57111087e-002 -3.26782912e-002 6.91820681e-002 1.76351853e-002
      3.79354768e-002 2.71484815e-002 -9.26607475e-003 2.81317700e-002
      -1.85885131e-002 1.45136879e-003 7.36232148e-003 9.54835489e-003
      -6.44573593e-004 -1.63825694e-002 -3.94477323e-002
      -2.16778386e-002 -2.79098321e-002 -4.36053313e-002
      -1.11422343e-002 1.76854804e-002 6.40589232e-003 3.12017892e-002
      4.06371467e-002 2.55751889e-002 -4.14377600e-002 1.51092978e-002
      -2.51425393e-002 2.05650534e-002 4.59721722e-002 -4.40195063e-003
      6.78450707e-003 -1.59999561e-002 -2.54669655e-002 -6.08506426e-002
      -4.97373939e-002 -5.34512512e-002 -2.97656525e-002 9.85028967e-003
      -1.66581832e-002 1.54176448e-002 -3.88756138e-003 -2.43944321e-002
      -3.81346699e-003 3.51531170e-002 -2.34855097e-002 -2.14568572e-003
      3.30709517e-002 3.16033103e-002 -9.63796768e-003 -1.44197159e-002
      -2.02562958e-002 -1.16683939e-003 2.51763146e-002 -2.34439280e-002
      -1.47007722e-002 9.82016232e-003 -8.21575429e-003 7.65478052e-003
      -2.32617874e-002 -5.06642312e-002 -4.47442457e-002 1.80033781e-003
      -1.26335090e-002 1.30699137e-002 3.56082208e-002 9.74754919e-004
      -1.14501147e-002 -3.87837403e-002 -2.68189479e-002
      -3.97831835e-002 -1.28112622e-002 -2.85329111e-002 6.77878270e-003
      1.35691585e-002 -1.34252897e-002 -1.18010584e-002 -2.28619315e-002
      -1.86631363e-002 -3.62382792e-002 -7.44780339e-003
      -8.15663934e-002 -3.41009535e-002 -1.11268265e-002
      -3.44890915e-002 6.58022054e-003 2.11135689e-002 6.52755564e-003
      -1.89312194e-002 4.12379624e-003 -4.28508110e-002 4.52454807e-003
      -6.40671002e-003 1.54040856e-002 -1.61060542e-002 -3.31881419e-002
      -3.86267491e-002 -6.22508638e-002 -1.89547166e-002
      -6.65945858e-002 -1.19814314e-002 5.76676847e-003 -8.55947472e-003
      1.17408456e-002 -2.09752261e-003 -1.75119378e-004 -9.73388925e-003
      2.37394664e-002 -1.65192503e-002 -4.41688206e-003 1.03850728e-002
      -1.07287792e-002 -1.91695150e-002 -2.55691577e-002
      -5.41253053e-002 -7.06770346e-002 -5.61990812e-002
      -6.23755045e-002 -2.33044084e-002 -2.69906148e-002
      -1.19340327e-002 2.78205946e-002 1.54069746e-002 -2.18145903e-002
      -1.77946687e-002 -5.35085658e-003 -7.24661024e-003 1.69870853e-002
      1.02181062e-002 2.62910631e-002 -9.04789660e-003 1.94878802e-002
      -4.18562219e-002 -6.61863759e-002 -4.40430827e-002
      -6.52620867e-002 -1.87713094e-002 -1.86811499e-002
      -2.85540335e-002 4.24856208e-002 5.41446693e-002 1.40329739e-002
      -2.31388267e-002 -4.52652154e-003 -6.50319911e-004 2.47537307e-002
      2.80353520e-002 4.06928137e-002 7.78376916e-003 -2.36317720e-002
      -7.76513293e-002 -8.07070434e-002 -6.05030954e-002
      -9.08485129e-002 -5.17142862e-002 -3.34579460e-002 8.42909701e-003
      4.01777923e-002 -6.89888606e-003 -1.33256596e-002 -8.02869909e-003
      4.22392450e-002 2.44058832e-003 -8.24490935e-003 1.24335382e-002
      5.75687997e-002 1.24386167e-002 1.14935962e-002 -3.29761617e-002
      -6.14373758e-002 -1.49570117e-002 -6.44959733e-002
      -3.72268595e-002 9.45146428e-004 3.83702926e-002 5.55184409e-002
      2.38742884e-002 3.24243642e-002 3.00285313e-002 6.78402707e-002
      1.19321132e-002 1.65473428e-002 2.63503212e-002 5.55782877e-002
      -1.31648174e-002 -5.75242043e-002 -7.83511549e-002
      -5.76625243e-002 1.16657978e-002 -1.31101124e-002 -4.85991836e-002
      -5.50417118e-002 -2.76288670e-003 1.16231982e-002 -8.77342001e-003
      -2.91218944e-002 -3.18060778e-002 3.06856204e-002 -8.66049062e-003
      -1.81553047e-002 -1.09466398e-002 1.84143707e-002 1.68522727e-002
      -1.50481192e-002 -1.27227958e-002 1.07206393e-003 1.91364679e-002
      1.06703001e-003 -1.79545805e-002 -2.77686156e-002 1.69446897e-002
      4.96077761e-002 5.27365841e-002 5.86063042e-002 5.05957119e-002
      5.27470186e-002 1.59232076e-002 1.89836696e-002 2.62938887e-002
      4.75211404e-002 -2.65407637e-002 -5.49935102e-002 -3.87341417e-002
      -1.72662605e-002 2.05302108e-002 -3.05768917e-003 -4.85473499e-003
      -1.45684918e-002 -2.48244777e-002 -5.43658156e-003
      -5.82509339e-002 -2.19389033e-002 -1.18337767e-002
      -3.84533708e-003 -5.03822183e-003 9.17597767e-003 2.60103494e-003
      -1.27950106e-002 4.04063314e-002 1.48176653e-002 2.67488603e-002
      4.41901013e-002 4.25612405e-002 5.16488077e-003 1.73730869e-002
      7.96896871e-003 1.83597691e-002 7.22901896e-002 1.51000889e-002
      3.73925045e-002 1.60512887e-002 3.58335376e-002 -1.32991234e-002
      1.72444098e-002 1.93649270e-002 2.49081049e-002 1.32810278e-002
      -8.88720620e-003 1.36178313e-002 5.30407531e-003 1.74008664e-002
      1.67002790e-002 1.41268484e-002 -1.46325184e-002 -2.00881362e-002
      -1.68792289e-002 -4.25222106e-002 -5.46318926e-002
      -9.52713192e-002 -3.30239311e-002 -4.72777598e-002
      -1.63205788e-002 -3.08142323e-002 -1.96562391e-002 9.78706628e-002
      4.21402529e-002 7.13078603e-002 3.86003032e-002 5.85599355e-002
      3.80482972e-002 5.25224842e-002 4.23739478e-002 6.31364807e-002
      1.62196439e-002 9.07812268e-003 3.39289270e-002 -5.89265935e-002
      2.91603408e-003 -4.33530547e-002 1.35054365e-002 6.55978732e-003
      2.28280351e-002 1.44309467e-002 3.69646028e-002 3.75807397e-002
      -4.42220196e-002 1.27541311e-002 6.28175139e-002 6.51506111e-002
      1.49730230e-002 3.41387815e-003 -2.58161947e-002 -5.78888729e-002
      -9.23996568e-002 -9.56740230e-002 -3.76866981e-002 1.85557939e-002
      5.81132360e-002 2.18416229e-002 -2.67958269e-003 7.73719326e-002
      8.65431502e-002 9.13276374e-002 -2.24252511e-002 -9.36349202e-003
      1.18896868e-002 6.70137778e-002 4.76704873e-002 7.53289387e-002
      4.16026525e-002 -1.75130721e-002 -3.25835347e-002 -1.17357776e-001
      -8.64379779e-002 -3.13928537e-002 9.73241683e-003 4.28302512e-002
      5.04540503e-002 5.36516644e-002 5.11944713e-003 -2.14943271e-002
      -3.58515456e-002 5.13232984e-002 9.29212645e-002 8.09088796e-002
      4.83819023e-002 5.83065227e-002 1.41556002e-002 -3.30918394e-002
      -4.99674566e-002 -8.80029798e-002 1.20137865e-002 1.24094989e-002
      2.00733282e-002 3.86676542e-003 1.18454369e-002 5.55576719e-002
      1.19411331e-002 -1.09136067e-002 -5.22737950e-002 -1.80689655e-002
      2.53012124e-002 5.27657531e-002 6.83476552e-002 6.56790510e-002
      -6.94167757e-005 -3.86612080e-002 -5.89157864e-002
      -1.15243092e-001 -7.84533918e-002 -5.93063273e-002
      -1.18266540e-002 6.04207441e-003 1.96697214e-003 2.95808278e-002
      7.15564005e-003 1.88466869e-002 1.65189561e-002 3.13996784e-002
      8.96393321e-003 3.02944873e-002 1.42068006e-002 2.00231448e-002
      3.52592692e-002 8.14790279e-003 -3.55670869e-004 -1.11093288e-002
      -2.91609541e-002 -6.63284212e-002 2.51946822e-002 3.77856158e-002
      3.77167836e-002 -7.06987828e-003 -3.08898278e-002 -1.54939238e-002
      -5.60065620e-002 -6.39196932e-002 -2.47546230e-002 2.88199987e-002
      7.95951393e-003 9.36545804e-003 -3.89136486e-002 -2.31441371e-002
      -2.08063181e-002 -8.84046182e-002 -6.60547689e-002
      -8.05392116e-002 4.13522497e-002 2.47261077e-002 -1.79945273e-004
      4.55823466e-002 4.60068733e-002 4.85666133e-002 1.39722908e-002
      -3.94653901e-002 -4.02773619e-002 2.26393547e-002 3.88654284e-002
      3.33632678e-002 -1.52274603e-002 -1.60198496e-003 4.13020700e-002
      -1.57207157e-002 -3.92275900e-002 -3.03975609e-003 6.13774918e-002
      5.49095273e-002 -1.24171637e-002 6.71499223e-003 -8.42596777e-003
      -7.58579583e-004 -8.57403055e-002 -1.12115681e-001
      -8.26468244e-002 3.51840593e-002 2.11946480e-002 -9.56801325e-003
      -2.51993537e-002 -2.45429911e-002 6.80318242e-003 -8.65287483e-002
      -1.18080698e-001 -8.54736567e-002 3.96636613e-002 2.34778766e-002
      -2.61617489e-002 -1.59201100e-002 1.77304875e-002 4.90938574e-002
      -4.49875072e-002 -9.61990803e-002 -4.85537648e-002 5.98985963e-002
      3.67026180e-002 -9.93731152e-003 -8.71354993e-003 4.46800292e-002
      8.45848694e-002 4.13644239e-002 -2.11403556e-002 -1.16900448e-002
      9.41067934e-002 6.64415359e-002 -3.66445072e-003 -6.29867688e-002
      -4.22774674e-003 3.86657715e-002 -1.15166619e-001 -1.64135754e-001
      -1.26337141e-001 5.17263189e-002 1.05431676e-002 -5.84164336e-002
      -5.40557802e-002 4.38443758e-002 9.07075852e-002 -3.68925482e-002
      -6.96545020e-002 -8.38435888e-002 6.77022189e-002 1.59144439e-002
      -3.96862850e-002 -8.47536027e-002 -7.50674121e-003 1.51388850e-002
      -2.78020184e-003 -5.51405251e-002 -5.14188632e-002 5.00150546e-002
      -1.72822159e-002 -1.00403264e-001 3.16323526e-002 4.83736880e-002
      6.77153841e-002 6.99836016e-002 2.52290815e-002 2.46357806e-002
      1.08525135e-001 4.31554615e-002 -1.09692924e-002 -9.82794166e-002
      -1.97114367e-002 2.72568371e-002 -1.22137077e-001 -1.35893300e-001
      -1.23506546e-001 1.37705933e-002 -4.49586809e-002 -7.64733180e-002
      -1.23660685e-002 1.61220673e-002 7.73319155e-002 -2.92122643e-002
      -5.72381765e-002 -2.91900733e-003 1.02949120e-001 2.63194498e-002
      8.76008440e-003 -4.89320755e-002 -2.82207076e-002 -1.02780573e-003
      -2.60224082e-002 -4.27621268e-002 -9.06130224e-002
      -5.82985543e-002 -7.39602521e-002 -1.05686300e-001 3.30657102e-002
      4.49909046e-002 6.45133853e-002 7.14351907e-002 1.00558370e-001
      6.85096765e-003 1.15497801e-002 -1.87580276e-003 -8.42926279e-003
      -7.18952790e-002 -6.41135350e-002 -2.24700104e-002
      -1.12408146e-001 -7.41450712e-002 -1.01820938e-001
      -1.75456572e-002 -6.41491637e-002 -4.40498516e-002
      -1.14025036e-002 -2.65233591e-003 3.79730202e-002 2.02320330e-002
      4.66006249e-002 1.52815636e-002 4.55580577e-002 -8.38647410e-003
      3.81530117e-004 -4.26636487e-002 -4.91074398e-002 -1.49598215e-002
      1.44952303e-003 3.15471664e-002 -5.99219948e-002 -2.97805369e-002
      -8.81007537e-002 -8.55764970e-002 1.06516583e-002 1.26399929e-002
      5.62162660e-002 6.97025061e-002 6.27880320e-002 -9.33112763e-003
      3.53780948e-002 -2.95769912e-003 -1.05622988e-002 -1.05866738e-001
      -9.92753357e-002 -2.85247099e-002 -5.09135611e-002 3.04314550e-002
      -4.22249101e-002 -3.57389338e-002 -1.03011936e-001
      -8.65689591e-002 -2.42880546e-002 -6.41761208e-003 3.62389795e-002
      2.38218978e-002 4.84549999e-002 -8.32927506e-003 4.18105237e-002
      -1.90161671e-002 -1.59655069e-003 1.33915502e-003 -1.88356061e-002
      1.00780688e-002 4.49967105e-003 1.30989514e-002 -6.88504577e-002
      -2.43127961e-002 -4.09488566e-002 -2.52967589e-002 9.20295045e-002
      5.73410541e-002 4.18946743e-002 5.72342649e-002 -7.83896074e-003
      -5.80997579e-002 -3.12977806e-002 -1.34040657e-002 7.50536919e-002
      -2.25232728e-002 -3.38664651e-002 -1.09767995e-003
      -2.39668321e-002 -1.17202187e-002 -6.41194507e-002
      -1.86817478e-002 -3.39084566e-002 -9.98717640e-003 9.11214501e-002
      1.48329493e-002 2.12934427e-002 2.09620292e-003 -3.68133672e-002
      -2.95569431e-002 -8.75034370e-003 1.68530121e-002 7.07619190e-002
      8.67556373e-004 2.32664458e-002 2.49283351e-002 -3.13856862e-002
      1.43451011e-002 -7.44954217e-003 1.99473426e-002 2.93267313e-002
      7.43683195e-004 -1.98739748e-002 -5.09303669e-003 -1.17796808e-002
      -6.29849285e-002 -3.24563757e-002 -5.05949706e-002
      -1.92975961e-002 5.64541249e-003 -2.73326021e-002 -1.04928622e-002
      1.63499266e-002 5.85736409e-002 -4.27131308e-003 7.28833070e-003
      -2.57549491e-002 3.53525840e-002 5.20841330e-002 -3.75413708e-003
      2.14039790e-003 5.54767996e-003 1.93835031e-002 -3.60509455e-002
      -1.27767744e-002 -3.68859284e-002 1.85108371e-002 1.92829892e-002
      -1.21317357e-002 3.07344436e-003 -1.40399514e-002 -3.77086885e-002
      -5.78627251e-002 -1.40478872e-002 -2.22593602e-002
      -3.67209944e-003 1.45196989e-002 -1.48088876e-002 -4.07333374e-002
      -2.62279585e-002 -1.77431032e-002 -4.35822010e-002
      -1.86484288e-002 -1.73302740e-002 -2.85662580e-002 6.30891975e-003
      -2.82492172e-002 3.26093510e-002 2.39097681e-002 2.24401578e-002
      -2.52557863e-002 6.57231547e-003 -1.93452146e-002 1.04063600e-002
      9.97690763e-003 1.80289987e-002 -1.21280486e-002 2.79271160e-003
      1.73630193e-002 1.35477800e-002 1.70957800e-002 -9.80720297e-003
      -3.36061232e-002 -4.66117449e-003 -1.52921015e-002
      -2.10917052e-002 -1.52389314e-002 -1.65356379e-002
      -6.25120550e-002 -2.43535936e-002 -4.95687127e-002
      -3.02156527e-002 -1.70429423e-002 -1.03713563e-002 3.56520014e-003
      1.06425295e-002 2.67307498e-002 2.71995994e-003 1.37071442e-002
      -2.01756023e-002 -3.56092281e-003 1.60230696e-003 -1.52475871e-002
      -8.56439583e-003 -1.01029370e-002 -2.17309780e-002
      -5.49076647e-002 4.96008387e-003 -3.73870768e-002 -4.03525643e-002
      -1.27029112e-002 -1.60285141e-002 9.64416470e-003 8.30383599e-003
      2.24453490e-003 -9.58390906e-003 2.13459078e-002 -2.47381572e-002
      -1.76682218e-003 3.67184216e-003 -2.27286248e-003 -1.37204919e-002
      4.79534781e-003 -2.97134519e-002 -3.66094150e-002 -2.60984283e-002
      -5.73480316e-002 -3.32081020e-002 -3.65751311e-002
      -3.89950797e-002 2.16994248e-002 5.17273508e-002 3.05913463e-002
      -1.58643946e-002 8.82123969e-003 4.64541977e-003 5.36500523e-003
      1.85038324e-003 1.13424826e-002 -2.12877430e-002 -2.49389336e-002
      -3.90063748e-002 -4.74608578e-002 -2.64717429e-003
      -5.65511100e-002 -4.02091593e-002 -2.34282147e-002
      -2.91202459e-002 3.48913707e-002 4.99415472e-002 5.82387149e-002
      1.93950348e-003 3.18580903e-002 -1.64502990e-002 -2.49452833e-002
      1.50133227e-003 1.79121811e-002 -1.17055839e-002 -1.22673605e-002
      -2.85729729e-002 -4.85658310e-002 -4.09503430e-002
      -5.27894348e-002 -5.58187366e-002 -4.47168238e-002 6.27243984e-003
      3.57623287e-002 3.12510580e-002 9.80536267e-003 1.41975172e-002
      6.46205544e-002 3.16705033e-002 4.76311147e-003 9.21010913e-004
      4.67481427e-002 1.75018590e-002 2.08523226e-004 -1.09257605e-002
      -6.30799532e-002 -4.39545400e-002 -5.03579266e-002
      -7.17783719e-002 -5.41611016e-002 1.30907437e-002 4.14482132e-002
      4.07764055e-002 3.04652601e-002 1.60798747e-002 5.49742840e-002
      4.29250039e-002 -2.91820280e-002 -1.56412441e-002 4.47431356e-002
      4.98644169e-003 -1.01736095e-002 -1.13984505e-002 4.05759038e-003
      3.37966681e-002 -1.31399790e-002 -6.01034909e-002 -4.08239365e-002
      -9.11171827e-003 4.86451909e-002 3.58238295e-002 2.79386155e-002
      2.71856263e-002 3.96818854e-002 7.86325708e-003 -2.10129214e-003
      -3.25981318e-003 2.48257667e-002 1.00993253e-002 -5.64165134e-003
      1.84527438e-004 -3.27931829e-002 1.81023050e-002 4.94103739e-003
      -7.35498518e-002 -5.95906489e-002 1.86792482e-002 4.29789461e-002
      1.41310319e-002 1.65153760e-002 -3.64667410e-003 2.46464442e-002
      5.29391272e-003 -2.18329784e-002 -2.77108867e-002 2.65190322e-002
      1.81590337e-002 2.95032393e-002 1.55452359e-002 1.36718797e-002
      3.21888141e-002 -2.87580327e-003 -1.93400681e-002 -3.87230031e-002
      -9.71492671e-004 2.04200204e-002 1.84032861e-002 2.77399514e-002
      1.02129765e-002 4.53236103e-002 -6.78661419e-003 -2.26805750e-002
      -3.07981521e-002 9.43207927e-003 -1.84202641e-002 -5.77960105e-004
      2.12853793e-002 -4.40431759e-003 2.38744803e-002 -4.47023334e-003
      -3.30866389e-002 -3.68222035e-002 -1.48983337e-002
      -3.51347439e-002 -1.35254664e-002 -1.31663540e-002
      -2.86389384e-002 2.34795772e-002 -8.26150458e-003 -4.90925387e-002
      -7.99491853e-002 -2.63757743e-002 3.85674611e-002 1.83395259e-002
      2.86677983e-002 2.48080064e-002 4.80989255e-002 7.18458509e-003
      1.10190958e-002 -9.52013489e-003 1.60858072e-002 -1.04161073e-003
      -1.91922653e-002 -1.27563095e-002 -6.18570521e-002
      -1.30417347e-002 -5.66796847e-002 -6.97372155e-003
      -1.48949549e-002 1.47462459e-002 -1.43572055e-002 5.58425440e-003
      7.47336482e-004 1.31528417e-003 3.65072973e-002 -1.65052665e-003
      -2.03578770e-002 -2.66830549e-002 -1.57638974e-002
      -3.06182504e-002 -5.20144291e-002 -6.35926947e-002
      -8.48282874e-002 -2.31585596e-002 -4.41116542e-002
      -4.96910028e-002 -1.61239989e-002 -5.90802403e-003 6.44059777e-002
      5.50657362e-002 6.69398233e-002 -9.62232146e-003 -2.06185095e-002
      -1.75227560e-002 2.88955383e-002 1.95150152e-002 5.90441003e-002
      5.89283966e-002 3.73099893e-002 -3.05009652e-002 -1.28543794e-001
      -1.21714212e-001 -9.98573676e-002 -7.15321377e-002
      -3.43535282e-002 1.34113701e-002 3.93787101e-002 5.18113598e-002
      4.62425835e-002 -5.66152390e-003 7.36778649e-003 1.85477789e-002
      1.72149837e-002 2.40321755e-002 3.73744406e-002 2.33648568e-002
      6.35553300e-002 1.45805581e-002 -4.95188758e-002 -4.35786098e-002
      -1.05580658e-001 -7.28533715e-002 -5.97905964e-002
      -1.77508742e-002 6.61292374e-002 8.11729133e-002 3.63735110e-002
      -2.87345629e-002 -3.31537351e-002 -1.36172688e-002
      -8.19785893e-003 1.46436924e-002 3.58400345e-002 -9.44617845e-004
      5.37822396e-003 -7.10168555e-002 -1.18903652e-001 -7.99054280e-002
      -8.41857493e-002 -4.38510589e-002 -2.36455724e-002
      -1.56051619e-003 6.74797222e-002 9.08569768e-002 8.70185494e-002
      2.11585853e-002 4.52589691e-002 1.57062355e-002 1.23415459e-002
      1.41904922e-002 3.51268686e-002 1.65850818e-002 4.39740494e-002
      3.00172269e-002 -3.38268355e-002 -9.20458697e-003 -3.43759023e-002
      -4.10181694e-002 -5.53140640e-002 -2.79142824e-003
      -2.96312887e-002 -1.99050196e-002 -2.36153379e-002
      -6.07531779e-002 -6.68885261e-002 -3.13356854e-002 1.09260511e-002
      -1.13768624e-002 1.66895846e-003 -6.35460019e-002 -2.43869610e-002
      -2.13322090e-003 -9.43452641e-002 -7.16630146e-002
      -7.35239983e-002 2.90975794e-002 -1.61776207e-002 -2.51231026e-002
      4.01318930e-002 4.04886454e-002 5.95303811e-002 1.45050110e-002
      2.05529816e-002 1.14891427e-002 2.45658541e-003 -1.91954002e-002
      3.22883837e-002 4.77510551e-003 3.52079906e-002 8.54596570e-002
      -1.12953065e-002 -1.71131883e-002 -9.88518260e-003
      -9.08043061e-004 -3.55824083e-002 1.73461176e-002 -2.97197960e-002
      -1.85160078e-002 2.16406528e-002 -7.95228258e-002 -1.33118406e-001
      -6.26407936e-002 3.69372554e-002 9.25964490e-003 -2.16880664e-002
      -3.08083445e-002 1.04686758e-002 4.97602411e-002 -5.60488738e-002
      -1.51459098e-001 -9.57724229e-002 5.84521927e-002 3.44749838e-002
      -2.94235758e-002 1.34581476e-002 3.43488827e-002 9.28410515e-002
      -4.16195989e-002 -5.54901063e-002 4.94228955e-003 4.71316278e-002
      -2.47332477e-003 -3.24370409e-003 1.12868380e-002 5.54491952e-002
      1.08150966e-001 -3.40625197e-002 -6.19095452e-002 -1.66770797e-002
      7.25998655e-002 4.08561826e-002 -5.71546983e-003 -2.92565990e-002
      4.24102210e-002 6.42826408e-002 -7.28701502e-002 -1.77740753e-001
      -9.70564783e-002 7.50682205e-002 2.70235650e-002 -4.70831729e-002
      -3.78302447e-002 5.49297445e-002 7.04227537e-002 -5.82425036e-002
      -1.10760048e-001 -5.72672598e-002 9.80996117e-002 3.38367894e-002
      -4.07050550e-002 -1.32092806e-002 6.29059449e-002 8.13489258e-002
      -6.51297420e-002 -1.06642768e-001 -3.19562703e-002 8.57700109e-002
      6.78312033e-002 -2.20189262e-002 -8.02484155e-003 9.45923626e-002
      8.25722888e-002 -5.15125133e-002 -8.07552785e-002 -6.51216879e-003
      9.58787575e-002 5.24852462e-002 -2.36008503e-002 -6.61907420e-002
      -1.40468134e-002 2.96256132e-002 -1.16669923e-001 -1.69697195e-001
      -8.73396397e-002 5.03285378e-002 -1.16265612e-002 -4.69771326e-002
      2.55908724e-002 3.22693773e-002 9.20254141e-002 -1.56024769e-002
      -6.73149452e-002 2.81686056e-002 1.22850962e-001 5.91317303e-002
      4.92020808e-002 -6.56065643e-002 -4.18207189e-003 2.98463572e-002
      -8.27484205e-002 -1.20156817e-001 -4.31918614e-002 4.49456796e-002
      6.15781359e-003 -5.21510839e-002 3.00896931e-002 3.22516710e-002
      8.11224952e-002 1.25173461e-002 -1.36755370e-002 3.61617133e-002
      1.29617780e-001 1.02688700e-001 7.28327557e-002 -3.31865884e-002
      -4.85948659e-002 -1.95411053e-002 -1.02897331e-001
      -6.19570203e-002 -5.53801246e-002 1.99173801e-002 -6.05300441e-002
      -3.07999589e-002 1.55062713e-002 3.50044086e-003 2.27867514e-002
      7.72651471e-003 6.26619384e-002 5.10089695e-002 7.92451724e-002
      9.69915930e-003 2.89862845e-002 -1.61087699e-002 -7.90466294e-002
      -7.92465433e-002 -1.19950511e-001 -5.44153787e-002
      -6.52822927e-002 1.43567156e-002 -7.69618107e-003 9.81530827e-003
      1.85115598e-002 8.23927112e-003 1.59947407e-002 -7.68303080e-003
      7.02369213e-002 5.22899404e-002 6.51409477e-002 2.51128431e-002
      5.11385612e-002 -3.84091586e-002 -4.90547903e-002 -3.05301081e-002
      -4.01319973e-002 2.28817761e-002 -1.85979996e-002 -2.89020389e-002
      -7.64701590e-002 -5.45360111e-002 -3.39720328e-003 2.76155770e-002
      4.31233607e-002 4.75632884e-002 6.33423328e-002 -1.66328587e-002
      1.56467073e-002 -2.68394537e-002 -5.15794381e-003 -7.96928257e-003
      -4.72521149e-002 -3.89617532e-002 -5.25120907e-002 3.61625925e-002
      -3.25636603e-002 -1.93167310e-002 -5.88372946e-002
      -2.82972399e-002 2.54468247e-002 3.16456519e-002 3.68153527e-002
      -4.23403224e-003 3.03566828e-002 -9.00095981e-003 3.15259062e-002
      1.21943897e-003 7.97619391e-003 -4.58095148e-002 -1.99238509e-002
      1.50457751e-002 6.74320292e-003 2.20717322e-002 -5.70749976e-002
      9.99823585e-003 -1.08632157e-002 -2.68671121e-002 7.54699036e-002
      2.48233993e-002 4.79314998e-002 1.87829174e-002 2.16411124e-003
      -2.04633200e-003 3.95623520e-002 4.96497042e-002 6.26565591e-002
      -3.24574336e-002 -3.29849310e-002 -9.61859897e-003
      -6.01175688e-002 -1.59185138e-002 -5.55553362e-002 1.42823160e-002
      -2.47059632e-002 -2.70704422e-002 2.26453058e-002 -1.27356988e-003
      9.65962559e-003 -2.61694603e-002 -1.13721648e-002 2.73659383e-003
      6.82033226e-002 3.59352827e-002 4.57192324e-002 -5.06472439e-002
      -1.34098632e-002 3.87445092e-002 -1.27069056e-002 -1.08905984e-002
      -6.45719469e-002 1.18976813e-002 4.83132899e-003 -3.74577641e-002
      -4.72463854e-002 -9.06291418e-003 2.35015526e-002 -5.48027642e-002
      -4.69178194e-003 -5.50149381e-002 4.51726699e-003 -1.41885998e-002
      -5.70736676e-002 -6.08683154e-002 -4.29536030e-003 6.74086809e-002
      2.59470777e-004 6.72503859e-002 -2.92509198e-002 3.29732406e-003
      1.39231663e-002 -4.67671454e-002 -4.30191606e-002 1.57364979e-002
      6.07018359e-002 -7.97587167e-003 5.25167733e-002 -1.24979792e-002
      1.25539107e-002 -2.31959578e-002 -5.28253801e-002 -2.97140274e-002
      9.32764541e-003 2.80325972e-002 -3.88292894e-002 -2.63846871e-002
      -4.99290787e-002 -7.34302169e-003 -1.94979459e-002
      -3.48103791e-002 -5.59439734e-002 -2.03131102e-002
      -1.88756641e-003 -7.61813018e-003 -2.49033179e-002
      -3.40944231e-002 -3.42080481e-002 -2.98077520e-002
      -4.53581698e-002 -1.88979767e-002 2.63056438e-002 5.79570197e-002
      1.25555473e-003 3.93911861e-002 -2.35413052e-002 3.19512300e-002
      -4.14722413e-003 -3.18857729e-002 -4.78898361e-002
      -2.32164431e-002 3.24863195e-002 -2.09120326e-002 -2.62012333e-003
      -5.84062263e-002 -1.95848271e-002 -1.72502623e-004
      -5.96644729e-002 -2.92844567e-002 -3.33002172e-002
      -2.51947157e-002 -3.38527299e-002 6.82706945e-004 -4.67067696e-002
      -3.50783058e-002 -9.96168889e-003 -1.07086906e-002
      -1.51455225e-002 -3.34987119e-002 2.28892022e-004 -1.75916012e-002
      -6.82404637e-003 -2.01901682e-002 -1.49015496e-002 2.11779214e-002
      7.98275508e-003 -2.19741371e-002 -3.57986651e-002 2.27322187e-002
      -2.04372127e-002 2.70401913e-004 -7.59165362e-002 -3.90882120e-002
      8.62904824e-003 -1.38009116e-002 -3.53290401e-002 -1.98875684e-002
      2.60512102e-002 4.32378659e-003 -2.74136588e-002 -5.74924015e-002
      -5.43916784e-002 -3.76312919e-002 -3.01796515e-002
      -1.92222130e-002 -3.90544869e-002 -1.28664300e-002
      -3.72043028e-002 -2.16551796e-002 -5.47087453e-002
      -5.47696613e-002 -9.04712267e-003 -3.44807422e-003 5.95760830e-002
      4.32514362e-002 5.07038273e-002 3.12502943e-002 8.85360129e-003
      -3.76452953e-002 -4.25632559e-002 -1.33644952e-003 1.72349215e-002
      -5.30254059e-002 -3.94845717e-002 -1.51512120e-003
      -2.83297580e-002 -4.64183725e-002 -1.02259934e-001
      -1.06525928e-001 -6.85228184e-002 -4.44863997e-002 3.63694914e-002
      1.44461785e-002 4.16238904e-002 3.63274403e-002 9.36602429e-003
      -5.82401752e-002 -8.09246898e-002 -4.34664339e-002
      -1.26935123e-002 4.57557067e-002 1.77696196e-003 -2.70681875e-003
      -2.27109008e-002 -8.26407596e-003 -4.66748439e-002
      -7.53122196e-002 -5.71435615e-002 8.83536320e-003 4.82509658e-002
      2.26649195e-002 1.85480900e-002 3.27051394e-002 7.18944743e-002
      5.21391891e-002 -1.50330551e-002 -1.30858636e-002 4.42026965e-002
      3.06074601e-003 -2.97881085e-002 -1.64870247e-002 -1.83178708e-002
      -3.43202502e-002 -1.00506380e-001 -1.46804839e-001
      -1.07900485e-001 -4.22338806e-002 1.62434299e-002 -3.69397514e-002
      -1.33642396e-002 1.91108044e-002 2.66770143e-002 -3.40150334e-002
      -9.35399756e-002 -5.66410981e-002 2.22398480e-003 4.14729454e-002
      8.31544213e-003 7.14259781e-003 1.12798056e-002 5.62450774e-002
      4.16745618e-002 -3.59610021e-002 -4.03456874e-002 4.20695469e-002
      3.99379581e-002 4.75457311e-002 2.80650444e-002 1.83330141e-002
      6.78269640e-002 2.20709145e-002 -4.50770324e-003 -7.76120089e-003
      2.72324402e-002 -1.29830120e-002 -6.28212243e-002 -4.89036106e-002
      -3.28823514e-002 -2.22923048e-003 -2.50581577e-002
      -7.60719627e-002 -7.96169043e-002 -2.33227275e-002
      -1.49496924e-002 -3.17952931e-002 -4.35032919e-002
      -1.35787353e-002 1.34923998e-002 -1.21640414e-002 -4.98359129e-002
      -6.94473758e-002 -4.09339927e-002 2.37627737e-002 3.49365510e-002
      4.06532660e-002 3.59351560e-002 8.47298205e-002 4.87464666e-002
      1.95688959e-002 -1.39159206e-002 -4.01109876e-003 1.87235381e-002
      3.66774425e-002 1.58693679e-002 4.70079202e-003 6.45840615e-002
      3.78515087e-002 1.44156273e-002 7.43717561e-003 1.66827682e-002
      -4.00925316e-002 -7.28088841e-002 -5.45873307e-002 5.32403030e-003
      1.97031535e-002 1.82713605e-002 -5.68113402e-002 -9.98275280e-002
      -6.35336712e-002 -3.46895568e-002 -5.00130616e-002
      -6.18819930e-002 -1.59604829e-002 -2.16021598e-003
      -1.13007994e-002 -4.38202135e-002 -6.59988523e-002
      -1.65767204e-002 1.43831177e-002 1.36358915e-002 8.56199593e-004
      2.49936357e-002 7.12583587e-002 1.74028538e-002 -5.01526694e-004
      -2.10059714e-003 2.13048588e-002 1.91487391e-002 1.48307811e-002
      -1.56922340e-002 -1.89127568e-002 4.74394560e-002 1.77173894e-002
      -2.38029659e-002 -1.05126556e-002 3.39347236e-002 -2.38183998e-002
      -3.87036279e-002 -2.71372460e-002 1.48940785e-002 -9.94191971e-003
      -2.29494926e-002 -3.39808315e-002 -3.95224765e-002
      -1.47628067e-002 -3.98597978e-002 -4.58403677e-002
      -3.31117250e-002 -1.27331242e-002 -1.12406313e-002
      -2.22297572e-002 -2.77390480e-002 -5.94493449e-002
      -4.37905863e-002 3.30164693e-002 4.14647721e-002 3.16402316e-002
      -1.44505082e-002 4.10451591e-002 3.06691485e-003 -1.79568455e-002
      -1.90661754e-002 2.03741658e-002 1.05109625e-002 1.00616440e-002
      7.07640499e-003 -4.17307280e-002 -1.05727119e-002 -5.45646399e-002
      -9.23870504e-002 -5.89819998e-002 -2.08148472e-002
      -7.59567507e-003 -9.38076060e-004 -9.57017997e-004 1.61428452e-002
      4.67546247e-002 -3.21322167e-003 -1.63421128e-002 -3.63156460e-002
      -1.15661509e-002 -3.98621149e-003 -1.38390511e-002 7.66960299e-003
      -1.06934145e-004 1.45148998e-002 -5.63534983e-002 -8.67572203e-002
      -6.69118389e-002 -2.68054325e-002 -5.61906677e-003
      -9.43733007e-003 3.47138830e-002 -4.57137916e-003 2.64045503e-002
      -2.90502012e-002 -7.45452791e-002 -6.28448948e-002
      -2.81242374e-002 -4.27432805e-002 -2.02795081e-002 2.04642909e-003
      -3.74157876e-002 -2.60466747e-002 -6.53887764e-002
      -1.19133584e-001 -1.40783995e-001 -6.16324022e-002 2.98087820e-002
      1.16496580e-002 3.97865884e-002 5.35141043e-002 8.06353465e-002
      -1.20410547e-002 -6.14034571e-002 -1.81713067e-002 8.78739450e-003
      1.90707110e-002 2.00694147e-002 3.33574563e-002 5.75551540e-002
      5.67325875e-002 -3.62366363e-002 -1.17058769e-001 -9.37190279e-002
      -2.71268506e-002 -3.87384295e-002 -4.84757759e-002 5.04497765e-003
      -1.29408843e-003 4.09982959e-003 -5.55051453e-002 -9.20960233e-002
      -1.34915605e-001 -5.24411723e-002 -8.51315334e-002
      -8.88586566e-002 -1.09227477e-002 -3.48980129e-002 9.31616221e-003
      -5.75460866e-002 -8.39873850e-002 -1.13881864e-001
      -8.85238796e-002 3.33996974e-002 8.52768589e-003 5.12627922e-002
      7.41755739e-002 1.04681291e-001 1.13289030e-002 -6.63180798e-002
      -4.36869748e-002 2.91335043e-002 -2.55374424e-002 -3.30209695e-002
      6.36343509e-002 7.38290027e-002 8.55559483e-002 1.56057067e-002
      -4.56947833e-002 -2.73263808e-002 -1.29506532e-002
      -7.71807283e-002 -5.84250949e-002 2.83936914e-002 -3.57214250e-002
      -2.85668112e-002 -5.40716462e-002 -5.56256697e-002
      -7.44221061e-002 -6.39643371e-002 -6.37215227e-002
      -5.00254296e-002 2.15757024e-002 -4.24077362e-002 -3.57915796e-002
      -4.52631451e-002 -3.79366688e-002 -5.93297593e-002
      -7.36668408e-002 -7.39382021e-003 6.91658992e-004 8.83760378e-002
      9.83012021e-002 1.35408998e-001 3.17924321e-002 -1.06133334e-002
      6.48914080e-004 1.28481584e-002 -1.96553431e-002 1.39640570e-002
      8.75327662e-002 4.81910817e-002 6.68451414e-002 -1.54438829e-002
      -2.90322676e-002 -4.22298275e-002 -3.65139507e-002
      -5.31191081e-002 -3.27356234e-002 1.25258444e-002 -6.43874556e-002
      -5.04524149e-002 -4.98215407e-002 -2.63302978e-002
      -5.20469658e-002 -9.03936550e-002 -5.01213521e-002
      -1.54535770e-002 -2.03148816e-002 -6.79614991e-002
      -1.55827655e-002 -4.17773910e-002 -2.48232000e-002
      -3.95244323e-002 -5.93205653e-002 -2.46316269e-002
      -1.60457864e-002 4.09494825e-002 3.97454612e-002 1.08796649e-001
      1.19709503e-002 -2.39054579e-002 -3.82218696e-002 -5.33053242e-002
      -5.31241223e-002 -2.85042170e-002 3.44097614e-002 3.51067185e-002
      1.29331812e-001 7.27557093e-002 -1.90585628e-002 -2.17855703e-002
      -4.72001135e-002 -8.44891667e-002 -7.20201880e-002
      -3.83572504e-002 -8.94878730e-002 -6.16871007e-002
      -4.27722819e-002 -3.82428430e-002 -4.01860513e-002
      -6.17586449e-002 -2.64661592e-002 -6.77919462e-002
      -2.56648306e-002 4.40546963e-003 -7.15219136e-003 2.88667250e-002
      4.01144736e-002 5.32918870e-002 5.03071025e-002 -7.95557797e-002
      -7.84593597e-002 -1.85590219e-002 -3.45401950e-002 2.78443303e-002
      3.55083533e-002 -7.67622702e-003 -7.35220825e-003 -3.56051773e-002
      -3.48011754e-003 -3.63905691e-002 5.04472246e-003 4.03137431e-002
      6.88588172e-002 8.28538239e-002 5.10174222e-002 6.00781702e-002
      3.50896940e-002 -6.18570931e-002 -1.28692478e-001 -1.08205721e-001
      -8.29011276e-002 -2.11350713e-002 -5.05135357e-002
      -2.29187347e-002 -1.29316188e-002 1.68261956e-002 2.76989676e-002
      -2.96875592e-002 -4.00417596e-002 -3.09414677e-002 7.75482208e-002
      3.60485911e-002 3.19344178e-002 4.58227508e-002 8.83741528e-002
      -7.31897950e-002 -1.49730325e-001 -8.88828412e-002
      -4.42471765e-002 3.10000498e-002 1.26927905e-003 -1.91013776e-002
      -3.19933258e-002 -1.35643864e-002 3.42597440e-002 -6.02301620e-002
      -4.08821814e-002 -1.27633121e-002 8.18467438e-002 5.04009053e-002
      3.24451588e-002 4.05497253e-002 1.02182910e-001 1.66779011e-002
      -7.15023652e-002 -7.09097609e-002 -7.29282498e-002 3.48605365e-002
      -1.45990029e-002 -9.41383466e-003 -1.03662722e-002 5.52241988e-002
      7.03653693e-002 5.46325650e-003 9.26586613e-003 -5.56050614e-002
      5.69145046e-002 -4.65119677e-003 2.82258112e-002 5.17334975e-003
      7.52721950e-002 2.00615227e-002 -9.96714979e-002 -1.07237048e-001
      -1.00285664e-001 3.88470590e-002 -6.54935837e-003 -1.68324951e-002
      9.80322342e-003 6.47777468e-002 7.02341571e-002 -2.63636839e-002
      -2.86018290e-002 -3.64527255e-002 3.92436683e-002 1.18743507e-002
      1.09688863e-002 -7.36879697e-003 8.06279480e-002 2.41248254e-002
      -5.72506525e-003 -1.44955842e-002 -8.10378268e-002 2.25720685e-002
      -4.66078259e-002 4.37469734e-003 -1.65661238e-002 1.68903042e-002
      6.22655973e-002 2.57684868e-002 6.54375972e-003 -2.53464822e-002
      1.98789705e-002 -1.50481370e-004 5.15997969e-002 4.33172472e-002
      7.78824836e-002 3.13842520e-002 -1.11806281e-002 -2.54729614e-002
      -6.41011968e-002 -1.78553928e-002 -4.98219691e-002
      -3.82299870e-002 -4.78459932e-002 2.76588835e-002 1.29467964e-001
      5.88812754e-002 7.26674590e-003 3.40406480e-003 -2.80874316e-002
      -1.47059886e-002 -3.17640207e-003 1.18248677e-002 1.11494735e-001</_></support_vectors>
  <decision_functions>
    <_>
      <sv_count>1</sv_count>
      <rho>-4.7528803353907048e+000</rho>
      <alpha>
        1.</alpha>
      <index>
        0</index></_></decision_functions></my_svm>
</opencv_storage>
