<?xml version="1.0"?>
<opencv_storage>
<my_svm type_id="opencv-ml-svm">
  <svm_type>C_SVC</svm_type>
  <kernel><type>LINEAR</type></kernel>
  <C>1.0000000000000000e-002</C>
  <term_criteria><epsilon>1.1920928955078125e-007</epsilon>
    <iterations>1000</iterations></term_criteria>
  <var_all>8100</var_all>
  <var_count>8100</var_count>
  <class_count>2</class_count>
  <class_labels type_id="opencv-matrix">
    <rows>1</rows>
    <cols>2</cols>
    <dt>i</dt>
    <data>
      -1 1</data></class_labels>
  <sv_total>1</sv_total>
  <support_vectors>
    <_>
      -1.52893774e-002 4.67417645e-004 2.09671073e-002 -3.32670566e-003
      -7.01849815e-003 -3.16496678e-002 -1.57157760e-002
      -2.56494340e-002 -1.00311590e-002 -1.07647702e-002
      -2.29242304e-003 -4.70409868e-003 -3.85228358e-002
      -1.74517706e-002 -5.21197245e-002 -1.36311855e-002
      -2.67761294e-002 -2.79479250e-002 7.34667946e-003 7.00974604e-004
      4.66591492e-003 -2.97137294e-002 1.45638045e-002 -1.82332844e-002
      2.42467388e-003 -6.20791642e-003 6.42026681e-003 1.43080596e-002
      9.96982586e-003 5.01189195e-003 -1.84041597e-002 -1.54388472e-002
      -3.52658294e-002 -2.23055622e-003 -8.66789743e-003 1.21938940e-002
      -2.68216450e-002 -1.03611569e-003 1.73868984e-002 -6.08518347e-003
      2.16291118e-002 -2.19901092e-002 -1.52669521e-002 -2.53279805e-002
      -2.71216594e-002 -2.83832382e-002 -2.05037352e-002 2.85447622e-003
      -4.37856279e-003 2.19207499e-002 -4.68391180e-003 -9.56674758e-003
      -3.04984357e-002 -1.60333253e-002 -1.39593789e-002
      -8.96175206e-003 2.08932981e-002 4.35910973e-004 1.72187854e-002
      -1.79913770e-002 -2.25712894e-003 -1.31460698e-002
      -2.61010369e-003 -1.88376512e-002 -2.15408560e-002
      -6.72027003e-003 -1.62640624e-002 1.15679204e-002 -2.16324776e-002
      -1.43243307e-002 -9.45914257e-003 -7.08034122e-003
      -1.07048992e-002 -2.18123477e-002 -1.29500451e-002 5.11634070e-003
      2.83943228e-002 -6.77659037e-003 9.98716243e-003 -1.70533254e-003
      9.35112312e-003 -3.63661535e-002 -4.10764664e-002 -2.20965762e-002
      -1.08732730e-002 3.91934700e-002 2.09254213e-002 2.03147829e-002
      -4.53692209e-003 -2.30184793e-002 8.99109337e-003 -2.99315900e-002
      -2.97284424e-002 -2.81358138e-002 1.68031454e-002 -1.24770813e-002
      -3.71762016e-003 7.10862456e-003 2.13190988e-002 -1.05003882e-002
      -2.73080822e-002 -5.42638265e-002 -5.02100065e-002
      -1.34000983e-002 -1.58943236e-002 5.43141831e-003 -6.72814064e-003
      -2.70999083e-003 -2.32639797e-002 -1.48346359e-002 1.57748759e-002
      1.08170127e-002 2.30032466e-002 2.15621870e-002 3.19892280e-002
      -4.52352455e-003 -2.66650449e-002 -3.15848328e-002
      -2.55136751e-003 2.48576794e-002 4.31756070e-003 1.33775908e-003
      -1.30208256e-002 9.55524389e-003 -1.07637858e-002 -2.05637738e-002
      1.02826273e-002 -1.42673450e-003 -1.92983430e-002 -3.65196094e-002
      -2.01285891e-002 -9.19771381e-003 1.66160837e-002 -3.06634023e-003
      -1.29213724e-002 -2.84699239e-002 -2.91859172e-002
      -2.89000738e-002 -4.95182127e-002 -1.99374929e-002
      -4.03480344e-002 -1.65816937e-002 -1.69885866e-002
      -1.42189497e-002 -6.50672894e-003 2.15775669e-002 2.48335619e-002
      -6.69667637e-003 9.43032932e-003 -4.54338500e-003 -1.60202887e-002
      -1.96591616e-002 -5.30772936e-003 -1.80871617e-002
      -5.01378812e-003 -5.90999145e-004 -1.45136276e-002 5.02198096e-003
      -3.99353635e-003 -1.88771281e-002 -5.06579503e-002
      -3.34035680e-002 -2.31543351e-002 -3.81187908e-002
      -3.35202366e-002 -4.50996011e-002 7.94137921e-003 -1.03837624e-002
      -3.25617306e-002 -2.95309816e-002 -7.15138949e-003
      -4.68518287e-002 -5.39718941e-002 -4.01994660e-002
      -1.48258144e-002 1.29636312e-002 -2.63228593e-003 -3.05559337e-002
      -4.69016470e-002 -3.29406410e-002 -1.71035882e-002
      -1.20706744e-002 -2.56694499e-002 -3.26673388e-002
      -1.44318566e-002 -2.79934630e-002 -1.81276426e-002
      -3.59416567e-002 -2.98485588e-002 9.73653886e-003 8.99563171e-003
      2.32909620e-002 -1.50504177e-002 3.49194766e-003 -2.32359618e-002
      1.22230724e-002 -4.59316932e-003 -6.12458820e-003 -4.09324914e-002
      -4.31972817e-002 -4.22735475e-002 -3.35252136e-002
      -1.96241178e-002 -3.54979262e-002 -2.90950555e-002
      -3.79827991e-002 -3.46298926e-002 6.21742429e-003 5.71513036e-003
      -3.02960211e-003 -3.23520191e-002 1.54524052e-003 -9.41022858e-003
      8.71139858e-003 -1.57330520e-002 -2.34498326e-002 -5.83706005e-003
      -1.71532808e-003 8.74983892e-003 -2.44335197e-002 -1.61444861e-002
      -1.59594212e-002 4.21962142e-003 -2.00691745e-002 -1.31791709e-002
      1.11702140e-002 4.68248781e-003 1.82833103e-003 1.98104489e-003
      1.84766166e-002 1.76006220e-002 2.49514692e-002 1.85133412e-003
      4.78154235e-003 -2.60110702e-002 -1.60190780e-002 -2.13084393e-003
      -3.51524539e-002 -1.91536769e-002 -3.06396987e-002
      -1.63957907e-003 -4.20229509e-002 -4.72886786e-002
      -1.97391845e-002 -5.21030789e-003 3.59917618e-003 -9.40520689e-003
      -4.84999642e-003 -5.98405953e-003 -1.02187565e-003
      -2.29689442e-002 -3.09913754e-002 7.05398433e-003 -1.17200762e-002
      -2.80439854e-002 -4.73071262e-002 -6.79135974e-003
      -4.36194561e-004 -8.48758779e-003 -1.28492257e-002
      -6.33070292e-003 1.95942074e-002 1.94878951e-002 6.29632361e-003
      -2.25124620e-002 2.43084673e-002 2.81976722e-002 8.85744230e-004
      -5.24405250e-003 -4.77197440e-003 -6.10092795e-003
      -1.75700244e-002 -3.66356969e-002 -6.03455119e-002
      -3.45196612e-002 -4.18951288e-002 -1.71590112e-002
      -1.65631305e-002 -4.50143125e-003 1.03280740e-002 4.04250668e-003
      -3.20556480e-003 -1.84797458e-002 7.93636136e-004 1.24494992e-002
      -2.11612612e-004 8.82624742e-003 4.37672157e-003 1.29926065e-002
      2.40522847e-002 1.13731734e-002 -1.66901797e-002 3.73880900e-002
      2.39780229e-002 5.61871845e-003 1.34710761e-004 -6.45727944e-003
      4.92467126e-003 1.51198329e-002 -1.41652999e-002 -2.46685334e-002
      4.71282639e-002 4.00482975e-002 1.52723249e-002 8.95746145e-003
      -4.72583110e-003 -1.33373635e-002 -1.44368755e-002
      -6.19804813e-003 -3.77257876e-002 1.13665331e-002 1.74724888e-002
      4.75181127e-003 -5.89840254e-003 -1.78377721e-002 -2.72693299e-002
      -4.10816744e-002 -4.05697823e-002 -4.32303622e-002 2.00925898e-002
      2.68497560e-002 3.23983878e-002 -2.52531096e-003 -3.20266597e-002
      9.37230699e-003 2.20283847e-002 -1.37634249e-002 -3.05150934e-002
      3.99962366e-002 2.78513357e-002 1.64507311e-002 1.39466655e-002
      -2.13178690e-003 2.15266868e-002 2.95812413e-002 1.27648069e-002
      -1.05885956e-002 1.79715883e-002 2.86944350e-003 -1.28991390e-002
      2.36247946e-002 3.16862948e-002 -2.30468512e-002 -1.58139449e-002
      -3.32857743e-002 -3.55882421e-002 1.78639796e-002 2.20136587e-002
      9.15269274e-003 5.61653869e-004 -1.96514279e-002 -2.45188791e-002
      -9.58696380e-003 1.26686553e-003 -1.51562504e-002 9.66539141e-003
      4.01495397e-003 -2.26040445e-002 7.76299834e-003 -1.38906930e-002
      2.97701694e-002 2.87504252e-002 -1.43063872e-003 -3.69650386e-002
      2.67942790e-002 -1.10558020e-002 5.27082430e-003 2.71692928e-002
      4.57586795e-002 6.14575110e-002 2.97908653e-002 -3.51332948e-002
      -6.74724281e-002 1.69284791e-002 1.32455798e-002 1.07420469e-002
      3.82326655e-002 4.60537337e-002 -2.70335432e-002 -9.27354489e-003
      -9.33476165e-003 -2.92422473e-002 3.38679925e-002 1.13597661e-002
      -9.11272224e-003 4.17288579e-003 -2.75204591e-002 2.11000778e-002
      -4.16795397e-003 -3.88612747e-002 -3.65312807e-002 1.76209342e-002
      1.08129308e-002 -1.48741333e-002 -4.22940962e-003 3.89117142e-003
      7.92927071e-002 2.41528917e-002 -5.05874716e-002 -7.14739338e-002
      4.17480798e-004 8.93697236e-003 -1.37079740e-004 2.90172566e-002
      5.51035851e-002 8.84824097e-002 3.11676841e-002 -5.96939772e-002
      -4.71256003e-002 2.97626294e-002 2.22001690e-002 1.68898348e-002
      5.57109788e-002 8.52690339e-002 2.94593181e-002 -7.15935137e-003
      -5.89307919e-002 -6.32517040e-002 -5.30013395e-003
      -1.69011280e-002 -2.61202101e-002 -1.83772277e-002
      -7.92713929e-003 2.30806544e-002 5.17164590e-003 -5.59490807e-002
      -4.75500412e-002 1.62650663e-002 -5.18191420e-003 -7.56303174e-003
      -6.65694196e-003 7.55721750e-003 5.21018021e-002 -5.42433700e-003
      -8.27504918e-002 -6.88144043e-002 1.42031563e-002 1.20709639e-003
      -1.06920712e-002 2.04220656e-002 5.04519530e-002 7.13725537e-002
      7.61097763e-003 -5.47679998e-002 -1.86130013e-002 2.95874141e-002
      3.68333384e-002 7.71832792e-003 4.88111377e-002 6.99370280e-002
      5.60836727e-003 -3.46041061e-002 -8.27463195e-002 -7.44107813e-002
      -6.22204365e-003 -1.49142388e-002 -3.35827060e-002
      -3.32946107e-002 3.08963656e-003 4.04547788e-002 -5.21308789e-003
      -4.25815806e-002 -1.06381755e-002 5.62661653e-003 9.79138631e-003
      -2.38936935e-002 4.80057253e-003 2.76238713e-002 3.78471874e-002
      -2.31691524e-002 -8.40271860e-002 -5.21645136e-002
      -2.46562250e-002 -7.55415391e-003 -2.75725313e-002 1.38602965e-002
      4.11617830e-002 7.53176957e-002 1.86708085e-002 -3.18064392e-002
      9.56118386e-003 2.33575120e-003 3.68527286e-002 6.09435327e-003
      4.26654592e-002 7.81692564e-002 7.41067436e-003 -2.17029117e-002
      -9.01634693e-002 -5.14657833e-002 -3.69859189e-002
      -3.81950401e-002 -7.23997205e-002 -4.07648608e-002 3.17816040e-003
      5.02485670e-002 1.82900634e-002 -3.24709266e-002 7.31642172e-003
      -9.10861418e-003 2.01803222e-002 -2.01729573e-002 -1.38504319e-002
      2.36837901e-002 2.97718998e-002 3.48077272e-003 -3.70056331e-002
      1.85076818e-002 -3.06569110e-003 4.70650208e-004 -3.91749255e-002
      -1.24591507e-003 1.72313489e-002 2.61470340e-002 1.00555774e-002
      -4.39041927e-002 3.22496928e-002 -2.49491185e-002 2.04650983e-002
      -3.65056284e-002 9.95286927e-003 2.18440238e-002 1.39627345e-002
      -1.37432171e-002 -6.44887090e-002 1.07764471e-002 -3.41830440e-002
      -2.52872426e-002 -5.32685518e-002 -4.00783494e-002
      -3.32412688e-004 1.26264701e-002 7.90092070e-003 -5.05381599e-002
      3.77197973e-002 -3.57536189e-002 2.65931729e-002 -3.50814015e-002
      -1.29016666e-002 2.88472301e-003 -1.47992028e-002 -1.71845071e-002
      -1.94479991e-002 -2.16349941e-002 9.27954912e-003 -8.17380007e-003
      -1.88396231e-003 2.82997917e-003 -7.30446214e-003 -6.23794552e-003
      1.29123069e-002 -8.43317155e-003 -2.88724564e-002 -1.81919001e-002
      -3.11386380e-002 -2.83646747e-003 -6.82661659e-004 1.32108456e-003
      -1.13360388e-002 -1.24160219e-002 -6.78692339e-003
      -1.83509644e-002 9.19845980e-003 -3.25232632e-002 -1.26933558e-002
      -8.03290692e-004 4.58554085e-003 -1.66337080e-002 -5.57533139e-003
      -1.84767637e-002 -2.47431304e-002 -1.47696445e-002
      -3.20142433e-002 -1.29508572e-002 -2.04798393e-003
      -2.10077595e-003 -2.11201198e-002 9.09781829e-003 1.78540926e-002
      -6.33484265e-003 7.99046457e-003 3.10589466e-003 -2.41245446e-003
      6.74769981e-003 7.03322142e-003 -2.31786631e-002 -1.75123569e-002
      -7.11881137e-003 -2.42398251e-002 -1.46668113e-003
      -2.57529002e-002 -1.86396539e-002 8.56522191e-003 -5.31107048e-003
      -6.04840508e-003 -1.98974423e-002 -5.64089650e-003
      -6.69742282e-003 2.13939585e-002 3.73104587e-003 -3.12500610e-003
      2.22209143e-003 -6.39668293e-003 -2.44387314e-002 -3.33092883e-002
      -9.29697417e-003 -1.13044782e-002 5.48178470e-003 -2.79751141e-003
      1.04689971e-002 2.81878421e-003 -5.21296170e-003 1.67448465e-002
      -1.25164241e-002 -9.30809602e-003 -3.37603465e-002
      -3.91099136e-003 -3.58258933e-002 -1.46018332e-002 8.57599918e-003
      1.72166061e-002 1.95257075e-003 -1.75677948e-002 -4.68390398e-002
      -5.47705404e-002 -2.24509388e-002 -2.86599975e-002 3.93625721e-003
      -3.42001044e-003 6.81318296e-003 -4.19525104e-003 -2.21893508e-002
      -2.57352577e-003 -2.46452149e-002 1.39567873e-003 -2.33403333e-002
      8.22711643e-003 9.65222903e-003 8.56679305e-003 -1.95071157e-002
      -2.98715793e-002 -4.59258258e-002 -4.17227410e-002
      -8.21866374e-003 -2.66267769e-002 -3.17407981e-003
      -1.17814559e-002 6.79914281e-003 1.66178904e-002 4.15741466e-003
      -2.28897166e-002 -2.81591862e-002 -1.43430633e-002 4.41755308e-003
      2.14769244e-002 9.34626348e-003 1.42924460e-002 -2.36452781e-002
      -4.09835540e-002 -4.46613804e-002 -3.49466391e-002
      -1.17541431e-002 -2.59890351e-002 -8.75550695e-003
      -3.93714430e-003 -2.23659918e-005 1.19566070e-002 -4.12215153e-003
      -1.65705532e-002 -2.04074420e-002 -2.04462484e-002
      -2.90914578e-003 1.05567127e-002 6.18524384e-003 2.56159212e-002
      -2.62680855e-002 -5.53278364e-002 -4.05261181e-002
      -3.15191261e-002 -3.09106410e-002 -3.35822403e-002
      -1.03375232e-002 7.45118596e-003 4.73468425e-003 -1.76746584e-002
      -5.01344390e-002 -5.27035855e-002 -3.06856260e-002 1.30630769e-002
      -3.77996429e-003 -6.41728705e-003 -8.71171150e-003 9.70442838e-004
      -1.21378116e-002 -3.69395874e-002 -2.08579246e-002
      -7.49784429e-003 1.08075431e-002 -1.27718337e-002 -9.67718195e-003
      -1.49045652e-002 -8.64527468e-003 -1.93542764e-002
      -5.49255721e-002 -3.89989689e-002 -3.09623834e-002
      -1.61518380e-002 -3.55840400e-002 -5.63288899e-003 1.33721456e-002
      1.31562278e-002 -2.17414629e-002 -2.91537698e-002 -1.47517994e-002
      4.20354819e-003 7.05520250e-003 -1.87790338e-002 -1.79930907e-002
      -9.24935378e-003 8.67262855e-003 -9.16296337e-003 -1.75387003e-002
      -6.65594824e-003 -8.32848065e-003 -1.37910992e-002
      -4.57738638e-002 -2.89362557e-002 -2.66579576e-002
      -1.12348646e-002 1.22229867e-002 4.43845429e-003 1.47774462e-002
      -2.20982395e-002 -1.19468500e-003 -2.00418420e-002 3.49712325e-003
      -4.38104430e-003 -1.56781613e-003 -1.36575559e-002
      -2.60877572e-002 -1.01621775e-002 -8.92413873e-003
      -5.16110426e-003 -3.93150896e-002 -3.06657795e-002
      -3.74985971e-002 -5.84294228e-003 -4.74146148e-003
      -2.09430419e-002 -3.63108236e-003 -1.56374276e-002 5.21289092e-003
      -1.19216535e-002 -5.72106754e-003 -2.14128476e-002
      -1.35078803e-002 -6.68000570e-003 -1.31372679e-002
      -2.23790598e-003 -3.51342410e-002 -5.25437994e-003
      -1.40803521e-002 -1.07682794e-002 -2.67926790e-002
      -1.75745506e-002 -1.67744849e-002 -6.46717381e-003 2.24588159e-003
      -1.77440271e-002 1.39705306e-002 2.35853326e-002 1.29053984e-002
      -5.93716558e-003 -1.88537557e-002 -1.76656768e-002
      -3.77398506e-002 -3.71412821e-002 -5.40928803e-002
      -1.66695938e-002 -1.77348517e-002 -1.34732835e-002
      -2.86116041e-002 -3.55904140e-002 -1.19843073e-002
      -2.73555703e-002 -1.91762596e-002 -2.46920064e-002 5.98292332e-003
      1.15922280e-002 1.21905236e-002 -1.28580974e-002 -9.62466747e-003
      -1.96187710e-003 -2.24577170e-002 -3.58100571e-002
      -4.41188924e-002 -1.34403324e-002 -1.47233726e-002
      -9.27809719e-003 -5.96175622e-003 -7.59137841e-003 1.26213506e-002
      6.89648883e-003 7.72736780e-003 5.20761916e-003 1.08262021e-002
      2.99235396e-002 7.95694627e-003 -9.58202034e-003 -8.87915026e-003
      -1.60556491e-002 -3.94519977e-002 -2.38641649e-002
      -2.79072337e-002 -1.28345490e-002 -2.36208607e-002
      -3.13944072e-002 -3.46454270e-002 -2.64804829e-002 6.94448478e-004
      1.18534211e-002 2.12122481e-002 3.90460603e-002 3.11655831e-002
      1.39592877e-002 -2.08667181e-002 -4.64892909e-002 -2.52447855e-002
      -2.11976860e-002 -1.13757523e-002 -1.74278417e-003
      -1.47175249e-002 2.26848330e-002 3.40143442e-002 3.50053632e-003
      -2.90133432e-002 -3.30072381e-002 -3.73414643e-002
      -2.85047237e-002 -1.15986476e-002 -1.81538668e-002 1.20229563e-002
      2.02517584e-002 2.42307354e-002 -9.86982603e-003 -3.88573185e-002
      -1.29052056e-002 5.66818006e-003 2.20951047e-002 1.24324253e-002
      3.19098160e-002 1.80797130e-002 -5.68398228e-003 -4.94471937e-002
      -4.63074856e-002 -2.34619714e-002 -1.70223415e-003 1.04063163e-002
      1.03957625e-002 3.91334854e-003 -5.88040473e-003 1.01745687e-002
      -1.18259145e-002 -2.76570655e-002 -5.11552803e-002
      -2.03308761e-002 -4.56257910e-003 -5.06136427e-003 1.79644488e-002
      1.52482186e-002 1.20589510e-002 -3.19682760e-003 -3.80748101e-002
      -4.55151312e-002 -1.34796845e-002 1.06368121e-002 -7.18193781e-003
      1.03481999e-002 6.73913956e-003 -1.15094949e-002 -4.15076176e-003
      -2.97239032e-002 -2.52825487e-002 8.70850496e-003 1.50159765e-002
      1.35824792e-002 4.09987420e-002 9.67419241e-003 1.19557492e-002
      -3.18887527e-003 -9.76430904e-003 -3.32398824e-002 9.02402401e-003
      3.98036744e-003 4.94482275e-003 3.26766968e-002 7.45254755e-003
      1.00373197e-003 -5.16155642e-003 -2.55668275e-002 -3.52881700e-002
      -1.52765689e-002 -3.23744863e-003 -1.20729692e-002 4.89822142e-002
      3.18380781e-002 1.14652580e-002 -2.81674787e-003 -3.70654240e-002
      -1.05100926e-002 -3.56777082e-003 -9.94426571e-003
      -6.79858681e-003 5.21637835e-002 4.53700088e-002 1.17560138e-003
      -1.41506605e-002 -3.62246074e-002 -3.74509282e-002
      -1.54517964e-002 3.58074880e-003 6.11465704e-003 6.67148754e-002
      3.48143913e-002 2.61464939e-002 7.14966143e-003 -2.64682230e-002
      -4.43279147e-002 -2.25334410e-002 1.34589686e-003 1.69967581e-002
      9.06552598e-002 7.43156374e-002 4.02812771e-002 1.15937917e-002
      -3.55306715e-002 -1.02976672e-002 -5.57065848e-003
      -1.54632162e-002 -2.04717591e-002 5.94278648e-002 2.49721128e-002
      -3.48115014e-003 -2.58878041e-002 -4.73485515e-002 5.63100586e-003
      -9.19180573e-004 -1.45879406e-002 -2.33636200e-002 5.85581027e-002
      3.28854620e-002 1.34376055e-002 -2.89700851e-002 -1.68625545e-002
      -4.68609855e-002 -3.29349376e-002 1.06843943e-002 1.44314263e-002
      9.43663046e-002 5.91493845e-002 2.65421811e-002 -1.11116683e-002
      -5.65208681e-002 -1.46304648e-002 -6.14843192e-003 1.87805071e-002
      1.68164186e-002 8.96267071e-002 3.66368741e-002 2.85578463e-002
      -3.07938196e-002 -5.92440851e-002 -1.82486977e-002
      -3.83554064e-002 -4.49857190e-002 -3.96695212e-002 3.93377990e-002
      1.08093722e-002 -7.01868813e-003 -3.04123797e-002 -1.85771249e-002
      3.81052084e-002 1.29750054e-002 1.35857593e-002 1.20063592e-002
      3.41952555e-002 2.29590274e-002 9.96964891e-003 2.35412661e-002
      3.39130424e-002 -2.26316154e-002 -3.08927260e-002 -2.19457038e-002
      -1.28156729e-002 3.59883569e-002 -9.77618434e-003 -8.20288155e-003
      -5.37361279e-002 -3.83071825e-002 3.64282988e-002 1.66992042e-002
      1.54985636e-002 1.68420505e-002 3.77458520e-002 2.22724080e-002
      1.87640674e-002 1.09731313e-002 2.72899475e-002 1.71253923e-002
      -6.05588267e-003 -2.65970360e-002 -1.09280879e-002
      -6.06461614e-003 -2.77100038e-002 -4.69554700e-002
      -2.80320086e-002 -4.13555070e-004 5.13460077e-002 2.96673644e-002
      7.44870119e-003 5.86274266e-002 3.55483927e-002 3.78554948e-002
      -3.63064138e-003 1.66622095e-003 2.02250704e-002 3.92524991e-003
      -1.50477421e-002 -3.80125120e-002 -1.37001323e-002 3.16571351e-003
      -1.01497946e-002 -3.90105583e-002 -2.74675004e-002
      -1.16162626e-002 1.44828726e-002 1.55010894e-002 -6.74836477e-003
      5.12150712e-002 1.60071123e-002 1.79190449e-002 -3.18539031e-002
      -3.00876815e-002 -1.95323173e-002 2.93201748e-002 -2.26922892e-003
      -2.92696934e-002 3.94467600e-002 -8.58724304e-003 1.79516189e-002
      -2.37787459e-002 -2.09759828e-002 1.57534238e-002 3.43918726e-002
      1.13343261e-002 -3.37551311e-002 4.23229560e-002 -8.10968410e-003
      4.64875735e-002 -1.06392857e-002 -7.63072108e-004 2.79074516e-002
      -2.43428769e-003 -2.34558098e-002 -4.52836566e-002 1.83585137e-002
      -1.80552229e-002 4.46706684e-003 -6.81230277e-002 -4.84446846e-002
      -2.43920758e-002 1.84428645e-003 -2.50154100e-002 -2.94425786e-002
      4.86444235e-002 -8.87302496e-003 1.76980719e-002 -3.16584967e-002
      -2.41009034e-002 1.16905337e-003 -2.82973656e-003 6.96543884e-003
      1.46451853e-002 1.44262798e-003 -6.22697128e-003 -2.28905994e-002
      -1.19750411e-003 1.47322603e-002 2.78863031e-002 -8.28790385e-003
      -1.19069796e-002 2.31207092e-003 -8.11995659e-003 -6.04887446e-003
      -3.13166603e-002 -1.77110471e-002 -2.15996872e-003 2.99888570e-003
      -1.94296353e-002 -1.67626385e-002 2.49944758e-002 -1.09559139e-002
      -1.86848361e-002 -1.78231653e-002 2.46986910e-003 1.74628031e-002
      1.09626008e-002 -1.80961881e-002 -4.15299088e-002 2.84094363e-003
      -1.87047515e-002 -1.48253543e-002 -3.82018723e-002
      -1.78308934e-002 -5.26773790e-003 -2.74654920e-003
      -1.14898793e-002 -3.99827063e-002 -4.24126210e-003 1.38567407e-002
      3.99043672e-002 6.50193018e-004 9.17971693e-003 -4.94506815e-003
      -4.89405449e-003 -2.42968369e-002 -5.14096394e-002
      -1.37477769e-002 -8.92188959e-003 2.90400703e-002 1.24743534e-003
      3.18760648e-002 6.07923931e-003 1.01883383e-003 -1.87517684e-002
      -6.16859943e-002 -2.22435333e-002 -9.99115780e-003 1.08262636e-002
      -3.55245359e-003 1.24893216e-002 1.93507018e-004 1.18931215e-002
      -2.63606049e-002 -6.16493262e-002 -4.35675196e-002
      -2.67070223e-004 8.39745998e-003 -9.73164663e-003 7.97859451e-004
      3.39429243e-004 6.86451001e-003 -1.48131028e-002 -5.52984551e-002
      -1.66746974e-002 -1.27425576e-002 3.19732279e-002 -1.21112093e-002
      1.32854208e-002 1.82715412e-002 1.48112662e-002 -2.03838740e-002
      -7.20818266e-002 -3.78886946e-002 -1.92328561e-002 1.25575243e-002
      -5.08053275e-003 8.52215942e-003 6.22755662e-003 6.70883385e-003
      -1.32750422e-002 -4.81841005e-002 -3.04955002e-002
      -1.04576582e-004 1.57544911e-002 -2.78124940e-002 -1.77728443e-003
      6.65266206e-003 1.60644725e-002 -2.98591275e-002 -5.81778958e-002
      -2.69220900e-002 -2.05831439e-003 1.98671557e-002 -3.23608634e-003
      2.07848516e-005 -7.05151213e-003 6.77003199e-003 2.05634045e-003
      -3.78738679e-002 -2.31242701e-002 8.42718873e-003 4.29975707e-003
      -5.87023236e-003 1.13832077e-003 -2.69694021e-003 7.95132481e-003
      -2.51278151e-002 -5.11930436e-002 -3.19472626e-002
      -1.48072327e-002 -3.25541496e-002 -3.28479558e-002
      -1.57695226e-002 -1.88599341e-002 -2.20505539e-002
      -1.23496319e-003 -4.40662019e-002 -1.11520160e-002 3.36528867e-002
      2.24978942e-002 2.30854526e-002 7.09317392e-003 -8.13581515e-003
      8.84172786e-003 -2.00802498e-002 -3.45891342e-002 -1.37215108e-002
      1.10386014e-002 -2.43710801e-002 -3.38215530e-002 -8.04909971e-003
      -1.07242651e-002 -2.07976792e-002 -8.41624197e-003
      -3.54509465e-002 -1.73042845e-002 -1.50313834e-002
      -8.98743421e-003 -2.60931402e-002 7.98311550e-004 8.73606838e-003
      1.17544737e-002 -1.76471639e-002 -3.96581441e-002 -9.25533567e-003
      6.92981808e-003 1.17983948e-002 -2.45077796e-002 -1.72493653e-003
      -9.05803964e-003 9.36630461e-003 -4.91414126e-003 -2.51770113e-002
      2.63372762e-003 6.03331393e-003 -1.28197800e-002 -3.20134647e-002
      1.15882317e-002 1.93112865e-002 1.29674887e-002 -2.64864471e-002
      -5.40340357e-002 -3.96545827e-002 -1.66180022e-002
      -2.74383985e-002 -4.29880954e-002 1.30640427e-002 1.55391460e-002
      7.10108876e-003 -1.69217233e-002 -2.58830991e-002 2.99348525e-004
      3.42004187e-003 2.63106823e-002 -8.06357805e-003 -1.66104473e-002
      -1.90158207e-002 -6.67894725e-003 -8.83350894e-003
      -1.73511244e-002 1.70761235e-002 1.25801004e-002 4.35952246e-002
      1.31028902e-003 -7.46961683e-003 -1.87844243e-002 -7.69037195e-003
      -2.50083972e-002 -4.59499657e-002 -1.82542484e-002
      -2.02463344e-002 -1.03913564e-002 -4.47341315e-002
      -1.63409568e-003 3.55053856e-003 7.93373256e-005 -2.78197229e-002
      -2.26152204e-002 2.77639623e-003 -2.83000385e-003 -1.38019975e-002
      -3.01906466e-002 -3.16344611e-002 -3.14004123e-002
      -2.35063713e-002 1.58392801e-003 -1.56051163e-002 -1.02720491e-003
      -2.09572855e-002 1.65694058e-002 -1.19423186e-002 -2.09768154e-002
      -2.33061854e-002 -1.16312942e-002 1.33262221e-002 -8.95127468e-003
      -1.18569657e-003 -8.10821354e-003 1.19955894e-002 3.68569628e-003
      9.43989959e-003 1.73596833e-002 2.47615743e-002 -1.94077976e-002
      -1.43404445e-002 -4.01900755e-003 -1.65580958e-002
      -2.01426260e-002 -4.52175066e-002 -4.48357537e-002
      -4.90424372e-002 -1.89073253e-002 2.90967477e-003 -1.50669804e-002
      -8.98458436e-003 -2.15977468e-002 -2.26391610e-002
      -4.31830510e-002 -1.78944003e-002 -1.97600722e-002
      -7.91221391e-003 -4.63766186e-003 -1.35829356e-002 3.65328189e-004
      -7.26930390e-004 -4.39976749e-004 -3.57867405e-002
      -2.43530124e-002 -1.61226355e-002 5.70096367e-004 1.16231153e-002
      2.84044705e-002 3.87884378e-002 5.53430952e-002 4.17740606e-002
      5.53816464e-003 2.18046214e-002 -1.18053481e-002 5.09438990e-003
      -3.15703824e-002 -4.60585654e-002 -2.89284196e-002
      -4.50002104e-002 -4.13417891e-002 -5.20329811e-002
      -3.21615748e-002 -1.94780820e-003 -1.61895100e-002
      -3.21502313e-002 -1.75451916e-002 9.00480244e-003 3.53955897e-003
      -6.81975763e-003 -6.90866541e-003 1.11134909e-002 1.03515834e-002
      -1.02576036e-002 -1.55218979e-002 1.11076385e-002 2.72952039e-002
      3.19727175e-002 2.37805992e-002 -4.38025147e-002 -1.09935468e-002
      -4.48868312e-002 -2.27305237e-002 -1.76552236e-002 1.16502484e-002
      2.45029368e-002 1.72458161e-002 2.73048226e-002 -2.64219288e-002
      1.90793145e-002 3.01785441e-003 4.24273498e-003 -3.78379561e-002
      -1.08136851e-002 4.16865014e-003 -1.79064833e-002 -8.31632409e-003
      -5.11944741e-002 -1.99060030e-002 -2.82810442e-002
      -3.03499158e-002 -1.70246102e-002 -2.83336127e-003 1.14754168e-002
      -6.67658984e-004 -2.99624144e-003 -3.53925973e-002
      -6.92878675e-004 -7.18436763e-003 -8.00922792e-003
      -3.06638870e-002 3.79838096e-003 9.84188821e-003 6.90509425e-003
      2.58098729e-002 -2.43934989e-002 -2.52436660e-003 -3.54429707e-003
      -1.48980860e-002 -2.63841711e-002 3.04649258e-003 1.05201639e-002
      1.88040100e-002 2.67450139e-002 -2.68051755e-002 -1.09874597e-002
      -7.76233152e-003 -2.20322404e-002 -1.83540601e-002
      -1.20621379e-002 -8.97817896e-004 -8.08679312e-003 7.77339656e-003
      -2.46064849e-002 -6.78905658e-003 -1.59154125e-002
      -1.23808673e-002 -1.44189759e-003 7.81649072e-003 1.08827921e-002
      1.25297830e-002 6.33432111e-003 -3.65417562e-002 -1.45072807e-002
      -5.57891140e-003 -5.56683335e-006 -5.46253733e-002
      -2.17280425e-002 1.02774706e-003 6.31529046e-003 3.62216271e-002
      -1.73278488e-002 -2.99467915e-003 -1.44317588e-002
      -4.11271080e-002 -5.47763370e-002 -3.79303768e-002 9.04193847e-004
      8.89186934e-003 4.26305979e-002 2.61048246e-002 2.44694930e-002
      9.62842721e-003 -2.82970592e-002 -2.13196352e-002 -1.50685459e-002
      1.00104148e-002 2.71271244e-002 1.89492740e-002 -2.94098910e-002
      -9.06256773e-003 -1.53739494e-003 -1.65902916e-002
      -1.57041606e-002 -1.48689430e-002 7.73151172e-003 2.33226623e-002
      4.26510312e-002 -5.54107409e-003 2.38539353e-002 3.72133702e-002
      1.42088030e-002 -5.65398969e-002 -4.79593053e-002 -8.46025907e-003
      6.56692404e-003 5.90886474e-002 1.30850403e-002 1.10731293e-002
      -3.19439685e-003 -5.03168441e-002 -4.81486656e-002
      -3.24746668e-002 1.27964700e-002 2.26352271e-002 5.79512678e-002
      -1.12025789e-003 -1.14477826e-002 -4.34656888e-002
      -6.31618351e-002 -3.94317433e-002 -2.17939205e-002
      -2.32320791e-003 4.04406339e-003 4.98464592e-002 -3.35977576e-003
      1.78234670e-002 2.54517477e-002 -1.38533460e-002 -3.34617011e-002
      -9.87389032e-003 1.44741246e-002 4.01482210e-002 3.47702615e-002
      7.82351755e-003 7.43163470e-003 -7.37481611e-003 -3.75077203e-002
      -1.81956757e-002 -2.01974586e-002 -6.08418090e-003 7.28358096e-003
      3.13707441e-002 -2.78539993e-002 -2.52539217e-002 -4.48055081e-002
      -2.39556488e-002 3.36155854e-002 1.88980233e-002 1.41128693e-002
      1.77542921e-002 3.99810448e-002 3.74157238e-003 -2.01247595e-002
      -1.12230107e-002 9.71204787e-003 -2.37918440e-002 -1.87908635e-002
      2.34606266e-002 2.30144076e-002 1.34110209e-002 -1.64741476e-003
      -1.41253071e-002 -2.32866444e-002 -2.46437900e-002 1.08172372e-002
      1.47177586e-002 4.96850573e-002 2.07595509e-002 1.94168780e-002
      -4.56658471e-003 -5.53481281e-003 -1.65656069e-003 7.57103879e-003
      4.34501283e-003 1.48024841e-003 8.00531416e-004 -1.82193716e-003
      1.87925268e-002 -1.00292424e-002 -3.76644880e-002 -5.48232719e-003
      9.69163235e-003 1.73751134e-002 1.75176039e-002 1.18836705e-002
      3.00135352e-002 3.10106725e-002 2.17361730e-002 -2.58692224e-002
      2.03661993e-002 1.55679882e-002 -7.31446268e-003 3.36266967e-004
      -6.45549642e-003 -1.92640035e-003 8.89874622e-003 -3.19059789e-002
      -2.89510917e-002 -1.62751973e-002 -9.22040548e-003 2.66448152e-003
      1.68246194e-003 -1.04257865e-002 1.60784945e-002 3.31971720e-002
      -5.31593896e-003 -2.26490498e-002 1.86638255e-002 4.57603345e-003
      1.93278007e-002 -5.42811537e-003 -1.00270258e-002 1.66084059e-002
      -8.18880461e-003 -1.01491977e-002 -5.61788902e-002
      -1.36420401e-002 8.35387618e-004 2.37945337e-002 2.06363807e-003
      -6.07658364e-003 4.84305322e-002 1.24016579e-003 1.66448057e-002
      -1.72839724e-002 -1.72123015e-002 1.41484188e-002 -5.55797073e-004
      -1.09663680e-002 -2.21236255e-002 9.16745979e-003 -1.47603182e-002
      -4.04438935e-002 -6.52644411e-002 -1.64196435e-002 4.79274662e-003
      2.84463484e-002 3.30335051e-002 2.23144004e-003 3.76223251e-002
      -3.50583009e-002 -3.10772136e-002 -4.38850373e-002
      -2.55259080e-003 1.17135271e-002 -1.58189377e-003 -5.55868354e-003
      2.85704937e-002 5.54348854e-003 -2.62677600e-003 -4.54652385e-004
      9.27757379e-003 2.14927047e-002 1.84333883e-002 1.96212158e-003
      -1.85050387e-002 1.31556857e-002 -2.85336394e-002 -2.00374629e-002
      -1.62362289e-002 3.76785686e-003 1.90550331e-002 2.55524050e-002
      -1.99671384e-004 -4.20531054e-004 1.63684394e-002 -6.75582653e-003
      -3.07400040e-002 -7.97299016e-003 1.85320489e-002 1.82715226e-002
      1.50585808e-002 -4.64577368e-003 -1.30278082e-003 1.52588421e-002
      -2.78546754e-002 5.16549808e-005 -1.21416487e-002 1.98952835e-002
      1.73877236e-002 2.07374245e-002 -7.57011352e-003 -4.14292961e-002
      -2.34644767e-002 -1.98430493e-002 3.84634663e-003 5.56900632e-003
      1.09240320e-002 1.88737996e-002 3.18433791e-002 -1.76525023e-002
      -2.86219716e-002 -1.90982744e-002 -1.64420940e-002 5.29627921e-003
      -2.58104265e-005 -1.47167249e-002 1.95888262e-002 1.83485895e-002
      -1.07576651e-002 -3.69962901e-002 -8.09616502e-003
      -1.47273429e-002 8.29969719e-003 4.59533138e-003 2.79349796e-002
      2.07694396e-002 1.27788540e-002 -1.47460969e-002 -3.20808813e-002
      -2.12561004e-002 -1.97107885e-002 7.02643069e-004 8.76268081e-004
      1.81243196e-002 2.31304932e-002 1.08386399e-002 -1.30029311e-002
      -3.44248451e-002 -2.51211077e-002 -1.43140787e-002 9.71564651e-003
      -1.01292850e-002 -1.74618214e-002 -2.22744513e-003
      -6.11067633e-004 -2.91608591e-002 -4.60263677e-002
      -1.88422203e-002 4.04699473e-003 2.78833471e-002 2.02994682e-002
      5.00716560e-004 -1.78702716e-002 9.41915550e-006 -9.22911742e-004
      -6.66932669e-003 -2.49397773e-002 -2.27914564e-002 1.85330510e-002
      7.22978590e-003 -1.12369666e-002 -7.51170423e-003 -1.90659787e-003
      -8.46746191e-003 -1.33258030e-002 -2.52430029e-002 1.43590486e-002
      2.29155086e-002 1.55605059e-002 7.61174457e-003 -1.31067755e-002
      -4.56904294e-003 -1.31735560e-002 -3.10275536e-002
      -1.33226905e-002 2.11389605e-002 2.23225113e-002 3.09072286e-002
      2.18034000e-003 -9.55598615e-003 1.68715492e-002 -2.65321266e-002
      -5.17265201e-002 -4.38885503e-002 5.19983005e-004 1.22239180e-002
      -9.17527452e-003 -8.55606049e-003 -6.97295414e-003
      -2.91034952e-003 -2.52711191e-003 -3.26172337e-002
      -2.82537788e-002 3.64994220e-002 2.82432958e-002 3.38885114e-002
      1.22166798e-002 2.34249630e-004 2.25461982e-002 -9.36455745e-003
      -5.00633381e-002 -2.53470298e-002 1.69438217e-002 2.36058645e-002
      2.06119455e-002 6.84202788e-003 -1.03051309e-002 9.13435288e-005
      -2.01581456e-002 -5.08534610e-002 -2.48447675e-002 1.15966992e-002
      -1.42275926e-003 -3.25947744e-003 1.57853216e-002 4.41923412e-003
      2.24397262e-003 -1.40071260e-002 -6.03774637e-002 -3.54737379e-002
      -2.06432957e-002 -3.59441526e-002 -4.32623811e-002 7.42152939e-003
      6.56453799e-003 2.24558469e-002 4.37618466e-003 -4.36724573e-002
      -8.36638734e-003 4.55622301e-002 3.64060663e-002 3.04420535e-002
      1.28548080e-002 -4.18890687e-003 2.10636128e-002 -1.02434622e-003
      -5.24588078e-002 -1.72472857e-002 3.45663391e-002 1.05838487e-002
      -8.96030292e-003 7.44093349e-003 1.17403436e-002 1.42977610e-002
      1.44312745e-002 -3.82508375e-002 -1.25193549e-002 -2.51128096e-002
      -2.64282897e-002 -2.99695898e-002 8.48753192e-003 2.37112306e-002
      4.00892757e-002 4.56493674e-003 -1.92513242e-002 1.53490517e-003
      -1.38163343e-002 -2.84348000e-002 -3.41194496e-002
      -1.07530896e-002 1.01764256e-003 1.92830637e-002 6.56554569e-003
      -4.63133119e-002 -1.34919174e-002 7.84245972e-003 -1.18870405e-004
      -2.01764256e-002 2.04462074e-002 2.31297631e-002 3.71375680e-002
      4.57604276e-003 -3.97433490e-002 -2.34317072e-002 1.00907544e-002
      -2.54027098e-002 -2.79362593e-002 8.91579315e-003 1.82610785e-003
      1.83092188e-002 5.41083142e-003 -9.41488706e-003 2.12702192e-002
      3.26611428e-003 -8.57107341e-003 -3.70129198e-002 -1.29642794e-002
      -1.43247293e-002 8.57007690e-003 -6.18600380e-003 -1.51667725e-002
      2.12929538e-003 -2.13394165e-002 -1.54793402e-002 -2.76617110e-002
      -1.79100095e-003 -3.66283488e-003 1.24600604e-002 -1.82650704e-003
      -4.14858796e-002 -1.17627308e-002 5.66224521e-003 6.78254524e-003
      -1.28422249e-002 -8.31617694e-003 -8.27466231e-003 7.04211462e-003
      -1.69797204e-002 -3.28795165e-002 -2.89211608e-002
      -3.16116363e-002 -2.73435772e-003 2.97679635e-005 -4.73193172e-003
      8.17779824e-003 9.24397632e-003 -2.43003033e-002 -2.57605296e-002
      -1.23245493e-002 -2.84684300e-002 -2.70819641e-003
      -1.65140349e-002 1.96495233e-003 9.98401549e-003 -2.46494589e-003
      -1.50137926e-002 5.80806693e-004 2.51146276e-002 1.00199226e-002
      3.16228569e-002 2.96181347e-002 2.37997379e-002 3.07350717e-002
      7.65410624e-003 -3.19935866e-002 -2.47388929e-002 -3.35487425e-002
      -5.27183004e-002 -5.12595847e-003 -2.59442162e-002
      -6.75874110e-003 -5.95848600e-004 -2.17801649e-002
      -1.35261770e-002 1.49240876e-002 2.36192942e-002 -1.07993158e-002
      1.02472701e-003 -1.73154641e-002 -1.69802941e-002 -1.90602969e-002
      -1.27523663e-002 -1.91476848e-002 3.87952011e-003 1.33856302e-002
      -2.07619220e-002 -4.01600264e-003 -2.81897560e-002
      -9.27038398e-003 -3.44004435e-003 -9.21795517e-003 1.04774619e-002
      1.57977082e-002 2.10824106e-002 9.63905081e-003 8.33338406e-003
      -7.25209527e-003 2.36548018e-002 1.38385855e-002 1.13759721e-002
      -1.07933208e-002 -5.84379071e-003 3.72315617e-003 -3.09775267e-002
      -2.85983905e-002 -5.60881905e-002 -4.10033613e-002
      -3.28737237e-002 -7.97466096e-003 1.34012587e-002 2.08659675e-002
      3.52003239e-002 4.36913176e-003 -1.00703239e-002 -2.94555090e-002
      7.95356091e-003 4.87632491e-003 1.01420302e-002 -9.37546138e-003
      -1.28914732e-002 -5.35677793e-003 -1.23713976e-002 6.57057390e-003
      -1.53212631e-002 2.96824379e-003 -2.43671481e-002 1.24841637e-003
      1.71567667e-002 1.73718389e-002 2.24425979e-002 3.45705822e-002
      1.04728164e-002 -2.88366433e-002 -8.90224054e-003 -9.87637695e-003
      1.66332200e-002 -3.08274152e-003 -3.57104745e-003 9.39235836e-003
      -1.34282745e-002 -2.09171362e-002 -4.08463776e-002
      -1.99545547e-003 -1.03042619e-002 4.42322250e-003 1.56649631e-002
      2.84132790e-002 4.06389385e-002 2.64034793e-002 2.36082869e-003
      -5.55255115e-002 1.61414947e-002 6.64086873e-003 2.03843676e-002
      -1.09211644e-002 -1.68669745e-002 -1.05960751e-002 2.07371153e-002
      1.72656029e-002 -3.89344431e-002 -8.82237963e-003 -6.27655257e-003
      -1.16389198e-003 -1.16578201e-002 -3.20662037e-002 6.96994597e-003
      3.93788517e-002 3.26524749e-002 -8.75279866e-003 3.14955711e-002
      1.65952090e-002 4.77101374e-003 -3.09061870e-004 -1.30168963e-002
      1.86193381e-002 1.81466937e-002 6.78798358e-004 -6.68120235e-002
      -9.30039026e-003 -3.87056801e-003 3.41322646e-003 7.14380015e-003
      -1.54404398e-002 1.36334123e-002 1.94972511e-002 1.35629047e-002
      -3.60346995e-002 1.66851319e-002 9.88113577e-004 2.68987729e-003
      -2.38857176e-002 -3.09980642e-002 1.68955438e-002 3.18236835e-002
      5.99830635e-002 8.94311466e-004 1.67780519e-002 -2.95609725e-003
      -1.48869958e-002 -2.87773591e-002 -3.16441208e-002 1.52312033e-002
      4.35486808e-002 3.64290290e-002 1.63388010e-002 7.27204233e-003
      -1.45187750e-002 -3.77721377e-002 -2.74469517e-002
      -3.10036000e-002 -9.73839965e-003 3.71202664e-003 2.64361054e-002
      -9.46789514e-003 1.18148346e-002 -1.79209206e-002 -1.88169889e-002
      -4.39086258e-002 -5.32024726e-002 -2.36259792e-002 1.72429122e-002
      1.23085193e-002 -8.79117195e-003 -1.43048046e-002 -2.59515718e-002
      -2.51018293e-002 -3.32993567e-002 -3.01296059e-002 1.96989309e-002
      2.06011981e-002 2.45554466e-002 7.39001762e-003 2.73398380e-003
      -2.20923349e-002 -4.18874286e-002 -1.21262122e-003 7.61705404e-003
      4.55224141e-002 3.74773256e-002 4.47758846e-002 2.25626808e-002
      1.41518014e-002 -7.75337778e-003 6.27718074e-003 -2.13793926e-002
      -4.05513495e-002 -3.51741747e-003 1.27084935e-002 2.36873999e-002
      -1.85328424e-002 -8.12519435e-003 -2.61525903e-002
      -1.51199494e-002 1.15488078e-002 3.54463840e-003 2.70009954e-002
      4.59836647e-002 1.67875993e-003 -2.09137378e-003 -7.58405775e-003
      -2.57584383e-003 1.25119388e-002 -1.55793559e-002 -1.27894580e-002
      8.31197074e-004 1.82497799e-002 -4.54361131e-003 -3.74448784e-002
      -2.59299949e-002 -1.98208243e-002 3.84373916e-003 2.64727548e-002
      8.01431853e-003 5.11761988e-003 3.26907299e-002 2.31279675e-002
      -2.01263409e-002 -1.52617032e-002 5.41534554e-003 2.78925318e-002
      5.54650417e-003 -1.84809472e-002 -1.60260720e-003 1.94593444e-002
      1.29024265e-003 -4.62394767e-002 -3.22207026e-002 -1.65272411e-002
      2.66608316e-003 3.96163538e-002 1.82961114e-002 2.75409203e-002
      5.08391894e-002 6.22531772e-003 -2.65923627e-002 -2.70770141e-003
      -1.59657595e-003 3.44272181e-002 3.20044272e-002 2.69490108e-002
      5.21248952e-003 3.03766839e-002 -1.65684503e-002 -6.31648973e-002
      -6.04499616e-002 -1.30661186e-002 3.33551615e-002 4.63914312e-002
      6.31880909e-002 4.08963785e-002 5.38656972e-002 -1.25499228e-002
      -5.62230609e-002 -5.45704290e-002 8.75610765e-003 4.30073626e-002
      3.50845717e-002 2.03609932e-002 3.44105996e-002 2.91308928e-002
      -2.51199622e-002 -4.50226702e-002 -5.06910793e-002
      -2.89909411e-002 2.44209655e-002 2.48711836e-002 4.27228957e-002
      4.14057709e-002 5.46441935e-002 -2.11086106e-002 -4.72959168e-002
      -6.65556714e-002 -2.34958753e-002 2.64188573e-002 -5.38273389e-003
      2.48374738e-004 2.63221860e-002 -1.29796742e-002 -1.22658666e-002
      -1.22869145e-002 2.14026123e-002 1.66570432e-002 3.10785882e-003
      -1.24415318e-002 4.73145948e-004 3.68385836e-002 -8.13171791e-004
      6.44323742e-003 -5.55026636e-004 3.18994969e-002 1.57703254e-002
      1.41102634e-002 -1.57242324e-002 3.78209073e-003 4.85953093e-002
      -1.57282129e-002 -5.71549404e-003 -5.39433770e-003 2.24723928e-002
      -6.85275905e-003 -1.95452161e-002 -8.74456111e-003 1.91253703e-002
      4.31913286e-002 -2.67908685e-002 -1.55889336e-002 -2.57344190e-002
      1.05970008e-002 -1.67507716e-002 -1.92343025e-003 -2.63729561e-002
      -3.48389857e-002 2.89646373e-003 -5.33174444e-003 4.37418837e-003
      2.58528329e-002 3.61794904e-002 1.46467583e-002 5.15054772e-003
      1.00235920e-002 -2.14161556e-002 -2.18397155e-002 -2.89598908e-002
      -1.26676783e-002 9.05023329e-003 2.95347609e-002 1.64881106e-002
      1.73090156e-002 1.13518247e-002 -8.35058186e-003 1.30634112e-002
      -2.65740305e-002 -1.65139530e-002 5.24661504e-004 2.41099298e-002
      -3.16974986e-003 2.57280376e-002 4.34490740e-002 1.96171552e-003
      1.90934131e-003 -3.89320217e-002 -1.64725240e-002 -8.65005422e-003
      2.92650070e-002 3.65667656e-004 3.71616408e-002 1.94305256e-002
      -1.08366355e-003 -2.82070041e-002 -2.31425818e-002 1.91794410e-002
      1.99139472e-002 4.25887248e-003 4.74008126e-003 2.34837811e-002
      1.58537272e-002 -1.15887625e-002 -3.12150959e-002 -6.43169554e-003
      2.01291516e-002 2.61524599e-002 1.38392986e-003 -1.27066032e-003
      9.28502530e-003 2.27881260e-002 -1.34512577e-002 -1.07602980e-002
      -2.94888355e-002 -1.81212541e-004 -2.62828358e-003 1.69368330e-002
      1.02363313e-002 3.22754756e-002 -4.90758568e-003 -2.37762611e-002
      -1.68644059e-002 -1.24245053e-002 6.03351975e-003 -3.94944474e-003
      4.30775899e-003 5.07502677e-003 2.29138657e-002 1.83906462e-002
      -2.52153091e-002 -2.41999440e-002 3.00498102e-002 2.82248687e-002
      3.24266106e-002 1.63345821e-002 1.30233644e-002 3.29765417e-002
      -7.89187849e-003 -5.72521724e-002 -2.47131567e-002 3.56231667e-002
      3.40144411e-002 1.43519575e-002 7.82403629e-003 5.62707009e-003
      2.16314532e-002 1.18407225e-002 -4.60780552e-003 -1.20327156e-002
      8.09118431e-003 1.51975034e-002 9.93527099e-003 1.36045963e-002
      1.48403719e-002 3.23572010e-002 8.43810756e-003 -2.79345941e-002
      -1.98196471e-002 5.96016785e-003 1.16363605e-002 -1.45461550e-002
      1.48748830e-002 2.23505516e-002 4.38860767e-002 -1.52236568e-002
      -6.61516041e-002 -2.50159185e-002 5.15570939e-002 5.36212251e-002
      3.93428355e-002 6.33895257e-003 -2.30127689e-003 2.81457417e-002
      -1.22946249e-002 -6.53332770e-002 -1.95479952e-002 4.79055308e-002
      3.18877622e-002 9.45056602e-003 9.11003072e-003 1.01037621e-002
      2.95898113e-002 -4.81809780e-004 -5.21505177e-002 -6.99903863e-003
      3.05404365e-002 4.10544798e-002 9.97217651e-003 2.76987739e-002
      8.35745037e-003 2.98533812e-002 -1.27116200e-002 -4.77509722e-002
      -1.49180805e-002 3.30107994e-002 1.80722270e-002 -1.23130372e-002
      5.25712827e-003 -7.68639427e-003 3.62512246e-002 1.34135259e-003
      -3.72013152e-002 -1.52080767e-002 3.55684757e-002 1.82918273e-002
      -2.60970751e-006 1.59160364e-002 2.05097888e-002 4.58509549e-002
      -7.03320000e-003 -6.35841787e-002 -3.36594805e-002 6.99200481e-003
      4.43492876e-003 -2.37376820e-002 3.67118209e-003 7.53910979e-003
      4.03557941e-002 -1.47626502e-003 -4.21761014e-002 -8.14143382e-003
      3.57120335e-002 7.07176840e-003 -1.47928614e-002 4.55992110e-003
      8.96328827e-004 4.14857641e-002 -7.60887808e-004 -3.31459939e-002
      -1.64771900e-002 -2.55438015e-002 2.92449351e-003 -2.07713116e-002
      2.37958785e-003 -1.15770358e-003 3.41805480e-002 -8.40102031e-004
      -5.51618934e-002 -1.89461969e-002 1.48311742e-002 1.38694765e-002
      -1.24663208e-002 -1.93841457e-002 -2.26548240e-002 2.04581525e-002
      -2.44045397e-003 -1.43398959e-002 -1.01302387e-002
      -1.81478550e-004 3.92025569e-003 -1.38342176e-002 -1.55409025e-002
      -8.91502388e-003 3.19490931e-003 -5.04972972e-003 -2.19774321e-002
      -2.62539159e-003 -1.45175252e-002 -7.20504951e-003
      -5.37299505e-003 -9.48990975e-003 -1.90015621e-002 1.18723679e-002
      3.03595560e-003 7.91302789e-003 1.01774624e-002 -5.93277102e-004
      -2.66381875e-007 -1.82530098e-002 -3.48621272e-002
      -3.90543193e-002 5.68272721e-004 2.77776225e-003 -9.55055119e-004
      2.24134536e-003 -7.15326192e-003 7.99157284e-003 -5.56680933e-002
      -1.89355463e-002 -3.13445888e-002 -1.82150751e-002 2.27667820e-002
      2.62578297e-002 3.40954959e-002 -6.30888215e-004 9.88375116e-003
      -4.66291085e-002 -2.37389989e-002 -2.88160965e-002
      -2.37169256e-003 7.09274225e-003 5.04289148e-003 2.17098976e-003
      1.07017644e-002 -4.40287264e-003 -5.51518723e-002 -4.85592969e-002
      -5.42977974e-002 -1.89124793e-002 3.02509498e-002 2.33796816e-002
      2.19801394e-003 2.98997457e-003 1.67820677e-002 -4.27625924e-002
      -1.06081944e-002 -2.15440318e-002 5.06805722e-004 1.39487153e-002
      9.16698365e-004 6.21366408e-003 -2.33108345e-002 -1.34303663e-002
      -5.23257144e-002 -3.47552486e-002 -1.97744835e-002 1.05873942e-002
      2.31900886e-002 1.33276880e-002 3.46354358e-002 1.73217002e-002
      -1.28796976e-002 -1.71001330e-002 1.21273203e-002 1.32891918e-002
      3.28441449e-002 1.39500061e-002 -7.75716826e-003 -3.14800590e-002
      -4.83166911e-002 7.96576496e-004 -4.38736342e-002 -3.21961008e-003
      -9.28816106e-003 5.51544223e-003 1.52984671e-002 1.79326348e-002
      2.19488572e-002 1.86003819e-002 -6.90246746e-003 -1.66149959e-002
      2.09744908e-002 9.79146175e-003 2.27274410e-002 8.47109593e-003
      2.06543668e-003 1.80027317e-002 -6.01539668e-003 -3.65952775e-002
      -5.04386649e-002 1.70352752e-003 1.87405795e-002 2.92560663e-002
      2.44999304e-002 2.48767231e-002 4.71409336e-002 4.01846021e-002
      -2.32334286e-002 -3.68861258e-002 1.54767688e-002 3.57808955e-002
      4.22048345e-002 1.35702603e-002 1.30077768e-002 1.29058631e-002
      -2.50048150e-004 -4.95139994e-002 -5.86902760e-002
      -1.40940128e-002 5.04429592e-003 2.62771212e-002 3.61214057e-002
      4.15003933e-002 3.09316739e-002 3.05862296e-002 -4.76108938e-002
      -5.65996282e-002 1.28995758e-002 3.18221562e-002 4.59775105e-002
      5.73851075e-003 -6.79124612e-003 2.97088455e-002 2.68595088e-002
      -2.20118761e-002 -7.17568249e-002 -2.07013674e-002 9.56983306e-004
      2.52405014e-002 -1.99261098e-003 -1.70999244e-002 7.50266109e-003
      2.10980847e-002 -1.32713718e-002 -4.51872163e-002 -6.92049798e-004
      9.29097086e-003 1.29721789e-002 1.42857237e-002 1.51341828e-003
      1.61279589e-002 2.70455028e-004 -3.33627909e-002 -6.85432181e-002
      -5.80072775e-003 1.27589749e-002 3.72974426e-002 1.93855688e-002
      -4.29956010e-003 1.63000692e-002 8.58463254e-003 -1.71505157e-002
      -3.19403447e-002 1.45715745e-002 1.98870432e-002 3.09483651e-002
      -2.77064517e-002 -2.24846900e-002 -1.38098383e-002
      -2.33734474e-002 7.36626564e-003 -2.80283503e-002 1.36331713e-003
      -2.16860604e-003 1.05118484e-003 -3.50031303e-003 -3.61172333e-002
      -1.28910327e-002 -4.23960795e-004 -4.25516535e-003
      -1.15434257e-002 -4.08136984e-003 -8.47590342e-003 1.53331980e-002
      9.36056487e-003 -1.51529945e-002 -4.22877725e-003 -3.20472233e-002
      -7.91011192e-003 -1.65092833e-002 2.80541889e-002 2.17325930e-002
      2.79848073e-002 5.38442843e-003 -3.75407711e-002 -5.15151909e-003
      -2.27316767e-002 -2.44779456e-002 -2.29224097e-002 4.64422815e-002
      2.81886645e-002 3.74482945e-002 3.87310050e-003 -3.93436663e-002
      -3.72226238e-002 -1.37907201e-002 -1.34819141e-002
      -3.87624353e-002 -2.14569122e-002 -1.62183121e-002 1.44068133e-002
      3.01206540e-002 -1.02525447e-002 -7.68565433e-003 3.19885351e-002
      -2.05041338e-002 -2.50175521e-002 -9.83786304e-003
      -1.05737371e-003 3.47531326e-002 4.21838230e-003 -3.52744535e-002
      -3.68289948e-002 -2.56769937e-002 -2.02114787e-002
      -3.83162834e-002 2.09507979e-002 9.75165982e-003 2.70929039e-002
      2.18901951e-002 -2.74176034e-003 -2.29200535e-002 -1.39667066e-002
      3.15823127e-003 2.28449889e-003 1.92295220e-002 7.53543107e-003
      2.95821410e-002 1.08679133e-002 -2.54231170e-002 -2.02969052e-002
      5.17209573e-003 -3.22985672e-003 -4.94554155e-002 -1.77628398e-002
      -2.22232919e-002 1.15943067e-002 3.33166867e-002 3.07054538e-003
      2.72461344e-002 3.27468961e-002 2.33395887e-003 -3.25286537e-002
      2.29936698e-003 1.12594781e-003 3.15382071e-002 8.06076080e-003
      -3.58887389e-002 -4.48830165e-002 -1.26348501e-002
      -6.56230981e-003 -3.66238654e-002 -3.41988215e-003
      -1.98082048e-002 1.17675392e-002 3.63408700e-002 -6.20813435e-003
      -1.07832515e-004 2.07641050e-002 1.01466207e-002 -2.64551118e-002
      -1.07848796e-003 1.10995891e-002 3.79089527e-002 2.82122139e-002
      1.68083366e-002 3.54991630e-002 1.69379711e-002 -3.49301547e-002
      -3.58026214e-002 -2.57355701e-002 -1.73138583e-003 2.07508020e-002
      1.61879547e-002 1.82090420e-002 3.52151431e-002 4.81102243e-002
      -9.35074128e-003 -2.58412622e-002 -3.42865065e-002
      -6.43308274e-004 1.86119080e-002 2.53709294e-002 1.34186754e-002
      2.57912334e-002 2.04619132e-002 -2.95206700e-002 -4.45734225e-002
      -2.02278886e-002 1.12765962e-002 2.01526582e-002 1.03871096e-002
      6.27416326e-003 4.06527705e-002 5.09497300e-002 -1.66910570e-002
      -2.75674853e-002 -2.72923112e-002 6.28105970e-003 1.14971874e-002
      1.76223624e-003 1.40704745e-002 3.41199338e-002 -2.32833382e-002
      -2.69016325e-002 5.01249405e-003 2.50702891e-002 -6.63613947e-003
      -2.41216049e-002 1.36175398e-002 2.35094037e-002 4.58695367e-002
      -2.62876414e-002 -1.35726612e-002 -8.76169279e-003 1.94604206e-003
      -1.73924919e-002 -1.43473381e-002 3.89173743e-003 2.74383314e-002
      4.92594093e-002 -1.17747560e-002 -1.64910741e-002 -2.90951729e-002
      1.73873026e-002 -1.12494500e-002 -1.33234859e-002 -5.37354033e-004
      2.46742405e-002 5.00146225e-002 -1.07908463e-002 -1.11464513e-002
      -9.52532794e-003 -3.10333376e-003 -2.23414060e-002
      -2.16914751e-002 1.28226858e-002 1.15755675e-002 1.16151450e-002
      -1.60276350e-002 -4.82458714e-003 4.05048672e-003 1.66955907e-002
      -6.70835329e-003 2.46884953e-003 2.04000510e-002 -5.69852721e-003
      -9.47244174e-004 -3.42542641e-002 -1.20793562e-002 1.95442345e-002
      2.27837600e-002 -1.87658444e-002 4.97157779e-003 -5.29532647e-003
      1.74202304e-002 1.48637434e-002 -1.30590601e-002 -7.18932087e-003
      -4.17058263e-003 -1.25539340e-002 -1.34737641e-002
      -1.79531574e-002 -4.21727169e-003 1.60543411e-003 -5.36513608e-003
      -4.22471613e-002 -1.05570126e-002 -1.22141221e-003 4.14814427e-003
      -9.26004350e-003 -1.03196865e-002 1.78313833e-002 5.02308505e-003
      1.71186104e-002 -9.95526742e-003 1.97532065e-002 4.46963049e-002
      4.39478047e-002 1.09385084e-002 1.89722031e-002 -3.65115516e-003
      2.54504639e-003 1.41243227e-002 -2.51410082e-002 -1.43142499e-003
      -1.38644525e-003 2.17308961e-002 1.50047457e-002 1.75656881e-002
      -8.57307389e-003 3.53941484e-003 1.90357864e-002 -1.39052542e-002
      1.34328492e-002 2.24719681e-002 3.10022440e-002 -3.96896666e-003
      -6.43188972e-003 -3.94019205e-003 1.85363442e-002 9.69023351e-003
      -1.54771702e-002 -6.35212287e-003 -1.24673781e-004 1.48326345e-002
      -3.85932182e-003 5.14320377e-003 -2.75950588e-004 9.35411174e-003
      9.46373492e-003 -2.37789620e-002 3.80015513e-003 6.75927568e-003
      3.12867686e-002 2.72201486e-002 2.37704404e-002 1.04502672e-002
      1.41718204e-003 1.49698965e-002 -6.95702853e-003 -2.21554586e-003
      -1.68877980e-003 3.40610705e-002 2.86747944e-002 3.13920639e-002
      5.47262980e-003 1.42839337e-002 1.73935946e-002 -1.65009536e-002
      5.53458650e-003 2.01523155e-002 5.17916381e-002 2.03492343e-002
      1.73893496e-002 2.54466813e-002 1.42114311e-002 3.20838839e-002
      -1.82923104e-004 -8.61041155e-003 6.80466415e-003 3.56511176e-002
      2.70007122e-002 2.89655942e-002 -4.41973237e-003 -2.02686451e-002
      -9.64386482e-003 4.14111232e-003 2.08768472e-002 9.48550086e-003
      1.28217004e-002 1.40985474e-002 1.76766552e-002 9.71946400e-003
      -1.57801826e-002 -2.23583216e-003 -1.16577710e-003
      -3.00511997e-003 -3.90937999e-002 -2.02197619e-002
      -3.38141154e-003 2.94484310e-002 2.93165147e-002 1.57515556e-002
      1.89736523e-002 1.93551667e-002 2.20731962e-002 -7.10408576e-003
      6.13030698e-003 1.76672842e-002 3.51824909e-002 3.45352329e-002
      2.12544482e-002 3.11739873e-002 -3.73816560e-003 -3.58221307e-003
      -3.77141722e-002 5.78336651e-003 8.28608125e-003 3.51115763e-002
      1.54174641e-002 -3.61161656e-003 1.59143228e-002 3.20081152e-002
      -1.48958890e-002 -2.64732148e-002 -4.32254950e-004 9.15940572e-003
      4.52226587e-002 1.87565349e-002 -3.46948858e-003 1.15793869e-002
      -4.28917967e-002 -2.81389449e-002 -3.89199071e-002 2.13193032e-003
      3.81326186e-003 3.01046651e-002 3.65481563e-002 2.07458679e-002
      4.97092828e-002 9.40376241e-003 -8.63096118e-003 -1.29047232e-002
      2.24466790e-002 1.62901711e-002 3.37323360e-002 2.29085349e-002
      1.93483066e-002 4.31668721e-002 -2.68952455e-002 -1.41805066e-002
      -3.16745378e-002 2.92492621e-002 8.35664570e-003 1.41839311e-002
      4.88129398e-003 -7.01582711e-003 4.77367220e-003 -2.70483010e-002
      -1.93635095e-002 1.51904030e-002 1.51880058e-002 3.49070644e-003
      1.37123382e-002 -3.75572755e-003 2.22887937e-003 2.93148542e-003
      -1.01515027e-002 -9.26698372e-003 -2.20666025e-002
      -2.07595564e-002 -3.07969637e-002 -5.27039263e-003
      -2.52064387e-003 1.55495349e-004 1.45392511e-002 -7.10401963e-003
      6.07878249e-003 -3.61059653e-003 3.28870080e-002 1.55428285e-003
      1.13682160e-002 -2.10262500e-002 -1.92724564e-003 1.40364189e-002
      -8.69535201e-004 1.05242385e-002 -1.34074753e-002 -3.96962324e-003
      -1.30887646e-002 -7.33680371e-003 7.69813603e-004 -9.10988636e-003
      -4.62884130e-003 1.68246366e-002 1.07086012e-002 -3.97524349e-002
      -2.42351647e-002 -3.69750261e-002 -1.07265180e-002 3.09790429e-002
      -6.02959702e-003 -3.17735504e-003 1.48422178e-002 4.02579363e-003
      -3.11138704e-002 1.95328835e-002 5.51964203e-003 2.83608604e-002
      -3.55956294e-002 -1.41229937e-002 -1.31850189e-003 2.37851478e-002
      9.73185245e-003 -3.20633017e-002 -1.50513342e-002 -2.39835940e-002
      -1.48885483e-002 1.51581075e-002 -6.14491571e-003 1.99675467e-002
      2.25875713e-002 6.59457408e-003 -1.51101928e-002 1.49575789e-002
      2.33377283e-003 1.11010708e-002 2.30255313e-002 -1.22720385e-002
      -2.43690982e-002 -3.20746079e-002 -5.02328156e-003
      -5.71580902e-002 -1.83640281e-003 -1.19467694e-002 2.80183610e-002
      2.90943068e-002 2.14676633e-002 3.67776603e-002 1.59801431e-002
      8.04316439e-003 -2.88773198e-002 1.72268152e-002 -4.96988127e-004
      2.84375288e-002 1.32905692e-002 -1.79923419e-002 -1.26009975e-002
      -2.75245234e-002 -4.24817996e-003 -3.66174988e-002
      -1.31314546e-002 -2.00284515e-002 1.19040748e-002 1.36764487e-002
      8.74992274e-003 3.49006839e-002 2.12043859e-002 1.06664272e-002
      -2.70000305e-002 7.29266601e-003 -4.43542702e-003 9.76055302e-003
      1.03945266e-002 9.73722618e-003 2.04853881e-002 7.57129351e-003
      -1.63099729e-002 -5.65922596e-002 -3.06313788e-003
      -1.23823993e-002 1.50401909e-002 3.55629474e-002 2.21478790e-002
      1.73736587e-002 2.92825084e-002 -3.71595100e-002 -4.97354344e-002
      2.98220981e-002 1.31817674e-002 3.00168302e-002 -7.65472557e-003
      -1.73262053e-003 1.76711939e-002 -4.21798648e-003 -1.88244730e-002
      -5.07063307e-002 -6.14224191e-005 -1.82952955e-002
      -9.50848032e-003 1.05262976e-002 7.26960460e-003 1.82611085e-002
      2.06112433e-002 -3.79529223e-002 -3.97043005e-002 1.79728158e-002
      -1.03713199e-003 8.87323264e-003 8.44651926e-003 -5.79399150e-003
      -5.95077313e-003 -1.31687545e-003 -4.26253714e-002
      -6.05537742e-002 1.31291989e-002 1.23179853e-002 2.25099307e-002
      2.74024028e-002 -5.11535490e-003 1.10589629e-002 1.65967960e-002
      -3.00694327e-003 -1.27385957e-002 3.10765170e-002 3.07176132e-002
      3.57848667e-002 -2.97526969e-003 -1.53583987e-002 -1.17203016e-002
      -2.60387268e-003 -3.36949378e-002 -6.72338307e-002
      -7.04351754e-004 -2.58998410e-003 -1.66525308e-003 2.79056728e-002
      -5.06904256e-003 -6.92353258e-003 6.74452912e-003 -1.74049959e-002
      -3.16714495e-002 1.73590370e-002 2.35110149e-002 2.17000283e-002
      2.14492325e-002 -1.65619720e-002 -3.49553698e-003 -2.77921204e-002
      -2.61651725e-002 -1.95935871e-002 1.95395313e-002 2.50948612e-002
      3.28448378e-002 1.72042772e-002 -2.11286061e-002 -2.53578462e-003
      -5.37519995e-003 -3.04136015e-002 -1.14111416e-002 4.41615172e-002
      2.39093192e-002 3.96182761e-002 5.10821603e-002 2.68297084e-003
      -1.70289334e-002 -2.51521785e-002 -3.99599150e-002
      -5.94466142e-002 5.08476654e-003 2.30716988e-002 3.61913405e-002
      3.33827287e-002 2.38070570e-004 1.79093087e-003 -1.02317668e-002
      -3.82261202e-002 -2.45972294e-002 2.04711258e-002 1.45401098e-002
      4.08632979e-002 -4.71426593e-003 -3.30388881e-002 -2.82900967e-002
      -6.22002129e-003 -2.29650903e-002 -1.75596830e-002 3.84277776e-002
      5.11216279e-003 1.82658955e-002 1.12841362e-002 -1.14516839e-002
      -1.12491772e-002 -9.73205024e-004 -1.20650642e-002 1.17064631e-002
      4.72231992e-002 9.87510849e-003 2.85640080e-002 -3.77038959e-003
      -3.04282568e-002 -2.76806615e-002 -1.63333379e-002
      -2.66536158e-002 -1.62125006e-002 2.68386155e-002 -1.26451580e-002
      6.87611243e-003 7.65637122e-003 -8.33176821e-003 5.54665970e-003
      1.90550182e-002 -2.27606799e-002 -6.90640835e-003 4.97939065e-002
      -2.19154288e-003 9.62456688e-003 8.90644360e-003 -3.85331139e-002
      -3.94134857e-002 -2.81649437e-002 -2.57401932e-002 1.10483710e-002
      8.84248316e-003 -1.19290492e-002 2.13149600e-002 3.11100520e-002
      -1.81723423e-002 -1.37814432e-002 -6.48238091e-003 4.40669525e-003
      8.95954575e-003 3.10342805e-003 3.89941991e-003 4.02066372e-002
      5.66743594e-003 -1.77338161e-002 -1.39321052e-002 -9.85366572e-003
      -3.91547643e-002 -3.61623242e-002 8.47768039e-003 -5.63696958e-003
      1.34295980e-002 1.76181626e-002 -4.42579389e-003 -5.01976348e-003
      -7.05883652e-003 -8.38117115e-003 -1.24337822e-002 8.09079874e-003
      9.80795454e-003 2.50000544e-002 2.09658835e-002 -6.51582703e-003
      1.15365824e-002 4.78875171e-003 -2.57981289e-002 -1.05935968e-002
      2.95955036e-003 4.16866085e-003 1.71989091e-002 1.05702933e-002
      -1.08304585e-003 3.26015092e-002 4.97420132e-002 3.49068176e-003
      -1.14966137e-002 -1.12105226e-002 5.46335848e-003 7.47373933e-003
      -1.18556628e-002 -2.45379116e-002 -5.99188870e-003 4.06680908e-003
      -2.20773257e-002 -2.47148741e-002 7.97192380e-003 3.82757536e-003
      -6.92591444e-003 -1.59671772e-002 -1.70210432e-002
      -3.62526160e-003 4.66198809e-002 -2.43965653e-003 -2.12945472e-002
      -5.57001680e-003 -1.25967562e-002 -1.65408459e-002
      -1.43063078e-002 1.11723887e-002 3.73690464e-002 -1.10015962e-002
      1.02408361e-002 -2.44776290e-002 6.03006501e-003 -1.40765188e-002
      -1.81544758e-002 -9.57398862e-003 1.12686586e-002 2.21824478e-002
      -1.49984406e-002 -7.71871908e-003 -3.14970431e-003
      -2.38555437e-003 -2.61578374e-002 -2.72070691e-002
      -2.24968754e-002 2.70613679e-003 4.01548743e-002 6.58810511e-003
      5.41838491e-003 -3.12745050e-002 6.76874444e-003 -2.51016114e-002
      -3.52973156e-002 2.14573636e-004 2.06400603e-002 2.47324426e-002
      -6.16141479e-004 4.12063254e-003 9.20689758e-003 2.18922906e-002
      -2.96452199e-003 -1.80109888e-002 -3.16385645e-003 2.29036119e-002
      1.36062279e-002 -7.65711721e-003 -1.27483662e-002 2.12294552e-002
      8.43401253e-003 1.25086296e-003 -1.93920862e-002 -7.96926767e-003
      2.19506864e-002 5.40070422e-003 -3.37326750e-002 -1.45940110e-002
      -1.43693192e-002 3.12801218e-003 5.93676371e-003 -5.03766257e-003
      1.20368069e-002 2.55079251e-002 2.38329265e-002 -1.18548116e-002
      -2.97790803e-002 1.64602753e-002 3.46736647e-002 2.15839986e-002
      -1.43290730e-003 2.73986976e-003 1.06662633e-002 -2.54751765e-004
      -4.74522747e-002 -2.84361579e-002 -9.27627273e-003 1.44046471e-002
      4.21637064e-003 1.26893986e-002 -1.09920194e-002 8.75695050e-003
      2.04223841e-002 -2.31432933e-002 -1.03490194e-004 1.11441100e-002
      2.10133232e-002 6.84258388e-003 -5.14039816e-003 4.76850569e-003
      1.13706971e-002 1.11372937e-002 -3.57814245e-002 -1.40166599e-002
      1.16294660e-002 1.56309661e-002 1.35517335e-002 6.98408484e-003
      2.09928211e-003 9.15930141e-003 1.54358977e-002 -7.13733258e-003
      -1.01935444e-002 -4.37898422e-003 1.84167940e-002 9.83593520e-003
      1.14413099e-002 1.33234002e-002 1.76649597e-002 2.06782352e-002
      -1.54474154e-002 -3.95838032e-003 2.03172360e-002 2.38999240e-002
      2.35504340e-002 2.56433766e-002 5.67834452e-003 6.99770544e-003
      1.61111914e-002 -3.47777791e-002 -2.55648978e-002 2.74209995e-002
      4.06049006e-002 1.59444604e-002 1.35902846e-002 2.14692708e-002
      9.12715402e-003 1.81728061e-002 -1.88891664e-002 -2.66099740e-002
      -1.05732901e-003 2.94589158e-002 1.48140714e-002 3.30518112e-002
      1.03707351e-002 1.58214569e-002 2.52166223e-002 -1.62367355e-002
      -2.57933661e-002 5.33977784e-002 3.88697870e-002 1.72916837e-002
      1.95565224e-002 3.36306728e-002 1.65114626e-002 2.73148734e-002
      -2.86193304e-002 -5.02125770e-002 8.29154626e-003 2.86824033e-002
      1.65452417e-002 4.33236882e-002 2.43974626e-002 7.63206137e-003
      7.46764569e-003 -1.89938843e-002 -1.66629688e-005 7.01359054e-003
      1.52540067e-002 1.51531361e-002 3.29001993e-002 3.03652678e-002
      8.51131510e-003 2.24736389e-002 -2.56119017e-002 -3.06711551e-002
      -2.88858023e-002 1.65740345e-002 5.97563433e-003 3.12960669e-002
      3.11988126e-002 -1.23084825e-003 1.86659973e-002 -2.51263194e-002
      -2.24382058e-002 1.45841287e-002 3.67140993e-002 2.84461044e-002
      4.37529013e-002 2.93644667e-002 1.49655966e-002 2.34138742e-002
      -2.15512551e-002 -2.86222491e-002 -4.70915288e-002 1.47276316e-002
      2.30034366e-002 4.05649729e-002 3.04783490e-002 9.56072751e-003
      3.68385203e-002 1.21291755e-002 -2.64361389e-002 7.50662235e-004
      3.61571573e-002 2.05907524e-002 2.72335541e-002 7.66292308e-003
      5.91324584e-004 1.38599779e-002 -1.86218675e-002 -1.68331116e-002
      -3.36960442e-002 3.53668891e-002 -1.60686811e-003 -2.37387465e-003
      3.29552218e-002 1.88022126e-002 4.86049242e-002 3.02031357e-002
      -3.18947993e-002 -1.78329442e-002 2.28376370e-002 3.20891589e-002
      4.43119965e-002 1.85301322e-002 1.42376684e-002 2.86322162e-002
      -3.75337191e-002 -3.84640433e-002 -5.45479991e-002 1.35987429e-002
      1.15147308e-002 1.83983110e-002 -8.41587689e-003 1.25040067e-002
      1.35138677e-002 1.80083029e-002 1.38174389e-002 -3.59496218e-003
      2.13542245e-002 -7.79874204e-003 -1.49696534e-002 2.67525623e-003
      1.71052627e-002 3.61831747e-002 7.82011822e-003 -1.28436799e-003
      -4.64486983e-003 7.72437220e-003 -2.69394601e-003 -1.13235619e-002
      -7.20947701e-003 1.10967522e-002 1.48324892e-002 -1.63451303e-002
      -3.17040756e-002 -1.84752997e-002 1.82744190e-002 -5.90143632e-003
      -1.45167829e-002 8.52471858e-004 1.42976977e-002 3.41878831e-002
      -3.39013785e-002 -1.56528708e-002 6.01131329e-003 2.44430918e-002
      -2.05075201e-002 -1.50026605e-002 -2.05859262e-002
      -3.28298402e-003 2.43969075e-002 2.21399777e-002 1.73356086e-002
      -1.14843380e-002 5.81113808e-003 -2.19934918e-002 -2.10230779e-002
      -7.82681443e-003 -2.27881968e-003 3.50276269e-002 2.77541075e-002
      -1.86964846e-003 -2.34551281e-002 2.59619709e-002 -8.04367475e-003
      -5.64090302e-003 -2.04863138e-002 -1.38124004e-002 2.64284108e-002
      -6.40346436e-003 1.39841763e-002 -1.08520743e-002 1.89853627e-002
      -3.17054242e-002 -2.38473918e-002 -9.47438739e-003 4.69307555e-003
      4.57429141e-002 2.51596794e-002 8.12852662e-003 -2.07806621e-002
      2.39162873e-002 -1.29584717e-002 -2.05909107e-002 -7.92558119e-003
      -2.87507009e-002 -7.43809063e-003 -3.20184231e-002
      -6.90519018e-003 -3.35617922e-002 -9.66638443e-004
      -1.41177056e-002 -7.67596113e-003 -1.75469392e-003
      -1.07137626e-002 1.59878843e-002 1.64746791e-002 3.31938714e-002
      -8.45573563e-003 1.30015677e-002 8.87128431e-003 -2.60830345e-003
      -1.42559959e-002 -2.30804589e-002 7.27788173e-003 -2.56383289e-002
      -3.52312089e-003 -4.62537184e-002 5.63950511e-003 -3.19585502e-002
      -3.29781026e-002 -1.36731416e-002 -2.59868451e-003 2.31097750e-002
      1.88357979e-002 1.39000658e-002 -2.97276862e-002 1.36187831e-002
      -1.63867902e-002 -1.56248147e-002 -7.91688729e-003
      -2.87422584e-003 1.11432085e-002 3.67254228e-003 -7.00264238e-003
      -4.91577648e-002 4.62619937e-004 -1.48275634e-003 -7.59365922e-003
      3.51203699e-003 9.77609493e-003 2.40297634e-002 5.23594134e-002
      -2.36571953e-002 -2.37731822e-002 1.94363650e-002 5.87067427e-003
      1.06956251e-002 -1.54788373e-002 -1.08769806e-002 1.21456049e-002
      6.91769505e-003 -3.86871467e-003 -4.61920165e-002 -1.38370378e-003
      -1.33826984e-002 -1.68637596e-002 -1.48795766e-003 5.29890787e-003
      3.49163525e-002 4.60507646e-002 -1.71291288e-002 -2.56446041e-002
      2.08766554e-002 1.15554025e-002 5.08688670e-003 9.47370473e-003
      1.17456345e-002 2.04256028e-002 2.59121191e-002 -3.18024345e-002
      -4.26985174e-002 -1.01242987e-002 -1.48676673e-003 1.37635628e-002
      4.70546447e-002 1.29829552e-002 1.14793992e-002 1.58926286e-002
      -1.91968679e-002 -3.04554868e-003 2.15987619e-002 2.57526375e-002
      3.95249575e-002 -1.07502723e-002 7.47958105e-003 2.74459906e-002
      8.40771711e-004 -3.87520455e-002 -6.35826811e-002 -1.08869560e-002
      -1.69155339e-003 -1.01077440e-003 1.14046941e-002 1.94686148e-002
      1.68720372e-002 -1.55480877e-002 -2.99600437e-002 -1.31283998e-002
      2.75543258e-002 1.91322323e-002 8.16110335e-003 5.78911416e-002
      1.45867039e-002 -1.27436612e-002 -3.26370038e-002 -4.39629443e-002
      -2.95656528e-002 1.50733041e-002 2.55668517e-002 5.54531626e-002
      4.86575589e-002 2.01559849e-002 1.04328580e-002 -1.33898593e-002
      -3.56443152e-002 1.74825755e-003 2.28598211e-002 1.10330740e-002
      4.16077673e-002 2.56243870e-002 1.55002968e-002 -5.47496427e-004
      -3.87930572e-002 -4.97051142e-002 -2.99304239e-002 1.09952940e-002
      7.31000863e-003 1.92360207e-002 2.99738199e-002 1.95685104e-002
      2.39667948e-002 1.04388660e-002 -3.14134918e-002 3.07892505e-002
      2.53355335e-002 1.58672985e-002 2.80072521e-002 8.19400605e-003
      -1.57273263e-002 -1.72095634e-002 -2.07666997e-002
      -2.63829269e-002 -8.25477857e-003 8.17950815e-003 -1.48353120e-002
      4.87108016e-003 -1.79928634e-003 -1.53697347e-002 7.58396043e-003
      3.49880606e-002 -4.43090172e-003 -2.01116726e-002 1.50801335e-002
      -7.93377683e-003 3.80626973e-003 1.21947099e-002 -2.64086691e-003
      -1.07077332e-002 1.35607626e-002 -1.27783241e-002 3.11766448e-003
      1.19972173e-002 -1.62054585e-005 1.34619772e-002 1.33397011e-002
      5.07397018e-003 2.53787823e-003 1.33028282e-002 -1.42794475e-002
      -1.68386251e-002 2.54810173e-002 1.35826143e-002 1.74608529e-002
      1.42487530e-002 -1.66109931e-002 -1.19771566e-002 -6.25145109e-003
      -1.99123379e-002 -3.47680673e-002 -6.06678659e-003
      -2.84253550e-003 1.84775386e-002 1.96805876e-002 -1.82285090e-003
      -1.05581852e-002 8.01345054e-003 -6.97561214e-003 -1.69844907e-002
      4.05326672e-003 1.75757147e-002 3.33680995e-002 1.84232239e-002
      3.59107624e-003 -6.13571843e-003 -2.94343214e-002 -2.58681905e-002
      -2.61718333e-002 -3.61424778e-003 -3.31463234e-005 1.57560259e-002
      3.40624601e-002 1.32761328e-002 -2.83325696e-003 3.59568093e-003
      -1.22960936e-002 -7.28083169e-003 7.10485270e-003 1.16522945e-002
      3.28671187e-002 -8.01960006e-003 -1.73217766e-002 -1.80012174e-002
      7.47686997e-003 -2.15267148e-002 -1.45973349e-002 2.68924725e-003
      -5.70308650e-004 -5.09355403e-003 -1.18410951e-002
      -1.12403287e-002 -2.45502219e-002 2.71753184e-002 7.41998758e-003
      -2.02389322e-002 -3.70302121e-003 -2.51005567e-003
      -2.16431227e-002 1.08846016e-002 8.82192329e-003 -1.87063627e-002
      2.47577913e-002 -1.41361961e-002 -6.50575571e-003 -2.43233563e-003
      1.17609976e-003 1.38516063e-002 -1.03972398e-003 6.76513230e-003
      -1.22929141e-002 3.43000814e-002 1.74438413e-002 -8.66652932e-003
      -1.15581611e-002 -5.96528454e-003 -5.94165130e-003
      -1.18186120e-002 1.38451690e-002 4.95460294e-002 2.19591763e-002
      2.73232465e-003 -9.44371521e-003 2.29827240e-002 -5.11878915e-003
      -2.17088219e-002 -4.76235058e-003 1.41840642e-002 3.25170457e-002
      -1.24881242e-003 6.33608690e-003 1.65012591e-002 3.58733386e-002
      1.00552002e-002 -5.29113133e-003 -2.65981201e-002 -1.83545984e-002
      3.58333662e-002 7.50783086e-003 1.02027878e-002 -2.58192495e-002
      3.85279618e-002 -1.68458186e-002 -2.12164056e-002 -1.21573415e-002
      -1.38426470e-002 3.06389928e-002 -4.12730221e-003 9.26411897e-003
      -2.07201596e-002 2.35962253e-002 -2.44945791e-002 -1.19448258e-002
      5.62339649e-003 7.46842241e-003 1.79975536e-002 -3.07523296e-003
      -1.12806642e-002 1.80762429e-002 3.64059731e-002 2.03017145e-002
      -6.77700713e-003 -4.24071820e-003 9.43145156e-003 6.41922373e-003
      -1.10168839e-002 -2.07771100e-002 -1.80808327e-003 1.76247489e-002
      -2.98686652e-003 6.54758047e-003 4.79177525e-003 -5.40066091e-003
      1.40996817e-002 -6.82113087e-003 -1.59519874e-002 -2.04041060e-002
      4.66905348e-003 -5.60360588e-003 -5.70316426e-003 -5.44898864e-003
      3.79394507e-003 1.66518241e-002 4.43653204e-003 -1.03258742e-002
      -2.69694254e-002 7.43085425e-003 -9.08842869e-003 2.16776691e-003
      -1.04411982e-003 9.00292117e-003 1.81005560e-002 1.09833758e-002
      -1.40185989e-002 -1.54369818e-002 1.81786623e-002 1.92340335e-003
      -4.91610123e-003 -4.69588442e-003 1.22061819e-002 2.00417861e-002
      -6.14993228e-003 -1.87740251e-002 5.53588057e-003 2.24094652e-002
      1.79047347e-003 -3.78454872e-003 5.49000967e-003 1.57179590e-002
      3.64448503e-002 5.93103375e-003 -1.55236730e-002 -1.79380793e-002
      3.61878127e-002 -2.31418316e-003 2.77561019e-003 6.13194564e-003
      1.44409146e-002 3.83668579e-002 -1.14104236e-002 -2.32613944e-002
      3.09175788e-003 3.15889455e-002 -9.44140647e-003 -6.80787023e-003
      1.07905921e-002 1.19399000e-002 2.25985479e-002 -4.47918009e-003
      -2.75823511e-002 2.59085763e-002 3.64776812e-002 1.75257791e-002
      9.99419857e-003 1.65911838e-002 7.79389357e-003 1.83855910e-002
      -1.96113195e-002 -3.79997864e-002 9.17959586e-003 2.14792043e-002
      1.40861757e-002 2.62423959e-002 2.44342145e-002 2.85401680e-002
      3.31838913e-002 -1.15943495e-002 -4.85269278e-002 5.23711881e-003
      3.39162014e-002 7.47090299e-003 1.09694665e-002 2.75249705e-002
      1.53674176e-002 2.11118385e-002 -2.24906430e-002 -3.27157043e-002
      -4.82595433e-003 4.47891699e-003 1.22708589e-005 2.13749167e-002
      2.98246350e-002 7.71697331e-003 2.24163160e-002 -1.03379888e-002
      -1.63073204e-002 1.41402893e-002 2.94611175e-002 2.13557854e-002
      2.86824293e-002 4.04281504e-002 1.88874640e-002 3.06200869e-002
      -1.01368008e-002 -4.56755459e-002 -3.33159901e-002 1.18292114e-002
      1.99176520e-002 4.23162356e-002 1.80778634e-002 1.03751551e-002
      2.96908505e-002 -1.46072975e-003 -1.87663455e-002 -9.95963905e-003
      1.83873307e-002 7.79549032e-003 1.71691813e-002 2.13856474e-002
      3.11815506e-003 2.41830293e-002 -2.62831282e-002 -3.56568620e-002
      -4.09999788e-002 5.78365568e-003 7.16124987e-003 3.13020386e-002
      2.78126728e-002 1.34530803e-002 4.34106141e-002 2.83249542e-002
      -2.24382263e-002 -1.12340478e-002 1.84288956e-002 1.86274927e-002
      3.94779369e-002 1.99325942e-003 -1.57503982e-003 1.83752310e-002
      -1.11968219e-002 -3.94439735e-002 -5.11187166e-002 1.65516615e-003
      5.92999905e-003 2.33748015e-002 1.44063793e-002 -6.25099707e-003
      2.75683682e-002 1.06288930e-002 -9.72298719e-003 -2.29238905e-003
      2.86819749e-002 4.45605256e-003 2.78598331e-002 -2.11943723e-002
      -2.80923136e-002 -1.56486314e-003 -3.07276603e-002
      -2.15899907e-002 -3.39442939e-002 1.60343926e-002 -3.82367725e-004
      7.53808301e-003 -1.21356286e-002 6.03344291e-003 1.15576703e-002
      -9.19775106e-004 -8.54958128e-003 -7.82433059e-003 1.74154155e-002
      2.11558631e-003 4.83301654e-003 -6.23242883e-003 5.24604041e-003
      2.28475295e-002 -2.31687836e-002 -2.30194107e-002 6.89454749e-003
      3.48973833e-002 -9.37154109e-004 5.98399388e-003 -2.50115283e-002
      -9.18376911e-003 1.96569357e-002 1.01543572e-002 -9.98082664e-003
      -2.59218384e-002 9.56464559e-003 -9.58835892e-003 -7.66560109e-003
      -2.44048070e-002 -1.00295162e-002 2.64866836e-002 2.49098311e-003
      -1.97499003e-002 -3.17970514e-002 3.51388007e-002 9.97839496e-003
      1.28774135e-003 -6.04762509e-003 -7.69191934e-003 1.82383265e-002
      4.58303979e-003 -1.47038326e-002 -2.26043910e-002 1.91379022e-002
      -1.91285331e-002 -9.46382713e-003 -8.67351051e-003
      -5.10018086e-003 4.13984321e-002 3.48458551e-002 7.30385305e-003
      -2.11288109e-002 3.41297239e-002 -1.05735939e-003 -7.49311456e-003
      -2.76911091e-002 -2.58639492e-002 -8.35339888e-005
      -1.47086484e-002 -1.45988809e-002 -6.06755316e-002 2.43452918e-002
      1.58647518e-003 -1.16609670e-002 -8.44131224e-003 -7.76174618e-003
      5.63559495e-002 2.08110549e-002 -9.96896904e-003 -2.68182103e-002
      4.11384590e-002 6.08382933e-003 6.47445535e-003 -1.46087967e-002
      -1.33679090e-002 3.03076245e-002 -7.75901508e-003 -1.01213893e-002
      -4.00948077e-002 1.86131708e-002 -1.47655932e-002 -1.55076338e-002
      -2.02207942e-003 -2.24999315e-003 3.33443880e-002 2.84304991e-002
      -8.66078772e-003 -7.92472437e-003 3.78517620e-002 6.84257364e-004
      -6.65889645e-004 -2.32499465e-002 -8.79142247e-003 4.63055894e-002
      -6.74111024e-003 -2.04973370e-002 -3.63081098e-002 1.60191357e-002
      -2.63255965e-002 -8.53654370e-003 2.43254751e-003 6.03174092e-003
      2.39720978e-002 2.98466277e-003 -3.09167448e-002 -1.51700135e-002
      5.44298477e-002 1.19163198e-002 8.58752057e-003 -7.06480211e-003
      -3.44044180e-003 1.03092697e-002 6.32858928e-003 -3.42997015e-002
      -3.42844203e-002 1.64230745e-002 -2.23467848e-003 1.36789546e-004
      4.20275424e-003 2.04385966e-002 5.15212044e-002 4.03023772e-002
      -1.78809706e-002 -1.69121977e-002 1.18452022e-002 2.33770837e-003
      1.70303434e-002 -5.49899323e-006 4.93380614e-003 1.60351712e-002
      -9.83940531e-003 -3.99144553e-002 -4.27460298e-002 3.06122545e-002
      1.59224700e-002 5.63137932e-003 6.49986928e-003 3.34528349e-002
      5.63334785e-002 4.07335125e-002 -1.84367616e-002 -1.28515605e-002
      2.14181729e-002 2.01513078e-002 1.59509387e-002 1.85375218e-003
      1.66598745e-002 4.29293960e-002 -3.71186587e-004 -4.96658161e-002
      -6.23088293e-002 3.35229619e-004 -1.52595551e-003 1.51862670e-002
      1.90607626e-002 2.15273369e-002 2.65253149e-002 -1.39402617e-002
      -4.00802940e-002 -2.20358875e-002 2.43528225e-002 1.99847873e-002
      1.76350027e-002 1.12137469e-002 2.02665050e-002 4.32015918e-002
      3.56836012e-003 -1.15425307e-002 -2.26592589e-002 1.44807128e-002
      1.08262822e-002 1.02654202e-002 3.29201482e-002 1.80859976e-002
      2.77593657e-002 2.19951221e-003 -1.49604985e-002 1.18673583e-002
      3.65527272e-002 2.52857506e-002 2.96044145e-002 2.02987753e-002
      2.08482519e-002 -1.33752963e-003 -5.21589853e-002 -6.06225133e-002
      -4.72297259e-002 8.02188460e-003 7.76098529e-003 5.61238732e-003
      2.45977864e-002 1.87671725e-002 2.39193235e-002 1.98286865e-002
      -3.23217027e-002 2.64303163e-002 2.66227182e-002 1.59897041e-002
      1.74031593e-002 2.61600763e-002 2.58301795e-002 7.56707322e-003
      -3.11511122e-002 -4.87471223e-002 -1.42478263e-002 2.18457170e-002
      5.96270198e-003 1.61172915e-002 2.01703347e-002 3.57824415e-002
      2.63127927e-002 1.71568766e-002 -3.62648591e-002 3.34514789e-002
      2.99709048e-002 6.55144872e-003 1.56509057e-002 6.50888169e-003
      -5.00559341e-003 -6.88218558e-003 1.06318798e-002 -2.49801930e-002
      1.40173174e-002 2.25978345e-003 -1.13426717e-002 -5.27558150e-003
      7.72086112e-003 9.26441327e-003 7.09792739e-003 1.43442387e-002
      -2.24221852e-002 -1.09386561e-003 2.13044230e-002 9.34769027e-003
      4.03710455e-003 -3.01353959e-003 5.71992062e-003 -2.35793064e-003
      2.09993944e-002 -2.67854352e-002 9.59747657e-003 -8.63308925e-003
      -2.71378588e-002 -1.00260042e-002 1.05385315e-002 9.31943674e-003
      3.49312974e-003 1.33304186e-002 -2.13046242e-002 -5.50871156e-003
      1.27671249e-002 -1.24907517e-003 1.60081766e-003 9.94773116e-003
      8.89119599e-003 1.16876466e-003 -1.28791351e-002 -1.56832151e-002
      -3.90302986e-002 8.97254329e-004 -3.85805988e-003 -7.20077078e-004
      3.16325985e-002 1.37431100e-002 4.23347345e-003 1.07799396e-002
      6.80640852e-003 -1.29208795e-003 2.98612434e-002 1.19222282e-002
      2.48431396e-002 1.32937627e-002 -2.45401124e-003 -1.01728830e-002
      -9.12108272e-003 -1.76451430e-002 -2.22553499e-002
      -9.31628048e-003 -1.56766269e-002 2.65337713e-003 1.14497812e-002
      -1.23125194e-002 4.47038608e-003 1.06950710e-002 -6.50014402e-003
      -6.98278332e-003 7.06831412e-003 5.35408640e-003 1.90221556e-002
      1.10285906e-002 2.96944589e-003 -1.12748388e-002 2.72553191e-002
      -5.71539858e-003 -1.38704665e-002 6.05228031e-003 -3.01224017e-003
      1.89800914e-002 -5.49406325e-003 -3.02356062e-003 -1.18220476e-002
      3.19567472e-002 7.62907835e-003 -2.32744850e-002 -6.11630920e-003
      9.42065753e-003 1.30032962e-002 -1.07649304e-002 -3.08115818e-002
      -2.74037439e-002 -2.10683467e-003 -7.94053543e-003
      -2.51544155e-002 7.39383372e-003 3.77823599e-003 6.57982798e-003
      -4.57204040e-003 -1.62772276e-002 -1.16015514e-002 1.39856441e-002
      -2.33323057e-003 -1.62613839e-002 2.04288540e-003 1.37607539e-002
      1.68268885e-002 -4.97803576e-002 -1.93033628e-002 2.77277436e-002
      -9.67804622e-003 1.31540373e-002 -2.10069437e-002 2.88862586e-002
      -1.03453565e-002 -3.04025523e-002 -1.07523501e-002
      -7.14511471e-003 2.71529537e-002 1.74604766e-002 2.51084920e-002
      -8.02620966e-003 2.00177655e-002 -3.46887647e-003 -1.43321455e-002
      -1.89612173e-002 1.04438886e-003 3.18347365e-002 -1.30557325e-002
      -1.76976912e-003 -2.93307193e-002 3.37349288e-002 1.47105884e-002
      -2.10232679e-002 -2.11608224e-002 6.39452878e-003 3.39883976e-002
      9.33267002e-004 1.66560877e-002 -1.30754402e-002 4.13265675e-002
      2.25271247e-002 -1.57066043e-002 -3.89768207e-003 -2.31198827e-003
      1.39021743e-002 1.46156875e-002 -4.35893796e-003 -1.67493280e-002
      -3.05891898e-003 -6.71069510e-003 -7.90589768e-003
      -3.37788067e-003 3.08506744e-004 1.65929012e-002 6.61175605e-003
      -2.74397782e-003 -2.75510978e-002 6.25929423e-003 -9.68446024e-003
      -7.92497676e-003 -2.59631071e-002 -6.96633058e-003 8.45037028e-003
      3.81870102e-003 -8.90490774e-004 -2.31182538e-002 2.12538727e-002
      1.29005956e-002 -1.38406483e-002 -1.38465548e-002 -9.27074160e-003
      2.50208508e-002 4.59575653e-003 2.34299828e-003 -2.49599256e-002
      2.74518337e-002 -5.57500811e-004 -1.40890805e-002 1.11281211e-002
      1.14307348e-002 2.76873652e-002 7.39612442e-004 -2.63138991e-002
      -1.55634023e-002 2.69769281e-002 -6.84278493e-004 1.29269548e-002
      2.19016410e-002 2.28787176e-002 4.76234071e-002 -4.62070899e-003
      -2.03695465e-002 -1.12779196e-002 1.66237466e-002 -1.25070084e-002
      1.75379850e-002 -9.94450413e-003 6.29617972e-003 3.19102667e-002
      1.56039055e-002 -8.46795645e-003 -1.57660283e-002 3.00969891e-002
      -1.65022425e-002 -1.06403129e-002 1.45484125e-002 2.11318117e-002
      2.14290153e-002 -4.06479323e-003 -2.82942355e-002 -2.97243539e-002
      5.11874771e-003 -1.31997280e-002 7.86625955e-004 3.19018923e-002
      3.79711166e-002 3.87654081e-002 2.17292435e-003 -6.78519309e-002
      -3.19306878e-003 2.22038049e-002 4.54012974e-004 1.34998895e-002
      3.16292681e-002 3.62841412e-002 3.70612927e-002 -5.01561584e-003
      -3.37653793e-002 -1.61431860e-002 3.47371788e-005 2.10480695e-003
      1.83131173e-002 2.42718551e-002 2.89546438e-002 2.61972677e-002
      5.61608933e-004 -6.64692968e-002 -2.81554013e-002 1.32799586e-002
      -1.03159510e-002 9.46955662e-003 2.05947291e-002 2.10098531e-002
      4.19390053e-002 -1.92960631e-003 -2.59396024e-002 -3.68227810e-002
      1.75339822e-002 6.48147147e-003 1.47068221e-002 1.79892462e-002
      1.97521783e-002 2.90317181e-002 1.68818701e-002 -1.31867211e-002
      1.25888828e-003 1.83336176e-002 8.85609537e-003 1.66182518e-002
      2.02686079e-002 -3.62681644e-003 8.19084514e-003 -3.68418097e-002
      -3.31175700e-002 -2.10564788e-002 8.40215664e-003 -5.41830016e-003
      2.28770878e-002 8.70569143e-003 7.52364798e-003 3.12724225e-002
      1.42849898e-002 -9.94286127e-003 -1.18771959e-002 2.24498194e-002
      1.12451147e-002 5.71032101e-003 1.86035186e-002 1.07192015e-002
      7.98050780e-003 -7.24151731e-003 -1.80845857e-002 -2.45032813e-002
      -5.09421574e-003 -6.02134154e-004 1.91688910e-002 2.34766118e-002
      -3.71858099e-004 2.53654420e-002 7.33364606e-003 -1.31334513e-002
      1.47538520e-002 3.83234881e-002 7.00733345e-003 2.26956978e-002
      2.30710721e-003 -9.91683453e-003 1.83572751e-002 -2.52650548e-002
      -2.13066414e-002 -1.14763556e-002 2.08296310e-002 -1.49205944e-003
      -1.97840214e-004 2.27222536e-002 1.53058432e-002 2.63023246e-002
      1.99280456e-002 -1.17612341e-002 2.02420503e-002 2.13119425e-002
      1.05710989e-002 2.06019077e-002 5.74284093e-003 6.80369837e-003
      1.82833914e-002 -2.45044064e-002 -1.60485767e-002 -4.78713065e-002
      1.50247607e-002 6.90590008e-004 2.04957114e-003 -1.56850889e-002
      2.63332366e-003 3.40633877e-002 2.00574230e-002 -7.40297430e-004
      -5.49467420e-003 1.07976133e-002 -1.25237918e-002 -2.00045686e-002
      -2.51981523e-002 -7.54248910e-003 3.47394757e-002 2.17248723e-002
      -7.96116423e-003 -2.30777729e-002 3.67612019e-002 5.60027733e-003
      -9.73897800e-003 -1.17026018e-002 1.24172855e-003 2.49494594e-002
      8.73808749e-003 1.28684472e-002 -8.47153552e-003 2.09464561e-002
      -7.25637982e-003 9.98461386e-004 -6.07116288e-003 4.76724934e-003
      3.37784067e-002 2.11765920e-003 -1.36704640e-002 -3.46830785e-002
      2.92140301e-002 3.79442004e-003 8.64140282e-004 -2.15894934e-002
      -2.57205162e-002 2.92051048e-003 -1.51794842e-002 -1.65815670e-002
      -2.88159698e-002 3.04069743e-002 9.48588364e-003 -1.33832144e-002
      -3.16370465e-003 -8.47186195e-004 3.41042355e-002 1.01386886e-002
      -2.10309736e-002 -1.76611319e-002 5.75155802e-002 3.14153954e-002
      1.44694271e-002 -9.92138870e-003 -1.16900234e-002 2.67484318e-003
      -3.38947847e-002 -1.42417103e-002 -3.60654667e-002 2.03634277e-002
      5.12696977e-004 -4.95019183e-003 1.11610675e-003 9.02126357e-003
      3.58954296e-002 -1.78253260e-002 -2.83567235e-002 1.00140031e-002
      4.52810749e-002 1.64253414e-002 9.70713422e-003 -1.40560167e-002
      5.33513352e-003 5.04328422e-002 -2.05448605e-002 -4.26796414e-002
      -4.18169424e-002 2.52571255e-002 -6.89921016e-003 -9.75839157e-006
      1.11407088e-002 1.67784207e-002 4.85287979e-002 -1.14166671e-002
      -4.15504314e-002 -8.55708402e-003 5.82240149e-002 1.08503290e-002
      2.21809056e-002 -1.68190862e-003 -6.18897611e-004 3.45853977e-002
      -5.31124473e-002 -5.29929809e-002 -3.36247645e-002 2.01527718e-002
      5.12277987e-003 6.87642081e-004 1.44028720e-002 1.22733423e-002
      4.89929877e-002 -1.94028020e-002 -3.04755252e-002 -3.72077781e-003
      4.48858440e-002 1.41659575e-002 2.88067553e-002 -4.70033527e-004
      1.18614349e-003 5.16336085e-003 -3.98578905e-002 -5.57790324e-002
      -4.68475968e-002 2.61177607e-002 1.41322874e-002 1.18281478e-002
      8.39305576e-003 1.14720436e-002 3.12458929e-002 4.01490293e-002
      -2.60946210e-002 1.72845777e-002 1.90207176e-002 1.70017667e-002
      1.43345837e-002 -9.53222346e-003 -1.38584515e-002 -1.62586290e-002
      -3.63712981e-002 -3.91673967e-002 -4.72782217e-002 2.41669733e-002
      1.02360407e-002 7.01608369e-003 1.44682415e-002 1.68118048e-002
      2.35982444e-002 1.79437697e-002 -3.03322710e-002 1.80030502e-002
      4.50622328e-002 2.55682766e-002 9.43746418e-003 -6.74335519e-003
      2.48005264e-003 8.79473798e-003 -7.18204211e-003 -6.28386736e-002
      -4.57923673e-003 -4.02420852e-003 -3.60123464e-003
      -8.25124513e-003 3.90939415e-003 1.54408265e-003 1.44700166e-002
      1.80632714e-002 -3.07879038e-002 2.79192459e-002 1.68928504e-002
      1.05905337e-002 4.45303787e-003 1.41211310e-002 2.03701295e-002
      2.21815985e-002 -1.90977361e-002 -5.85252419e-002 -6.78957487e-003
      2.34051142e-002 1.82764195e-002 9.64072812e-003 2.28595100e-002
      2.63003651e-002 4.25563157e-002 1.37873637e-002 -3.96993011e-002
      9.42587852e-003 2.75708213e-002 1.63979921e-002 2.71453280e-002
      5.60046546e-003 1.03155263e-002 1.31456405e-002 -2.54570395e-002
      -5.32545559e-002 -2.79622506e-002 1.08645577e-002 4.93226619e-003
      9.04912595e-003 6.15700055e-003 2.50451714e-002 2.33291183e-002
      9.28196299e-004 -4.13268395e-002 1.41795268e-002 1.57242883e-002
      1.16110826e-002 1.35380598e-002 3.35642206e-003 6.85377466e-003
      2.26054657e-002 -1.78548265e-002 -4.93299142e-002 -2.74343379e-002
      -1.84073504e-002 -2.21241615e-003 7.49915186e-003 5.90320956e-003
      3.67069035e-003 3.59545201e-002 3.34248058e-002 -2.95859445e-002
      9.15866625e-003 -8.64029105e-004 2.92741437e-003 1.11855939e-002
      -3.90517595e-003 5.52070979e-003 -1.01962145e-002 1.54280132e-002
      -3.95127535e-002 -4.41203685e-003 -9.54563729e-003
      -2.09947545e-002 -3.42090335e-003 1.85573660e-002 2.76571745e-003
      -1.43696684e-002 1.95309799e-002 -3.15445848e-002 -1.23584988e-002
      8.27187859e-003 -9.03402455e-003 9.49045643e-003 -1.42035904e-004
      -8.16231966e-003 8.53982661e-003 4.02693897e-002 -4.52949703e-002
      -6.50905864e-003 -8.47515836e-003 -5.80528751e-003
      -1.45343668e-003 2.32712217e-002 1.64835546e-002 1.19518219e-002
      3.90226208e-002 -3.16971540e-002 1.43306777e-002 2.73864549e-002
      7.28891883e-003 9.23763774e-003 2.01213285e-002 -2.43595243e-003
      -2.52190921e-002 -1.20768156e-002 -3.51084583e-002
      -1.29288640e-002 -1.28270499e-002 -1.22444797e-002 1.49799529e-002
      1.68956518e-002 -7.07427971e-003 -1.74792425e-003 1.24250702e-003
      -2.47255750e-002 -3.34415142e-003 -6.02176506e-003 6.92366669e-003
      2.74440758e-002 1.12073263e-002 1.40520697e-003 -1.09986663e-002
      6.07421109e-003 -3.06813549e-002 9.13543906e-003 1.07971570e-002
      1.86584401e-003 1.07420282e-002 1.55093074e-002 1.50698628e-002
      2.60058814e-003 2.52694986e-003 -1.20744370e-002 6.76090596e-003
      7.16209551e-003 2.01188726e-003 2.50449497e-002 9.71134345e-004
      -1.19218612e-002 -1.21937655e-002 -4.44946578e-003
      -1.12273898e-002 1.27665028e-002 2.75960751e-003 7.48387910e-003
      1.06625166e-002 6.71315752e-003 -4.78847418e-003 -6.92941993e-003
      5.51282661e-003 -1.00530880e-002 1.47856427e-002 1.41858216e-003
      -4.01792629e-003 9.12807696e-003 8.17258935e-003 8.74111243e-003
      -4.24134778e-003 1.47319948e-002 -2.55178697e-002 -1.26387058e-002
      -2.64450489e-003 -3.44058895e-003 1.12097552e-002 3.09908064e-003
      1.06190536e-002 6.23402139e-003 2.71536652e-002 2.88388022e-004
      -2.18934845e-002 -2.21406166e-002 -1.97923686e-002
      -5.59169613e-003 -1.11975772e-002 5.83973434e-003 3.01483870e-002
      -5.77934086e-003 -2.94186850e-003 -1.28801577e-002 4.86245677e-002
      2.98859756e-002 1.14657893e-003 -2.01173909e-002 2.31674034e-003
      2.91379020e-002 1.81639567e-002 1.35552883e-002 -7.31843058e-003
      4.55237031e-002 2.16778032e-002 -9.30610765e-003 -1.98082533e-002
      -3.35655548e-003 2.13607103e-002 -7.02541880e-003 1.14803724e-002
      -2.43321583e-002 5.01140207e-002 1.58355162e-002 -1.17597692e-002
      -2.49758009e-002 8.86038528e-004 3.03326417e-002 1.82428397e-002
      1.25236856e-002 -1.69047620e-002 3.28374654e-002 4.24315425e-004
      -6.59734476e-003 -2.03816351e-002 1.06378449e-002 3.03893592e-002
      2.14418918e-002 7.41210068e-003 -1.78354736e-002 2.55991258e-002
      1.51006309e-002 -1.84008423e-002 -6.10758411e-003 1.79253146e-002
      3.95144857e-002 3.13991606e-002 2.71144998e-003 -1.22181131e-002
      1.03003960e-002 5.69531554e-003 -9.51974839e-003 -1.15459990e-002
      1.95992459e-002 3.32612060e-002 2.47035269e-002 -2.24005594e-003
      -4.17556055e-002 1.41891893e-002 2.77415570e-003 -1.35180149e-002
      -6.20719418e-003 1.18018677e-002 3.26076411e-002 1.85391940e-002
      -7.82117248e-003 -2.20948178e-002 2.68813618e-003 -4.02128324e-004
      -1.11278724e-002 -2.22559227e-003 1.00192530e-002 3.35264839e-002
      3.22059207e-002 1.36169856e-002 1.61153432e-002 2.48231515e-002
      8.59422609e-004 -4.97942267e-004 1.89860980e-003 3.89397773e-003
      2.01135054e-002 1.67353339e-002 -1.30543578e-002 -1.83814801e-002
      1.64009668e-002 -1.18485158e-002 -5.65842586e-003 6.26449799e-003
      -4.80441516e-003 1.51310414e-002 3.63034778e-003 -3.85201443e-003
      1.11293849e-002 2.64981613e-002 7.18303025e-003 1.29467882e-002
      2.90661678e-003 -6.74149627e-003 2.08947621e-002 -3.88880912e-003
      -1.16307978e-002 -6.79135649e-003 3.61665264e-002 -5.73958643e-003
      2.41118483e-003 6.23889547e-003 1.33623164e-002 2.45312080e-002
      1.16056027e-002 -3.44130024e-002 -1.97828766e-002 2.45327000e-002
      -2.51623988e-003 2.27531578e-004 3.57466430e-004 6.74954103e-003
      4.41539437e-002 3.50952111e-002 -1.22948934e-003 -2.21714843e-002
      2.50063743e-002 -1.13625173e-003 2.29759025e-003 2.18451349e-003
      1.28092039e-002 2.87778471e-002 1.36151724e-002 -2.30827499e-002
      -3.14479731e-002 5.02497405e-002 6.12532860e-003 4.85843094e-003
      -2.43427418e-003 1.54365012e-002 3.56343128e-002 1.94618832e-002
      -2.07383707e-002 -3.63753550e-002 3.74494120e-002 1.50738070e-002
      2.28910497e-003 -6.13137707e-003 2.48138048e-003 3.37405428e-002
      2.38875188e-002 1.66178066e-002 -1.25603797e-002 1.68597754e-002
      -2.71833991e-003 -3.92494770e-003 2.51634908e-003 3.65107763e-003
      2.07764842e-003 2.78594089e-003 -5.53040672e-003 -1.67038795e-002
      9.40825138e-003 -5.10363933e-003 4.37902240e-003 2.54864851e-003
      1.02325855e-002 3.17197554e-002 2.01749373e-002 3.43498494e-003
      -2.44196900e-003 3.85159105e-002 2.36689318e-002 6.74390094e-003
      5.95861720e-003 2.68783224e-005 1.25550283e-002 -1.34515734e-002
      -1.68817788e-002 -2.91741807e-002 2.92477291e-002 2.61798725e-002
      1.99961718e-002 1.69694016e-003 7.18443934e-003 2.53866389e-002
      2.42728535e-002 -1.77883897e-002 4.57472727e-003 1.58533771e-002
      5.94637310e-003 7.90813100e-003 -2.67337672e-002 -1.47881610e-002
      8.83890595e-003 6.13263808e-003 -1.77680440e-002 -3.94792594e-002
      2.18129512e-002 -1.19462712e-002 -1.14558507e-002 2.00629048e-003
      1.02417981e-002 4.27512899e-002 1.49719156e-002 -2.07168013e-002
      -1.62600093e-002 4.56599221e-002 3.31861861e-002 3.03497780e-002
      -1.80491433e-002 1.02941515e-002 4.37466018e-002 1.32480655e-002
      -1.76462345e-002 -3.32284905e-002 3.81929576e-002 1.21504162e-002
      1.45273935e-003 -3.38262729e-002 -1.70597602e-002 -1.95558113e-003
      -7.08166102e-004 1.33585241e-002 -7.73815531e-003 1.45520810e-002
      -1.68663617e-002 -1.40710734e-002 -1.85809471e-003 2.58014211e-003
      2.28377227e-002 -1.92181226e-002 -1.88998617e-002 -4.38480861e-002
      9.77883954e-003 -6.64564082e-003 -3.31841665e-003 -1.71954855e-002
      3.23564233e-003 1.72386896e-002 1.98057364e-003 2.16576699e-002
      5.88232698e-003 2.19409410e-002 1.16659366e-002 6.55222638e-003
      2.66079209e-003 1.17350062e-002 3.10942437e-002 -3.01794782e-002
      -9.06051602e-003 -1.06549487e-002 2.29825191e-002 9.37858876e-003
      7.77596422e-003 -4.93530510e-003 -1.11575816e-002 -8.66582245e-003
      -1.93251185e-002 -2.77819950e-002 -3.93416286e-002 8.57193675e-003
      -1.17150182e-002 -9.25341435e-003 -4.81425901e-004
      -3.26047000e-003 1.69147030e-002 -9.53507051e-003 -2.20273957e-002
      7.61848921e-003 2.93664392e-002 -2.09474983e-003 -1.02071082e-002
      -1.75105054e-002 -1.62706636e-002 1.63756665e-002 -1.28314672e-002
      -1.55512569e-002 -1.53803062e-002 2.77836863e-002 -4.32759570e-003
      -1.17648914e-002 4.71432833e-003 6.86863298e-003 3.31016332e-002
      1.43688852e-002 8.58590298e-004 2.76785549e-002 4.39261645e-002
      1.99446063e-002 1.66387041e-003 -1.96030140e-002 -2.47679409e-002
      8.69548228e-003 -6.11391217e-002 -4.68181632e-002 -1.37512507e-002
      1.16234291e-002 -9.23026912e-003 -1.86906308e-002 -1.30515806e-002
      -1.13329990e-002 1.74464434e-002 -2.12231353e-002 -2.92952321e-002
      1.89181566e-002 3.18650715e-002 1.79406684e-002 -3.56534519e-003
      -5.60967764e-003 -1.00824060e-002 1.93582270e-002 -5.68221360e-002
      -1.35996044e-002 9.71680856e-004 1.74699500e-002 3.46093066e-003
      -1.00108664e-002 1.69736631e-002 1.94151588e-002 4.61422317e-002
      5.08756749e-003 9.18663014e-003 4.38955985e-002 4.58867587e-002
      1.28301624e-002 5.19503281e-003 -2.45554727e-002 -4.09863517e-002
      -4.04956415e-002 -4.87351045e-002 -3.38780284e-002
      -2.84768473e-002 8.30085203e-003 4.30943386e-004 -1.25995995e-002
      6.01613754e-003 4.70730895e-003 1.12586850e-002 3.67717724e-003
      -1.99764278e-002 -1.15520796e-002 3.27367447e-002 1.41336266e-002
      4.44914447e-003 1.42852636e-003 -4.59326245e-003 -7.70442327e-003
      -4.31041531e-002 2.20497372e-003 -2.13959292e-002 -1.49929267e-003
      -4.32140706e-003 -2.06580618e-003 1.80304535e-002 2.12785490e-002
      3.38015929e-002 -7.86922406e-003 -1.33544095e-002 1.00306608e-002
      2.42664050e-002 1.31176915e-002 1.00874957e-002 2.26699952e-002
      1.81822348e-002 1.20811118e-002 -3.03671490e-002 -5.30794151e-002
      -2.61741225e-002 2.24475339e-002 8.40753689e-003 6.01316569e-003
      2.82817446e-002 1.77286975e-002 2.46763490e-002 -1.43817393e-002
      -3.54419462e-002 1.42968434e-003 1.83588937e-002 1.61203034e-002
      1.85145065e-002 1.09600993e-002 2.38987580e-002 3.08374166e-002
      -2.44882740e-002 -4.42445539e-002 -1.76004507e-002 1.27795525e-002
      7.97878113e-003 1.52613211e-003 1.90106593e-002 1.54225323e-002
      2.47718282e-002 7.27878825e-004 -2.65022740e-002 -6.94263773e-003
      9.26243141e-003 7.57074822e-003 3.54573689e-003 7.74806831e-003
      4.97010350e-003 1.63368359e-002 -2.88234502e-002 -3.06590050e-002
      -3.05015482e-002 -1.83382928e-002 2.05083797e-003 7.86098000e-003
      2.55116005e-003 6.39657350e-003 3.05235125e-002 4.65168953e-002
      -1.14038223e-002 7.24311825e-003 -1.38039580e-002 3.44873010e-003
      9.07933153e-003 1.05664581e-002 1.57606993e-002 -1.02297612e-003
      -2.74879243e-002 -4.43399101e-002 -3.09121497e-002
      -2.28659268e-002 -5.98585140e-003 8.78759753e-003 -1.55847054e-003
      1.28314672e-002 2.15373151e-002 1.86839048e-002 -2.36493852e-002
      1.41319749e-003 -1.55888433e-002 -6.31856127e-003 6.29344815e-003
      6.47632778e-003 -1.15751317e-002 2.16472968e-002 3.82548869e-002
      -3.03028487e-002 4.05187113e-003 -8.75676610e-003 4.19599097e-003
      -5.34375291e-003 1.76723171e-002 1.35701550e-002 3.33768092e-002
      1.42839616e-002 -1.05968285e-002 2.69469358e-002 3.16904448e-002
      2.11706366e-002 5.28530125e-003 -1.93543322e-002 -2.23832354e-002
      7.29229674e-003 1.62488315e-002 -4.30072881e-002 -8.30108672e-003
      -1.94412395e-002 -1.37518151e-002 -1.26255937e-002
      -3.68481549e-003 -9.50842444e-003 2.42775772e-002 8.93433113e-003
      -5.58949960e-003 5.61904628e-003 1.85255390e-002 2.66189058e-003
      -7.97137897e-003 4.02193237e-003 3.03472322e-003 9.67917591e-003
      3.97865754e-003 3.06272181e-003 6.77005528e-003 1.17021091e-002
      -5.17509878e-003 -1.91225077e-003 1.90550704e-002 2.03041937e-002
      2.16876734e-002 3.04235052e-002 4.43823170e-003 -1.74890701e-002
      1.42289922e-002 1.22264950e-002 2.26557348e-002 -1.36055192e-002
      -1.64167602e-002 -4.24831733e-003 -1.62658636e-002
      -8.27500876e-003 -2.23577879e-002 -1.76407844e-002
      -2.42127571e-002 -2.06832848e-002 1.24226743e-002 5.74751198e-003
      1.45716574e-002 -5.99053875e-003 -1.46297505e-002 -2.37285700e-002
      5.25811163e-004 8.07132106e-003 2.74824735e-004 1.05242906e-002
      -4.99520916e-004 1.15206011e-003 3.34101953e-002 -1.20457876e-002
      -2.79465392e-002 -2.42115860e-003 1.16448337e-002 1.20223053e-002
      9.91483312e-003 1.41084930e-002 1.47626940e-002 4.61750850e-002
      -1.61516294e-003 -4.32839803e-002 -2.69393120e-002
      -5.54043613e-003 -3.50699207e-004 3.91401903e-004 -1.59120820e-002
      -4.86258231e-003 6.09256886e-003 -9.11446195e-003 -2.15565208e-002
      -1.16819062e-003 2.27575302e-002 4.80585685e-003 -3.57570872e-003
      1.93854969e-003 5.92976948e-003 2.56288312e-002 -8.14420357e-003
      -3.48856822e-002 -4.26636497e-003 1.23390323e-002 3.66813783e-003
      -3.57153118e-002 -2.07344741e-002 1.40157379e-002 -9.63794068e-003
      8.55043437e-003 -3.02508250e-002 2.33654231e-002 -1.82939786e-002
      -2.10163910e-002 -2.21281219e-002 -9.55640152e-003 1.56738069e-002
      -3.75890150e-003 1.01554859e-002 -3.31147835e-002 -1.34580827e-003
      -2.45880838e-002 -9.66568757e-003 -2.24711541e-002
      -1.30963586e-002 3.00181992e-002 -7.08890706e-003 4.01638262e-003
      -4.23506200e-002 2.35937387e-002 -6.66255411e-003 -8.63536261e-003
      -1.15817934e-002 1.75706227e-003 3.27858664e-002 1.30005451e-002
      5.48403896e-003 -3.58877517e-002 2.71193385e-002 6.23315340e-003
      6.68261154e-003 -1.01204868e-002 3.06653813e-003 1.43874744e-002
      7.35659618e-003 -1.89178716e-002 -4.73920889e-002 1.33059705e-002
      -1.29207438e-002 -8.37562620e-005 -8.69040191e-003
      -9.55442782e-004 1.29095390e-002 -2.12604951e-004 -2.70663900e-003
      -3.63070704e-002 3.15272924e-003 -1.04129389e-002 -1.57630239e-002
      3.68225644e-003 1.55144380e-002 3.63924876e-002 1.99270784e-003
      -6.62806677e-003 -3.72763462e-002 1.97753198e-002 5.00586908e-003
      1.70958247e-002 9.06373654e-003 2.62736138e-002 2.68663950e-002
      2.22913222e-003 4.82298760e-003 -4.02664803e-002 2.29462888e-002
      5.99176669e-003 -2.80512730e-003 -1.98240299e-003 -7.01135583e-003
      -6.49973424e-003 -3.75822681e-004 -1.26195485e-002 3.26686283e-003
      3.09483558e-002 -3.73996532e-004 1.52360916e-003 1.78999342e-002
      -4.65587334e-004 2.84142443e-003 -1.58964470e-002 -3.08370888e-002
      -2.14153342e-002 2.93526724e-002 -1.07687758e-002 2.02620038e-004
      2.25956328e-002 2.05587484e-002 1.60582326e-002 3.23146470e-002
      5.50281536e-003 -1.04584778e-002 3.96824330e-002 -5.64078509e-004
      7.06984196e-003 1.27234673e-002 2.40200609e-002 2.42458768e-002
      2.34700907e-002 -1.78793222e-002 -2.47400645e-002 4.07426432e-002
